tree
version=v3
num_class=1
num_tree_per_iteration=1
label_index=0
max_feature_idx=39
objective=binary sigmoid:1
feature_names=Column_0 Column_1 Column_2 Column_3 Column_4 Column_5 Column_6 Column_7 Column_8 Column_9 Column_10 Column_11 Column_12 Column_13 Column_14 Column_15 Column_16 Column_17 Column_18 Column_19 Column_20 Column_21 Column_22 Column_23 Column_24 Column_25 Column_26 Column_27 Column_28 Column_29 Column_30 Column_31 Column_32 Column_33 Column_34 Column_35 Column_36 Column_37 Column_38 Column_39
feature_infos=[6.3519e-09:5.5831e-06] [1.6766999999999999e-07:7.2153000000000002e-06] [3.1733e-07:1.3434e-05] [2.3545999999999999e-07:1.0363000000000001e-05] [1.2296e-08:8.1720000000000007e-06] [2.5810000000000001e-07:6.7496999999999999e-06] [6.9182000000000001e-07:1.7697e-05] [5.1338000000000001e-07:1.3726999999999999e-05] [4.2271999999999996e-09:4.4447e-06] [1.2658000000000001e-07:7.7164999999999997e-06] [1.8461999999999999e-07:1.1204e-05] [1.3855999999999999e-07:8.5341000000000002e-06] [3.1102999999999999e-09:3.8064999999999999e-06] [1.1410999999999999e-07:8.4264999999999997e-06] [1.3733e-07:1.0081999999999999e-05] [1.0185e-07:7.7958999999999993e-06] [2.2751000000000001e-09:3.2082e-06] [9.7273e-08:9.8842999999999995e-06] [8.7777999999999994e-08:8.9035000000000004e-06] [6.6332000000000001e-08:6.9085e-06] [2.5437999999999998e-09:3.2783999999999998e-06] [1.0398999999999999e-07:8.6038000000000005e-06] [1.0688e-07:8.8046000000000004e-06] [8.0108000000000005e-08:6.7630999999999997e-06] [1.3520999999999999e-09:1.9734e-06] [7.2979999999999996e-08:8.2134e-06] [4.6574999999999999e-08:5.2429999999999996e-06] [3.5456000000000003e-08:4.0326000000000002e-06] [1.5723e-09:2.4003999999999999e-06] [8.1797000000000001e-08:9.4761999999999992e-06] [5.5736999999999998e-08:6.4678000000000001e-06] [4.1876999999999998e-08:5.0513999999999996e-06] [2.0997000000000001e-09:3.0157000000000002e-06] [9.2567999999999999e-08:1.0226e-05] [7.4805e-08:8.2678000000000007e-06] [5.6389000000000003e-08:6.4350000000000002e-06] [1.7072000000000001e-09:2.7491000000000001e-06] [8.8272999999999999e-08:1.0263e-05] [6.5112999999999995e-08:7.5414000000000003e-06] [4.8421000000000001e-08:5.8169000000000002e-06]
tree_sizes=3411 3415 3410 3412 3423 3410 3404 3423 3426 3429 3432 3431 3431 3414 3433 3441 3420 3438 3439 3434 3430 3442 3445 3437 3432 3434 3428 3436 3426 3441 3435 3443 3444 3438 3436 3448 3440 3430 3435 3447 3446 3452 3454 3426 3467 3441 3468 3449 3461 3436 3444 3454 3444 3453 3449 3464 3449 3439 3445 3438 3469 3463 3483 3464 3480 3464 3455 3455 3484 3459 3469 3469 3472 3470 3457 3436 3460 3473 3483 3462 3473 3459 3458 3467 3444 3476 3474 3466 3485 3475 3458 3468 3448 3439 3472 3451 3484 3502 3470 3455

Tree=0
num_leaves=31
num_cat=0
split_feature=5 4 0 3 0 8 10 19 24 14 0 4 1 16 20 27 24 7 5 27 31 6 35 30 20 6 5 25 2 22
split_gain=995.189 785.286 163.589 195.539 101.057 88.0372 86.6955 195.739 90.4731 219.538 126.374 84.2884 81.9552 69.0077 67.4697 67.3939 48.8433 42.9619 41.0269 33.1668 26.2755 25.9578 25.4913 35.4725 21.1428 23.2998 21.0311 51.5492 19.2636 32.3488
threshold=9.0736500000000008e-07 2.4888000000000002e-06 1.0863500000000002e-06 1.7970500000000002e-06 1.4961000000000002e-06 4.5613500000000003e-07 7.3939000000000011e-07 2.6071500000000004e-07 1.3875500000000003e-07 7.5062500000000012e-07 1.0644500000000002e-06 1.8258000000000002e-06 6.8380500000000016e-07 2.1398500000000002e-07 3.0229500000000007e-07 1.3431500000000002e-07 1.3954000000000002e-07 3.0275500000000003e-06 1.0509500000000003e-06 6.4245500000000012e-07 1.5249000000000004e-07 3.7549500000000004e-06 2.2292500000000002e-07 2.2169500000000003e-07 2.5160000000000006e-07 2.5562000000000006e-06 2.5143000000000002e-06 1.7478000000000002e-06 1.6384500000000002e-06 6.7480500000000012e-07
decision_type=2 2 2 2 2 2 2 2 2 2 2 2 2 2 2 2 2 2 2 2 2 2 2 2 2 2 2 2 2 2
left_child=-1 5 -3 -4 -5 17 24 12 10 16 14 -11 13 -8 15 18 -10 -2 -9 28 -15 -12 -17 -24 25 -7 27 -6 -13 -30
right_child=1 2 3 4 26 6 7 8 9 11 21 19 -14 20 -16 22 -18 -19 -20 -21 -22 -23 23 -25 -26 -27 -28 -29 29 -31
leaf_value=-0.19044489966409842 -0.19275975200837206 0.20127648703599205 -0.18473669929882072 0.10221709733210163 -0.14377936607892425 0.13768038784898989 -0.1753681657000899 -0.082413135431684964 0.082244706491340372 -0.12708704550097807 -0.19275975200837206 0.15544733213514872 -0.17067350436533887 0.15993413807141554 0.15901660882584542 -0.14951580767426498 -0.1878816241414149 0.086032646691060949 0.1684864147593968 -0.12609200449329028 -0.092758130735749372 0.061789829412849377 0.10099501047995714 -0.052406599345041958 0.17795755530352633 -0.11656804056256431 -0.18728021111672152 0.098154055330166717 -0.042757320099438015 0.10824313198187753
leaf_weight=215.99649810791016 16.749728441238407 16.749728441238403 174.49717092514038 44.749274492263794 24.499602794647217 11.499813556671144 11.499813556671141 7.249882459640502 7.9998703002929679 16.749728441238403 14.749760866165163 69.498873233795166 40.74933934211731 23.249623060226444 296.49519300460815 9.2498500347137433 40.999335289001465 8.2498662471771222 64.498954296112061 5.9999027252197257 4.9999189376831046 5.4999108314514151 31.999481201171875 28.499537944793701 119.49806261062622 5.2499148845672599 18.249704122543335 13.749777078628538 15.999740600585936 125.24796938896179
leaf_count=864 67 67 698 179 98 46 46 29 32 67 59 278 163 93 1186 37 164 33 258 24 20 22 128 114 478 21 73 55 64 501
internal_value=0 0.336271 -1.10208 -1.2864 -0.180891 0.764483 0.812853 0.690289 0.85123 0.406118 1.12563 0.809952 -0.79067 0.230949 1.23855 0.670408 -1.51828 -1.08807 1.35086 0.976973 1.07162 -1.31671 -0.0295542 0.206831 1.55161 0.499422 -1.07001 -0.648582 1.04298 0.830903
internal_weight=0 1274.98 292.495 275.746 101.248 982.484 957.484 821.237 740.738 282.495 458.243 233.496 80.4987 39.7494 437.993 141.498 48.9992 24.9996 71.7488 216.746 28.2495 20.2497 69.7489 60.499 136.248 16.7497 56.4991 38.2494 210.747 141.248
internal_count=5964 5100 1170 1103 405 3930 3830 3285 2963 1130 1833 934 322 159 1752 566 196 100 287 867 113 81 279 242 545 67 226 153 843 565
shrinkage=1


Tree=1
num_leaves=31
num_cat=0
split_feature=5 4 0 3 0 8 8 23 24 14 0 4 1 12 27 24 37 7 28 8 20 16 27 19 27 6 20 27 7 5
split_gain=813.553 640.456 133.636 160.389 82.2559 71.7765 71.4549 183.511 80.332 178.791 106.381 71.7373 62.5435 45.4334 53.8826 40.0141 37.5788 35.1699 34.2675 29.5135 32.2506 28.7975 26.9751 26.3475 25.6667 21.2869 18.5601 20.224 18.2657 17.3007
threshold=9.0736500000000008e-07 2.4888000000000002e-06 1.0863500000000002e-06 1.7970500000000002e-06 1.4961000000000002e-06 4.5613500000000003e-07 4.8983500000000007e-07 3.2423500000000007e-07 1.3875500000000003e-07 7.5062500000000012e-07 1.0644500000000002e-06 1.8258000000000002e-06 6.7173500000000008e-07 3.9133500000000003e-07 1.3431500000000002e-07 1.3954000000000002e-07 3.0860500000000008e-07 3.0275500000000003e-06 1.3351500000000004e-07 5.1846500000000008e-07 2.9907000000000004e-07 2.3674000000000001e-07 6.4245500000000012e-07 2.6761500000000003e-07 1.4585000000000003e-07 3.7549500000000004e-06 2.5160000000000006e-07 1.2000500000000002e-07 1.9848500000000006e-06 2.5143000000000002e-06
decision_type=2 2 2 2 2 2 2 2 2 2 2 2 2 2 2 2 2 2 2 2 2 2 2 2 2 2 2 2 2 2
left_child=-1 5 -3 -4 -5 17 24 12 10 15 13 -11 16 14 -9 -10 -8 -2 -18 -16 -21 -15 -13 -14 26 -12 27 -7 -23 -6
right_child=1 2 3 4 29 6 7 8 9 11 25 22 23 21 19 -17 18 -19 -20 20 -22 28 -24 -25 -26 -27 -28 -29 -30 -31
leaf_value=-0.18032325218010914 -0.18246800644265834 0.17573781880593153 -0.17504074659796848 0.084980838711184031 -0.058628397909533739 0.12760523237341695 -0.17556439300302668 0.12748159444402934 0.066893153493216298 -0.13158827205738241 -0.18246800644265834 0.094236726531902779 -0.1631384649114726 -0.094145154262318731 0.081990134066508596 -0.17795005969997854 0.15698460024698513 0.070319875362843301 -0.13744603642446748 -0.19012125439013525 0.030278114892516556 -0.052991078235210598 -0.1212213714968117 0.059289653021395633 -0.080626327251183905 0.048414617792989723 0.15745497084888871 -0.10207791599869971 0.14016490612073301 -0.17739349229757648
leaf_weight=214.05324411392212 16.595366254448894 16.58149379491806 173.01961377263069 44.633313283324242 38.090751260519028 10.702553391456606 6.4525039047002819 45.690235376358032 7.9864869117736808 15.935568809509276 14.613829985260965 209.95836682617664 49.657551839947701 5.4734728038310996 15.212623402476309 40.64029848575592 19.129053205251697 8.2347531616687757 4.9825114160776129 14.957326382398607 11.938395544886587 4.9727314263582221 5.9762141704559317 5.9652395099401465 5.2420941591262809 5.4947534799575797 128.77934731543064 5.9731962382793418 316.32592594623566 18.090906038880348
leaf_count=864 67 67 698 179 153 43 26 184 32 64 59 843 200 22 61 164 77 33 20 60 48 20 24 24 21 22 519 24 1273 73
internal_value=0 0.304529 -0.999288 -1.16621 -0.16361 0.692135 0.73591 0.617109 0.783232 0.366019 1.05246 0.731634 -0.761377 1.16141 0.522755 -1.37737 0.387812 -0.986325 0.961423 -0.293279 -0.92291 1.33301 0.882737 -1.39284 1.36766 -1.19378 1.44601 0.453335 1.37175 -0.968716
internal_weight=0 1267.31 290.416 273.835 100.815 976.89 952.06 801.363 715.176 280.497 434.679 231.87 86.1869 414.571 87.7986 48.6268 30.5641 24.8301 24.1116 42.1083 26.8957 326.772 215.935 55.6228 150.697 20.1086 145.455 16.6757 321.299 56.1817
internal_count=5964 5100 1170 1103 405 3930 3830 3223 2876 1127 1749 931 347 1668 353 196 123 100 97 169 108 1315 867 224 607 81 586 67 1293 226
shrinkage=0.1


Tree=2
num_leaves=31
num_cat=0
split_feature=6 0 33 4 8 10 18 1 16 4 24 19 12 25 7 6 29 4 7 20 29 5 18 17 31 24 30 19 5 2
split_gain=678.261 536.05 169.248 175.441 68.3345 47.3609 158.281 79.3262 54.2186 49.5451 39.9976 127.584 36.0718 33.1918 49.0849 43.2883 30.1651 29.6719 29.6529 29.5719 35.9475 45.1272 18.6202 16.3794 16.1736 78.1268 19.0306 20.6606 16.0902 15.8835
threshold=2.4409500000000003e-06 1.0863500000000002e-06 6.1755500000000016e-07 2.8158500000000003e-06 4.5613500000000003e-07 7.3939000000000011e-07 3.4809500000000007e-07 6.8380500000000016e-07 2.1398500000000002e-07 1.6931500000000003e-06 1.3875500000000003e-07 3.2270500000000008e-07 3.9031500000000004e-07 2.8057000000000008e-07 1.9969500000000004e-06 3.1091500000000005e-06 2.9678500000000002e-07 1.8538500000000003e-06 3.0275500000000003e-06 4.4090500000000007e-07 1.74675e-06 2.5143000000000002e-06 3.5774500000000006e-07 3.3655500000000006e-07 4.5523500000000007e-07 1.9368000000000005e-07 4.0164000000000004e-07 5.4853500000000014e-07 1.0490500000000004e-06 1.5295500000000002e-06
decision_type=2 2 2 2 2 2 2 2 2 2 2 2 2 2 2 2 2 2 2 2 2 2 2 2 2 2 2 2 2 2
left_child=-1 4 -3 24 18 23 7 8 -7 -8 12 -12 13 28 -15 -16 -10 -13 -2 -5 -21 -22 -14 -6 25 26 -4 -28 -11 -19
right_child=1 2 3 19 5 6 9 -9 16 10 11 17 22 14 15 -17 -18 29 -20 20 21 -23 -24 -25 -26 -27 27 -29 -30 -31
leaf_value=-0.16641880546540297 -0.16873108920407476 -0.16393126209061773 0.10106915222217856 0.083577945218822502 -0.019267903395868667 -0.15753275859028987 -0.090531052474380258 -0.16696413819836578 0.14285922379400182 -0.055387139746440731 -0.14266960917733137 -0.074891578596598327 -0.069130733319553772 0.1602155896196544 -0.16350074479609714 0.092121276418009448 -0.12666131663301297 -0.0064562523999301515 0.06357133980334756 -0.17432535811246017 0.076479427405989758 -0.1631779701702358 0.12165615140872772 0.1393683991888911 0.080573323536672417 -0.18656042137993833 -0.19888481169733035 0.084231383314144731 0.12771704063228856 0.10755875486745646
leaf_weight=209.73683525621891 16.657581597566608 129.48754063248634 42.074335962533951 6.6757034808397284 6.8655937910079947 11.221582621335982 16.055401518940926 39.505281060934067 25.72525650262833 5.4484880268573752 29.3750881254673 10.824855297803877 5.1943071186542502 11.37875936925411 21.022621557116512 9.6730692833662015 4.9519635885953894 13.489707574248312 8.1997846662998182 68.698427110910416 15.472303479909899 15.963363021612166 337.07959981262684 125.2051592618227 76.202078402042389 15.159877389669417 4.9139847010374051 5.4212927222251892 40.269744217395782 129.67677031457424
leaf_count=868 69 534 170 27 28 46 65 162 105 22 121 44 21 46 85 39 20 55 33 282 62 66 1377 514 308 62 20 22 164 527
internal_value=0 0.279364 -0.711007 -0.231307 0.713106 0.761292 0.659126 -0.653022 0.305522 0.82881 0.874198 0.48314 1.04093 0.469093 -0.171853 -0.829471 0.993528 0.847456 -0.921007 -1.20209 -1.33795 -0.452211 1.18761 1.31122 0.4899 0.133716 0.712034 -0.503783 1.05896 0.968158
internal_weight=0 1247.89 380.069 250.581 867.821 842.963 710.892 81.4041 41.8988 629.488 613.433 183.366 430.067 87.7927 42.0745 30.6957 30.6772 153.991 24.8574 106.81 100.134 31.4357 342.274 132.071 143.772 67.5695 52.4096 10.3353 45.7182 143.166
internal_count=5964 5096 1553 1019 3543 3441 2899 333 171 2566 2501 747 1754 356 170 124 125 626 102 437 410 128 1398 542 582 274 212 42 186 582
shrinkage=0.1


Tree=3
num_leaves=31
num_cat=0
split_feature=7 0 34 4 8 10 18 1 16 4 24 23 20 27 4 7 20 29 5 7 20 7 29 5 31 19 29 17 31 4
split_gain=572.564 439.824 143.939 139.381 69.2332 41.0869 130.101 66.6039 45.1581 44.6174 34.0946 106.104 34.6346 42.0957 26.5702 26.4702 25.9554 30.3632 37.8199 25.6533 32.0226 28.3133 25.0293 19.1477 15.8882 16.9977 48.6087 15.4382 53.2857 46.7538
threshold=1.8151500000000001e-06 1.0863500000000002e-06 5.1056500000000002e-07 2.8158500000000003e-06 4.5613500000000003e-07 7.3939000000000011e-07 3.4809500000000007e-07 6.8380500000000016e-07 2.1398500000000002e-07 1.6931500000000003e-06 1.3679000000000002e-07 3.7698000000000008e-07 3.0229500000000007e-07 1.3431500000000002e-07 1.8091500000000001e-06 3.0275500000000003e-06 4.4090500000000007e-07 1.74675e-06 2.5143000000000002e-06 1.9969500000000004e-06 2.9545500000000005e-07 2.3680000000000005e-06 2.9678500000000002e-07 1.0490500000000004e-06 4.9011000000000014e-07 3.2270500000000008e-07 3.6662000000000009e-07 7.0676000000000012e-07 4.5523500000000007e-07 2.1853500000000006e-06
decision_type=2 2 2 2 2 2 2 2 2 2 2 2 2 2 2 2 2 2 2 2 2 2 2 2 2 2 2 2 2 2
left_child=-1 4 -3 27 15 -6 7 8 -7 -8 12 -12 13 23 -13 -2 -5 -18 -19 -15 21 -21 -10 -11 25 26 -16 -4 29 -29
right_child=1 2 3 16 5 6 9 -9 22 10 11 14 -14 19 24 -17 17 18 -20 20 -22 -23 -24 -25 -26 -27 -28 28 -30 -31
leaf_value=-0.15865060591034874 -0.15813708577138588 -0.14970423029557822 0.10637438998121761 0.084908927697797273 0.12127127374016555 -0.14610973984464495 -0.082596766562590004 -0.15531936928735923 0.13174971405329577 -0.062046889862674121 -0.17290217431997598 -0.14404959577724852 0.11706202391052159 0.13762891501125571 0.1665276105453449 0.057574299094062399 -0.16272607527415056 0.068965993240064902 -0.152494414614747 -0.16246942034113546 0.047335389467996133 0.093452432661174534 -0.11557213515531939 0.12618169407675595 -0.1001247607484983 0.093920630922291637 -0.14972417050174833 0.069804639460214327 0.073103320618993856 -0.17521719380161255
leaf_weight=196.30915096402168 18.830829441547397 131.46271525323391 31.630215615034103 6.4222283065319052 130.65085709095001 10.904977411031721 17.331439882516861 38.281854867935181 25.134906068444256 5.9334970563650122 19.86461216211319 5.589677929878234 273.55414529144764 10.468834936618803 8.954976826906206 8.1510425806045514 62.942253887653351 15.443319395184519 15.402002424001692 21.210209816694263 24.95679572224617 5.4295183271169654 4.8875790238380423 60.603762969374657 4.8991035819053641 150.71706560254097 10.628556311130522 12.769429221749304 75.619772151112556 19.961637273430824
leaf_count=843 81 560 129 26 549 46 71 162 105 24 84 23 1141 43 37 33 267 62 66 87 102 22 20 252 20 621 45 52 308 83
internal_value=0 0.252695 -0.655847 -0.195438 0.646707 0.697954 0.601788 -0.605054 0.281797 0.755936 0.801417 0.46473 0.969405 0.541395 0.705773 -0.929721 -1.09577 -1.22895 -0.416159 -0.0509873 -0.340579 -1.10309 0.914864 1.09396 0.774249 0.825325 -0.0511148 0.449093 0.269661 -0.796264
internal_weight=0 1228.64 371.654 240.191 856.984 830.002 699.352 79.2093 40.9275 620.142 602.811 200.654 402.157 128.603 180.789 26.9819 100.21 93.7876 30.8453 62.0654 51.5965 26.6397 30.0225 66.5373 175.2 170.301 19.5835 139.981 108.351 32.7311
internal_count=5964 5121 1553 993 3568 3454 2905 333 171 2572 2501 830 1671 530 746 114 421 395 128 254 211 109 125 276 723 703 82 572 443 135
shrinkage=0.1


Tree=4
num_leaves=31
num_cat=0
split_feature=7 0 34 4 8 8 23 24 20 1 4 37 12 27 28 7 3 8 5 25 8 16 27 25 23 0 24 32 19 31
split_gain=486.831 367.088 124.249 123.283 57.8207 35.3403 126.894 41.3093 104.341 38.881 37.8149 25.845 25.0663 33.4349 23.0466 22.7274 22.5326 22.3346 19.7978 19.3496 26.3395 18.4993 18.22 17.3055 94.9624 28.0333 21.3507 19.8232 16.8362 14.4476
threshold=1.8151500000000001e-06 1.0863500000000002e-06 5.0011500000000019e-07 2.8158500000000003e-06 4.5613500000000003e-07 4.8983500000000007e-07 3.2423500000000007e-07 1.3954000000000002e-07 3.4740500000000003e-07 6.7173500000000008e-07 1.8091500000000001e-06 3.0860500000000008e-07 3.9133500000000003e-07 1.3431500000000002e-07 1.3351500000000004e-07 3.0275500000000003e-06 2.0112000000000008e-06 5.327150000000001e-07 2.5143000000000002e-06 1.7478000000000002e-06 8.5122500000000016e-07 2.3674000000000001e-07 1.4585000000000003e-07 3.1496000000000006e-07 3.7059000000000009e-07 1.0426000000000002e-06 1.3307500000000002e-07 2.1523500000000001e-07 2.6761500000000003e-07 4.9011000000000014e-07
decision_type=2 2 2 2 2 2 2 2 2 2 2 2 2 2 2 2 2 2 2 2 2 2 2 2 2 2 2 2 2 2
left_child=-1 4 -3 -4 15 22 9 12 -9 11 -10 -7 13 -8 -13 -2 -5 -15 19 20 -18 -14 -6 25 26 -23 -25 -26 -11 -12
right_child=1 2 3 16 5 6 7 8 10 28 29 14 21 17 -16 -17 18 -19 -20 -21 -22 23 -24 24 27 -27 -28 -29 -30 -31
leaf_value=-0.15005463101847283 -0.14963356745922377 -0.14396755285710103 0.040937215607895025 -0.14960495733799598 0.11685002584243541 -0.15441603757733269 0.10109795022165975 -0.14319588836367284 -0.11673160066255557 -0.13535088822403787 0.084840401413372915 0.13115237963400217 -0.083203225532079803 0.033365252962393073 -0.11558664042963536 0.052207064992916399 0.12430085334898651 -0.1183254626067357 -0.14439957332129949 0.084158013143441471 -0.14553872497655587 0.12778500516860694 -0.071542149081910505 0.016385755090915048 -0.040430046545614551 -0.090184058566788322 -0.23987259165096764 0.12128295312275923 0.046531803305839801 -0.089479359409884607
leaf_weight=187.26203103363514 17.955640539526943 120.19782952964306 140.5918265581131 52.281369835138321 136.54834358394146 6.0018872916698482 43.088842898607254 28.928278014063835 10.685465469956396 45.789592921733856 132.29056966304779 17.887451231479648 5.3733713477849951 25.198971807956696 4.8017912805080405 8.0931930094957334 4.9141777753830018 15.787736430764197 16.279934883117676 13.137308135628698 13.708286806941031 199.36203835904598 5.3341565281152716 4.7182404845952979 8.2544107884168607 6.080389827489852 10.457356646656988 92.814835831522942 5.7257218658924094 4.9317137897014609
leaf_count=843 81 534 582 233 590 26 184 127 45 200 554 77 22 104 20 33 20 66 73 53 58 853 22 20 35 25 44 396 24 20
internal_value=0 0.233341 -0.609236 -0.194907 0.597245 0.644402 0.548153 0.709106 0.304947 -0.631753 0.644656 0.301198 0.882942 0.395938 0.789343 -0.869231 -1.04176 -0.250647 -0.547351 -0.0877337 -0.743323 1.00813 1.09767 1.03887 0.730528 1.21334 -1.60199 1.08076 -1.15135 0.785754
internal_weight=0 1197.22 361.111 240.913 836.11 810.061 668.179 587.972 176.836 80.2064 147.908 28.6911 411.136 84.0756 22.6892 26.0488 100.321 40.9867 48.0397 31.7598 18.6225 327.061 141.883 321.687 116.245 205.442 15.1756 101.069 51.5153 137.222
internal_count=5964 5121 1553 1019 3568 3454 2842 2495 746 347 619 123 1749 354 97 114 437 170 204 131 78 1395 612 1373 495 878 64 431 224 574
shrinkage=0.1


Tree=5
num_leaves=31
num_cat=0
split_feature=7 0 34 4 8 8 23 0 24 20 7 17 28 20 31 0 2 39 8 0 20 0 3 4 27 23 24 17 29 5
split_gain=417.273 307.431 108.141 104.004 48.509 30.2237 92.1875 43.5084 34.9238 81.2143 33.1258 27.8947 22.3448 21.9336 43.6494 20.1024 20.0799 17.5302 16.6822 14.2954 14.1888 13.3069 55.2985 20.1208 12.9767 63.3233 38.9029 12.9709 12.7046 27.5899
threshold=1.8151500000000001e-06 1.0863500000000002e-06 5.0011500000000019e-07 2.8158500000000003e-06 4.5613500000000003e-07 4.870550000000001e-07 3.2423500000000007e-07 8.5516500000000007e-07 1.3909000000000004e-07 3.4740500000000003e-07 2.1171500000000001e-06 3.5393000000000005e-07 1.3505500000000004e-07 3.0229500000000007e-07 1.5928500000000004e-07 5.8296500000000016e-07 2.6624500000000007e-06 5.5396000000000018e-07 8.5122500000000016e-07 1.0644500000000002e-06 2.9434000000000008e-07 1.1718000000000002e-06 1.6543000000000002e-06 2.2763000000000001e-06 1.4877500000000003e-07 3.6964500000000005e-07 1.3307500000000002e-07 3.9381500000000004e-07 1.74675e-06 2.5143000000000002e-06
decision_type=2 2 2 2 2 2 2 2 2 2 2 2 2 2 2 2 2 2 2 2 2 2 2 2 2 2 2 2 2 2
left_child=-1 4 -3 21 15 -6 7 11 13 -10 -11 -7 -13 14 -8 -2 -5 -12 -18 24 -16 -4 -23 -24 -15 26 -26 -9 -20 -30
right_child=1 2 3 16 5 6 8 27 9 10 17 12 -14 19 20 -17 18 -19 28 -21 -22 22 23 -25 25 -27 -28 -29 29 -31
leaf_value=-0.14308700305769134 0.038458860101197194 -0.13644369849642835 0.085336585062275844 -0.14373418020486683 0.1044460646821696 -0.14581055200989904 0.10749718089149363 -0.13921993566008933 -0.11860241166497064 -0.16914796349430142 0.079303017433886847 0.095076831646012133 -0.11430566665394498 0.1209009797531764 -0.070969378105078348 -0.14857482860979473 0.11891512069472226 -0.057905010822238846 -0.15161947478429713 -0.034333062841872139 0.028799551243668942 -0.1278532595050734 -0.12572191283361625 0.069730141758151606 0.054585037572827746 0.10945814387191258 -0.2131800482613927 0.036485391748323999 0.057822567336139108 -0.1366836647206571
leaf_weight=177.25660082697868 8.943131551146509 114.44015693664551 40.502667039632797 48.094102904200554 126.73675011098385 8.0181070715188962 56.490617394447327 36.720277979969978 30.899748012423515 6.0632838159799567 131.1066654920578 30.519626960158348 6.1185771673917762 148.4069139957428 25.983373180031776 16.077269926667213 5.0852621346712104 10.023604854941366 13.817386552691458 8.0538590252399427 31.578819170594215 20.756686583161354 5.6764137744903556 73.027875736355782 10.944715708494188 105.06597888469696 10.760557159781454 4.7442753911018363 15.240401878952982 13.984096616506575
leaf_count=843 38 534 168 226 565 36 247 168 140 26 559 135 26 658 110 76 21 42 62 33 133 88 23 303 48 464 44 20 62 66
internal_value=0 0.216122 -0.566608 -0.180031 0.553586 0.597099 0.511389 -0.453537 0.655816 0.287847 0.597251 0.231366 0.6011 0.820768 0.450494 -0.817227 -0.980365 0.69558 -0.523702 0.96987 -0.162358 0.370178 0.173413 0.556335 1.0083 0.773346 -0.781616 -1.19116 -0.72607 -0.352498
internal_weight=0 1163.88 350.625 236.185 813.256 788.236 661.499 86.1209 575.378 178.093 147.194 44.6563 36.6382 397.285 114.053 25.0204 96.2213 141.13 48.1271 283.232 57.5622 139.964 99.461 78.7043 275.178 126.771 21.7053 41.4646 43.0419 29.2245
internal_count=5964 5121 1553 1019 3568 3454 2889 385 2504 767 627 197 161 1737 490 114 437 601 211 1247 243 582 414 326 1214 556 92 188 190 128
shrinkage=0.1


Tree=6
num_leaves=31
num_cat=0
split_feature=7 0 34 4 8 10 19 25 21 4 8 21 12 24 0 28 2 4 6 7 3 24 10 32 0 17 20 24 9 34
split_gain=359.973 258.32 94.5538 88.385 40.7408 25.9483 81.59 34.9967 71.6792 43.4613 32.455 30.6119 21.1291 32.7609 21.3262 19.0878 46.7217 28.0497 20.1357 18.0355 17.9835 17.2706 16.1356 15.829 19.4301 15.297 14.5729 11.6671 24.4209 11.4608
threshold=1.8151500000000001e-06 1.0863500000000002e-06 5.0011500000000019e-07 2.8158500000000003e-06 4.5613500000000003e-07 7.3939000000000011e-07 2.6493000000000003e-07 3.1496000000000006e-07 4.7940000000000012e-07 1.7118500000000002e-06 5.0062500000000008e-07 3.9110500000000003e-07 3.9031500000000004e-07 1.2064500000000001e-07 1.0426000000000002e-06 1.6588000000000003e-07 1.5295500000000002e-06 1.8982500000000002e-06 2.9094e-06 3.0275500000000003e-06 1.9953500000000003e-06 1.3307500000000002e-07 1.3983000000000002e-06 2.1740500000000003e-07 8.769950000000001e-07 3.3655500000000006e-07 2.9111000000000007e-07 3.8809500000000006e-07 2.6187500000000005e-06 5.3515000000000018e-07
decision_type=2 2 2 2 2 2 2 2 2 2 2 2 2 2 2 2 2 2 2 2 2 2 2 2 2 2 2 2 2 2
left_child=-1 4 -3 29 19 25 10 12 21 -10 11 -7 13 -8 -14 23 18 -18 -17 -2 -5 -9 -22 24 -11 -6 -12 -24 -29 -4
right_child=1 2 3 20 5 6 7 8 9 15 26 -13 14 -15 -16 16 17 -19 -20 -21 22 -23 27 -25 -26 -27 -28 28 -30 -31
leaf_value=-0.13734836338958403 -0.13773580918387895 -0.13007777254329386 0.095296840749305486 -0.13741653064803441 -0.050873541810619149 -0.15201002708130484 0.074922964650529653 0.0085470105732907958 -0.11970237485996552 0.10469497255637901 -0.10728831127339251 0.10200587732865472 0.10894600564819767 -0.10589005257757873 -0.081426716599998894 0.04439056314630134 -0.1209052694053715 0.078252105419420223 -0.13112951030306377 0.045989727679504704 0.12586949608470469 -0.16878298477407594 -0.14264845467928366 0.12280995122198589 -0.095606480996586765 0.10703535228354429 0.016817692006008727 0.047456515805774396 -0.14482209313796282 0.020303269378157775
leaf_weight=166.73745685815811 16.081162780523304 108.35143722593784 24.85219244658947 45.542154669761658 6.4897088706493369 6.0511866211891201 45.477858141064644 7.7059250473976162 13.734928399324415 11.693736985325815 48.558098211884499 21.96644526720047 198.634417578578 12.852647840976713 6.0640764236450186 9.8653008341789263 7.4806298017501822 129.42905263602734 19.367594599723816 8.0016129761934263 4.7417417913675299 19.117731213569641 14.130014345049856 69.283307418227196 8.2664199620485288 112.14036412537098 11.751208722591398 16.238145247101787 11.134932264685629 113.19659774005413
leaf_count=843 81 534 105 227 28 28 201 33 60 49 228 100 909 55 25 42 32 566 89 33 20 85 66 316 36 521 51 69 55 477
internal_value=0 0.20068 -0.530668 -0.167616 0.513754 0.554021 0.475225 0.616354 0.380462 0.535835 -0.417905 0.471441 0.881767 0.350823 1.03306 0.62903 0.428663 0.673703 -0.718963 -0.766922 -0.928128 -1.17839 -0.488868 1.00205 0.217409 0.983969 -0.831064 -0.688528 -0.307594 0.33804
internal_weight=0 1128.2 338.187 229.836 790.013 765.931 647.301 558.974 295.945 269.121 88.3269 28.0176 263.029 58.3305 204.698 255.386 166.143 136.91 29.2329 24.0828 91.787 26.8237 46.2448 89.2435 19.9602 118.63 60.3093 41.5031 27.3731 138.049
internal_count=5964 5121 1553 1019 3568 3454 2905 2498 1308 1190 407 128 1190 256 934 1130 729 598 131 114 437 118 210 401 85 549 279 190 124 582
shrinkage=0.1


Tree=7
num_leaves=31
num_cat=0
split_feature=6 0 33 4 8 8 18 1 4 36 7 24 21 0 20 27 5 6 30 8 37 4 0 1 28 9 0 16 24 14
split_gain=312.213 217.646 85.2118 72.3222 34.3926 23.7266 77.8889 32.8775 27.9422 25.0864 18.3346 26.5441 84.593 26.9207 20.4235 36.7639 18.9812 18.2809 17.8447 50.091 16.8386 19.6458 16.3302 15.8977 15.5321 25.4547 15.004 24.4662 15.0816 55.5204
threshold=2.4291000000000006e-06 1.1034500000000002e-06 6.1755500000000016e-07 2.9470500000000004e-06 4.5613500000000003e-07 4.8983500000000007e-07 3.4809500000000007e-07 6.8380500000000016e-07 1.8495000000000002e-06 1.5074500000000004e-07 2.9316000000000004e-06 1.3341500000000003e-07 4.8510500000000005e-07 1.0048500000000002e-06 3.0229500000000007e-07 1.3387500000000003e-07 1.3866500000000003e-06 2.7614500000000005e-06 9.7132500000000018e-07 8.449900000000001e-07 1.6385000000000003e-06 2.6122500000000007e-06 5.8296500000000016e-07 7.9811500000000013e-07 5.2864500000000009e-07 2.6187500000000005e-06 1.0742000000000002e-06 3.5675500000000005e-07 1.3909000000000004e-07 7.5062500000000012e-07
decision_type=2 2 2 2 2 2 2 2 2 2 2 2 2 2 2 2 2 2 2 2 2 2 2 2 2 2 2 2 2 2
left_child=-1 4 -3 18 22 -6 7 9 23 -7 11 13 -13 14 15 -10 -15 -11 19 -4 -20 -22 -2 -8 -5 -26 28 -28 -14 -30
right_child=1 2 3 24 5 6 8 -9 10 17 -12 12 26 16 -16 -17 -18 -19 20 -21 21 -23 -24 -25 25 -27 27 -29 29 -31
leaf_value=-0.13255539157927324 0.034617473427092808 -0.13213358357755517 0.033945902357857299 -0.12569376291235654 0.089782417891640931 -0.14644118669010842 0.01511433771403527 -0.13203346941554125 0.11172045784595047 -0.10063187943481455 0.14857280170576531 -0.14911834190475345 0.10790904404150421 -0.17882570520302843 0.10565512111445417 -0.01106895248035597 0.085377997307784073 0.10131830194533341 0.13621141745572216 -0.14982266771597705 -0.087163309827025262 0.10542003030577243 -0.13851118573198967 -0.1159970661835615 0.075849929431609175 -0.13926101422409615 -0.13752030384350197 0.09109696656396403 -0.10900010861125374 0.074175044764151252
leaf_weight=156.04691222310066 8.7569567859172839 92.934683069586754 81.201108872890472 53.922275692224503 128.19447277486324 7.9601102024316779 40.601012825965881 32.371630594134331 47.078901305794716 5.7612678855657604 23.248870223760605 23.223824933171272 51.319204479455948 6.7868264317512494 167.59894618391991 50.581655934453011 4.5370507538318634 20.192717641592026 22.923207312822342 18.147511750459671 10.226563885807993 10.988993152976034 14.419289723038672 11.976041555404661 11.607597783207895 10.456538438796995 10.086992934346201 8.7346367388963682 19.958078414201736 96.816484108567238
leaf_count=843 38 486 347 280 612 38 180 162 218 26 108 109 244 31 803 220 20 94 97 81 42 46 77 54 49 55 47 38 90 429
internal_value=0 0.186567 -0.518751 -0.178902 0.46899 0.505726 0.425792 -0.599481 0.546601 0.0885875 0.618162 0.576722 0.308804 0.780278 0.844738 0.481237 -0.729692 0.564894 0.238838 0.00377824 0.767915 0.125888 -0.730959 -0.147503 -0.967732 -0.260945 0.532448 -0.314249 0.627254 0.428684
internal_weight=0 1092.61 312.408 219.474 780.205 757.029 628.834 66.2857 562.549 33.9141 509.971 486.723 210.139 276.583 265.26 97.6606 11.3239 25.954 143.487 99.3486 44.1388 21.2156 23.1762 52.5771 75.9864 22.0641 186.915 18.8216 168.094 116.775
internal_count=5964 5121 1483 997 3638 3523 2911 320 2591 158 2357 2249 957 1292 1241 438 51 120 613 428 185 88 115 234 384 104 848 85 763 519
shrinkage=0.1


Tree=8
num_leaves=31
num_cat=0
split_feature=7 4 8 3 23 18 0 9 28 8 19 31 9 4 6 1 31 24 21 0 28 14 24 14 31 20 0 32 5 20
split_gain=272.392 184.496 67.0561 75.2468 31.9485 31.0209 30.3808 21.4106 58.3459 27.0719 22.4353 26.0772 39.6828 30.5037 26.3861 25.8647 26.7812 19.8441 62.8726 38.965 21.2041 45.6485 34.8952 20.2427 31.9087 24.2461 18.9059 17.7059 19.9122 14.3001
threshold=1.8151500000000001e-06 2.4888000000000002e-06 6.442800000000001e-07 1.8250000000000001e-06 1.3030000000000003e-06 3.0247000000000003e-07 1.5166000000000002e-06 5.0784000000000019e-07 1.2898500000000004e-07 4.5613500000000003e-07 2.6493000000000003e-07 1.6487500000000003e-07 5.6601500000000006e-07 1.7281000000000002e-06 2.6692500000000003e-06 6.8380500000000016e-07 1.5402000000000003e-07 1.3215500000000003e-07 4.8510500000000005e-07 1.0395000000000002e-06 1.6397500000000001e-07 7.5062500000000012e-07 1.3954000000000002e-07 1.7185000000000004e-06 5.2854000000000015e-07 3.4275000000000007e-07 1.2198000000000002e-06 2.0380500000000002e-07 1.2494500000000002e-06 2.9111000000000007e-07
decision_type=2 2 2 2 2 2 2 2 2 2 2 2 2 2 2 2 2 2 2 2 2 2 2 2 2 2 2 2 2 2
left_child=-1 4 -3 -4 5 -2 -5 9 -9 -7 15 -12 13 -13 -14 16 -10 19 -19 27 -20 22 -22 24 25 -23 -27 28 -16 -17
right_child=1 2 3 6 -6 7 -8 8 10 -11 11 12 14 -15 17 29 -18 18 20 -21 21 23 -24 -25 -26 26 -28 -29 -30 -31
leaf_value=-0.12857801300908483 -0.15099980023111967 0.13410450937141391 -0.12680853237866249 0.054522003893936181 -0.16180684226871611 -0.12795693359015656 -0.065027165546260771 -0.12027807071609889 0.10971965753065674 0.093519334436340751 0.092966518712339408 0.061417504423441439 -0.12207915747064713 -0.19770110118697892 -0.15383817618351897 -0.12105251288202459 -0.1434368314740132 -0.10750787080670565 0.104779196646997 -0.096178862307300036 0.043946951031416437 -0.17161439668379327 -0.15437981497222045 0.14616860799025974 -0.16795602687888764 0.063791499940098015 -0.090461638304404374 0.10230950305842411 0.08535382878459713 0.017335141730557554
leaf_weight=145.44060926139355 8.3140248060226423 16.106485828757286 125.49881203472614 42.717943847179413 7.8276040256023398 5.8054504394531241 42.312706425786018 22.962652236223221 20.591591566801075 111.87330360710621 104.65819309651852 7.2130019366741207 9.4124347418546659 12.2739130705595 5.9939357191324225 22.330186650156975 5.2427522093057624 29.052407130599022 51.786893770098686 12.094161272048948 15.542511612176893 4.7945891618728629 20.669950500130653 20.745297804474831 6.9662840068340293 164.81095634400845 8.3481395989656431 129.93915556371212 8.2994497120380384 11.218274518847464
leaf_count=843 44 82 694 185 33 34 209 119 97 559 500 32 43 53 27 115 23 141 256 59 74 21 100 90 30 737 35 644 35 50
internal_value=0 0.174003 -0.625531 -0.775983 0.392644 0.411816 -0.0496771 0.431479 0.364684 0.825932 0.418246 0.475135 0.381483 -1.01789 0.437311 -0.168627 0.583448 0.46989 0.328234 0.76232 0.467064 0.342728 -0.692573 0.525019 0.419939 0.502127 0.563548 0.90689 -0.149514 -0.74777
internal_weight=0 1055.4 226.636 210.529 828.767 820.94 85.0307 812.625 694.947 117.679 671.984 612.601 507.943 19.4869 488.456 59.3828 25.8343 479.044 322.717 156.327 293.665 241.878 36.2125 205.665 184.92 177.954 173.159 144.233 14.2934 33.5485
internal_count=5964 5121 1170 1088 3951 3918 394 3874 3281 593 3162 2877 2377 85 2292 285 120 2249 1484 765 1343 1087 174 913 823 793 772 706 62 165
shrinkage=0.1


Tree=9
num_leaves=31
num_cat=0
split_feature=7 0 33 4 18 9 28 8 4 37 7 24 14 8 20 27 32 2 28 33 28 9 6 20 24 30 8 26 4 2
split_gain=238.272 157.256 70.4122 53.6727 27.0822 16.1359 51.3301 23.1734 22.3911 18.6184 15.5248 16.6575 85.4877 22.6231 19.0478 31.9244 17.9056 17.1167 14.5371 20.1577 14.2903 22.4043 13.1819 18.1532 12.9742 12.5753 39.217 13.1597 12.4338 25.8537
threshold=1.8151500000000001e-06 1.1034500000000002e-06 6.1755500000000016e-07 2.9470500000000004e-06 3.0247000000000003e-07 5.0784000000000019e-07 1.2898500000000004e-07 4.5613500000000003e-07 1.8353500000000004e-06 3.1531500000000007e-07 2.9316000000000004e-06 1.3954000000000002e-07 7.5062500000000012e-07 6.3033500000000014e-07 3.0164500000000003e-07 1.3431500000000002e-07 3.3541500000000004e-07 1.3955500000000003e-06 1.3456500000000001e-07 4.0667000000000003e-07 5.2864500000000009e-07 2.6187500000000005e-06 3.1495500000000006e-06 2.9434000000000008e-07 1.3193000000000002e-07 9.7132500000000018e-07 8.449900000000001e-07 9.1665000000000005e-07 2.1921500000000003e-06 2.1427000000000003e-06
decision_type=2 2 2 2 2 2 2 2 2 2 2 2 2 2 2 2 2 2 2 2 2 2 2 2 2 2 2 2 2 2
left_child=-1 4 -3 25 -2 7 -7 -6 18 -10 11 13 -13 14 15 17 -14 -11 -8 -20 -5 -22 23 -17 -21 26 28 -27 -4 -30
right_child=1 2 3 20 5 6 8 -9 9 10 -12 12 16 -15 -16 22 -18 -19 19 24 21 -23 -24 -25 -26 27 -28 -29 29 -31
leaf_value=-0.12513579293410751 -0.14269940585469473 -0.1246098419029105 0.10474723046424489 -0.11705307688364237 -0.12459908480809773 -0.1135995479661526 0.086750293667923653 0.087945466490828628 -0.11186824756333069 0.079645894264997574 0.13505496676807743 -0.13017940536756542 0.071192138282066317 -0.12386629547616466 0.07925657895629562 -0.14727934309127666 -0.10837180258911533 -0.12849906279768061 -0.1724535800745971 0.0440011385464886 0.074867746425509182 -0.13258984385099967 0.069157410403288808 0.0014639207424184666 -0.061321483419223888 0.096598773287854434 -0.1360408558250473 -0.036745929426756863 -0.094127838479471371 0.049536673808435211
leaf_weight=135.03199703991413 7.9375475049018851 81.860417708754539 17.539797499775887 48.250587910413742 5.3871984332799903 21.935319438576698 12.261501625180243 107.30847544968128 7.0723265260457984 72.233594745397568 21.31160232424736 30.226828724145889 97.621662124991417 6.6281354427337638 232.02807892858982 15.701589420437811 5.8882449418306342 4.179413989186286 8.7941998839378339 23.944697484374046 11.592190101742746 9.4486897438764554 8.654002368450163 17.185393244028091 22.864130213856697 32.547681510448456 17.215179249644279 9.5793395638465864 17.378681048750877 44.862920701503754
leaf_count=843 44 486 77 280 34 119 57 559 39 363 108 162 452 33 1184 71 26 21 39 107 49 55 37 76 107 145 81 40 77 193
internal_value=0 0.162251 -0.460236 -0.151568 0.410059 0.430277 0.365908 0.777852 0.422071 0.492739 0.515012 0.478698 0.177727 0.591568 0.62623 0.299031 0.609775 0.682614 -0.118084 -0.335424 -0.870641 -0.182939 -0.406556 -0.695522 -0.074445 0.206571 0.00843532 0.662773 0.303804 0.0942364
internal_weight=0 1019.44 290.275 208.415 729.164 721.226 608.531 112.696 586.595 518.731 511.659 490.347 133.737 356.61 349.982 117.954 103.51 76.413 67.8645 55.603 69.2915 21.0409 41.541 32.887 46.8088 139.124 96.9966 42.127 79.7814 62.2416
internal_count=5964 5121 1483 997 3638 3594 3001 593 2882 2572 2533 2425 640 1785 1752 568 478 384 310 253 384 104 184 147 214 613 428 185 347 270
shrinkage=0.1


Tree=10
num_leaves=31
num_cat=0
split_feature=7 0 34 4 20 10 18 1 4 5 27 0 25 22 27 17 7 26 23 0 36 28 9 4 20 24 6 27 14 7
split_gain=209.058 132.826 63.2999 46.1558 23.6521 22.8047 53.521 20.2245 20.219 19.499 17.7246 14.0866 12.9847 42.6325 16.0161 18.4257 13.6179 17.0312 47.085 13.6833 13.4436 12.6568 19.3079 12.3582 16.3316 44.1356 16.5328 14.493 32.8324 12.2995
threshold=1.8151500000000001e-06 1.1034500000000002e-06 5.0011500000000019e-07 2.9470500000000004e-06 2.5160000000000006e-07 7.4591000000000009e-07 3.4809500000000007e-07 6.8971000000000011e-07 1.8538500000000003e-06 1.1021500000000003e-06 1.2050500000000003e-07 9.3417000000000011e-07 2.9633500000000004e-07 4.7364000000000005e-07 1.4519500000000002e-07 4.1099500000000009e-07 2.9126500000000004e-06 2.0188500000000001e-07 3.7146500000000005e-07 1.0048500000000002e-06 1.8690500000000002e-07 5.2864500000000009e-07 2.6187500000000005e-06 2.0522500000000001e-06 4.0081000000000005e-07 1.4036500000000003e-07 3.2899500000000002e-06 2.1834500000000004e-07 7.5435500000000006e-07 2.2219500000000004e-06
decision_type=2 2 2 2 2 2 2 2 2 2 2 2 2 2 2 2 2 2 2 2 2 2 2 2 2 2 2 2 2 2
left_child=-1 4 -3 -4 10 -6 7 9 11 -7 -2 -8 -10 14 15 -14 17 19 -19 29 -21 -5 -23 -20 25 26 -25 28 -27 -15
right_child=1 2 3 21 5 6 8 -9 12 -11 -12 -13 13 16 -16 -17 -18 18 23 20 -22 22 -24 24 -26 27 -28 -29 -30 -31
leaf_value=-0.12218417395252723 0.016175209956767689 -0.12111768960808232 0.019010885345064718 -0.11237146635194893 0.085688387073465655 -0.051734821788529145 0.0065812897504519676 -0.12766178376314782 0.077641753663339197 0.15390442023123299 -0.14425421432919783 -0.15452274203308763 -0.20016033878677819 -0.052629876214113962 -0.2105359810253504 0.056080395483495075 0.12435096771271217 -0.1341014502188986 0.07189478762281204 -0.16318849526746118 0.084496636281159249 0.068136626374971726 -0.12888556004106794 -0.10250692551699332 0.077060778267565744 -0.14067945998985545 0.098445201675417829 -0.22655920612825706 0.075584901376115676 0.10717328417125799
leaf_weight=124.98057578504086 16.326919823884968 76.126947119832039 136.4851940125227 45.383907929062843 101.23873901367188 18.406980916857723 60.937200501561165 25.261258035898209 131.38376034796238 6.1522138714790335 11.91041389107704 5.9580933898687354 4.2046982496976879 5.1783394515514365 7.9151403903961173 8.4375907778739911 22.670115873217583 16.426203563809395 80.916370689868927 4.2703055441379529 4.5012688487768173 11.470091596245767 8.7824827134609205 4.7232455462217322 33.853794127702713 18.139252260327343 30.737781941890717 6.0747696459293357 11.451796948909758 68.89351361989975
leaf_count=843 90 486 613 280 555 96 283 147 670 31 63 28 20 27 37 42 120 86 395 21 21 49 55 23 161 100 163 28 54 377
internal_value=0 0.15116 -0.433996 -0.141279 0.381792 0.419153 0.342283 -0.648394 0.435995 -0.00221056 -0.514934 -0.077676 0.510732 0.404437 -0.989838 -0.291427 0.497547 0.438244 0.281865 0.82016 -0.36085 -0.83037 -0.173016 0.425265 0.198902 -0.0732087 0.716793 -0.858674 -0.569847 0.960015
internal_weight=0 984.218 278.249 202.122 705.97 677.732 576.494 49.8205 526.673 24.5592 28.2373 66.8953 459.778 328.394 20.5574 12.6423 307.837 285.167 202.323 82.8434 8.77157 65.6365 20.2526 185.897 104.981 71.1268 35.461 35.6658 29.591 74.0719
internal_count=5964 5121 1483 997 3638 3485 2930 274 2656 127 153 311 2345 1675 99 62 1576 1456 1010 446 42 384 104 924 529 368 186 182 154 404
shrinkage=0.1


Tree=11
num_leaves=31
num_cat=0
split_feature=6 4 8 2 39 0 18 10 28 20 27 30 37 4 3 22 19 25 23 6 0 4 1 9 24 21 15 13 24 0
split_gain=184.325 113.562 48.9449 60.9575 30.9186 24.5314 21.1841 15.4521 53.3975 18.2976 29.3568 16.7186 26.9333 22.3384 18.3128 38.8096 21.885 17.8672 17.1708 15.7035 30.073 15.6252 15.424 11.1577 45.0782 16.9399 11.3571 11.8718 26.6213 9.91223
threshold=2.4291000000000006e-06 2.5316500000000001e-06 6.4747000000000007e-07 2.6624500000000007e-06 9.5401000000000016e-07 1.5166000000000002e-06 3.0247000000000003e-07 7.4943500000000009e-07 1.3053500000000002e-07 2.5160000000000006e-07 1.2050500000000003e-07 9.7132500000000018e-07 1.1436000000000002e-06 1.6749500000000002e-06 1.1947000000000002e-06 6.1600000000000012e-07 2.6493000000000003e-07 1.4104000000000003e-06 5.2336500000000013e-07 3.7549500000000004e-06 1.0863500000000002e-06 1.9153500000000006e-06 7.1572000000000011e-07 6.8375500000000005e-07 1.3954000000000002e-07 5.8256500000000013e-07 5.4756000000000012e-07 4.8715000000000018e-07 1.2064500000000001e-07 1.1789000000000003e-06
decision_type=2 2 2 2 2 2 2 2 2 2 2 2 2 2 2 2 2 2 2 2 2 2 2 2 2 2 2 2 2 2
left_child=-1 4 -3 -4 6 -5 -2 9 -9 10 -8 12 13 -10 16 19 22 -13 23 -16 -21 -17 -15 24 26 -26 27 28 -18 -23
right_child=1 2 3 5 -6 -7 7 8 11 -11 -12 17 -14 14 15 21 18 -19 -20 20 -22 29 -24 -25 25 -27 -28 -29 -30 -31
leaf_value=-0.11968831054358964 -0.1374881470442216 0.13807809608676519 -0.1202379480902738 0.079253334393873845 -0.17877132674799365 -0.04830965160377107 0.066165836029132605 -0.12252051361920112 -0.12467219785404748 0.083760485063817197 -0.20873768177399052 0.14265178799268244 -0.19395533418369462 0.0077582865877480131 -0.13405488438521473 -0.14114522642074284 0.055453183682275309 -0.034137452581984175 -0.1227887497832789 0.13357140920840718 -0.13297832753260766 0.054597466439793851 -0.14290626874752124 0.10927076178031754 -0.12432844092815497 0.064019029414004572 -0.087667888074112812 0.070635260392985427 -0.15586569263308137 -0.017051048218817685
leaf_weight=115.48587775230408 7.2693089991807929 11.80713878571987 101.93738174438477 26.129498273134232 6.9955951273441306 35.635631218552589 11.38167826831341 22.75044547021389 9.0022073537111265 100.25436855852604 5.8974454998970023 25.441771283745766 5.3407955020666114 32.327817693352699 22.867346525192261 4.9365926682949057 26.569576635956764 7.3734805434942237 5.4632840454578391 8.0194480270147341 8.9639779478311521 97.108107522130013 8.6030064672231656 35.262382417917252 19.19353969395161 6.35667560994625 5.0611341893672934 262.29170005023479 7.6859701424837104 24.101130783557892
leaf_count=843 42 69 676 117 31 193 60 138 44 573 32 118 23 164 124 23 133 31 26 41 56 460 47 172 122 31 24 1409 36 106
internal_value=0 0.140911 -0.585559 -0.727383 0.305109 0.0565537 0.324134 0.340337 0.279546 0.673801 -0.2766 0.334587 0.295893 0.316343 0.340823 0.0607124 0.45456 1.02928 0.531735 -0.799564 -0.0711551 0.332483 -0.23909 0.55826 0.500656 -0.774692 0.608694 0.634045 0.0803924 0.403509
internal_weight=0 952.028 175.51 163.703 776.519 61.7651 769.523 762.254 644.72 117.533 17.2791 621.97 589.155 583.814 574.812 165.997 408.815 32.8153 367.884 39.8508 16.9834 126.146 40.9308 362.421 327.159 25.5502 301.608 296.547 34.2555 121.209
internal_count=5964 5121 1055 986 4066 310 4035 3993 3328 665 92 3190 3041 3018 2974 810 2164 149 1953 221 97 589 211 1927 1755 153 1602 1578 169 566
shrinkage=0.1


Tree=12
num_leaves=31
num_cat=0
split_feature=6 4 8 2 39 0 18 10 28 8 30 37 4 3 16 19 1 31 25 6 0 0 33 23 20 0 21 38 5 32
split_gain=162.616 96.4498 41.9388 54.9488 26.0412 20.3015 17.9877 13.6644 35.7086 17.3645 13.8866 22.0432 16.4667 15.2462 34.1271 18.2273 19.816 17.2305 15.2424 14.6642 24.9346 13.9077 24.4232 12.8693 10.6997 10.6929 11.6514 10.4065 9.94184 17.0577
threshold=2.4291000000000006e-06 2.5316500000000001e-06 6.4747000000000007e-07 2.6624500000000007e-06 9.5401000000000016e-07 1.5166000000000002e-06 3.0247000000000003e-07 7.3939000000000011e-07 1.2898500000000004e-07 4.5613500000000003e-07 9.7132500000000018e-07 1.1436000000000002e-06 1.6931500000000003e-06 1.1947000000000002e-06 3.3869000000000002e-07 2.6493000000000003e-07 6.8380500000000016e-07 1.5402000000000003e-07 1.4104000000000003e-06 3.7870500000000004e-06 1.0426000000000002e-06 1.1789000000000003e-06 1.1200500000000002e-06 5.2336500000000013e-07 2.9180000000000006e-07 1.0863500000000002e-06 6.2191500000000002e-07 7.6077500000000014e-07 1.3244000000000002e-06 2.6989500000000008e-07
decision_type=2 2 2 2 2 2 2 2 2 2 2 2 2 2 2 2 2 2 2 2 2 2 2 2 2 2 2 2 2 2
left_child=-1 4 -3 -4 6 -5 -2 9 -9 -8 11 12 -10 15 19 16 17 -14 -12 20 28 27 -23 -17 -18 -21 -27 -16 29 -15
right_child=1 2 3 5 -6 -7 7 8 10 -11 18 -13 13 14 21 23 24 -19 -20 25 -22 22 -24 -25 -26 26 -28 -29 -30 -31
leaf_value=-0.11747219435619854 -0.13027926397549386 0.13099780063303118 -0.11659659794687226 0.073068324164447904 -0.16723910821614199 -0.04405473119520989 -0.12077968936607329 -0.1025966993583408 -0.085921700311182514 0.076760855466278213 0.13330518211891731 -0.17548626313330096 0.093964648330723419 -0.18494210925668542 0.078850192992044099 0.052406391194015904 -0.10817873091362884 -0.11515043314632548 -0.030655154935419052 0.084209941373322439 -0.14062546371132645 -0.11600499765850961 0.12623778074228528 -0.10596960579957296 0.019340492343684405 -0.13883073091250761 0.053452265651605317 -0.076901370316731929 0.089628059195313678 0.037777100253625621
leaf_weight=106.36550791561604 6.9225716218352309 11.23108050227165 94.969282433390617 25.538708373904228 6.7429940700530997 35.19377464056015 4.6801239103078833 20.754338651895523 12.183571994304655 90.458094716072083 24.369555190205578 5.313345491886138 20.393940567970279 5.5967955291271236 64.530038565397263 350.82939498871565 20.207570746541027 4.8838983029127112 7.38906705379486 12.421000912785532 26.922337532043457 11.70100758969784 6.4596723169088355 5.206853210926055 9.7569515258073789 6.5609723627567273 6.0639373064041138 4.5953160673379889 8.2032261341810209 8.9185310751199705
leaf_count=843 42 69 676 117 31 193 34 129 60 536 119 23 107 26 308 1932 119 23 31 65 153 51 28 24 46 43 27 20 44 45
internal_value=0 0.131337 -0.556285 -0.690903 0.283966 0.0519686 0.301665 0.316707 0.264391 0.670433 0.307412 0.272782 0.291184 0.315634 0.0557651 0.417978 -0.116468 0.535618 0.951576 -0.44046 -0.755203 0.480363 -0.298403 0.500902 -0.666563 0.183359 -0.464743 0.684961 0.0163181 -0.480986
internal_weight=0 918.998 166.933 155.702 752.065 60.7325 745.322 738.4 643.261 95.1382 622.507 590.748 585.435 573.251 161.973 411.279 55.2424 25.2778 31.7586 74.6868 49.6409 87.286 18.1607 356.036 29.9645 25.0459 12.6249 69.1254 22.7186 14.5153
internal_count=5964 5121 1055 986 4066 310 4035 3993 3423 570 3294 3144 3121 3061 810 2251 295 130 150 403 268 407 79 1956 165 135 70 328 115 71
shrinkage=0.1


Tree=13
num_leaves=31
num_cat=0
split_feature=6 4 8 2 39 5 16 30 37 25 2 22 8 8 23 0 21 37 5 19 28 4 25 22 27 18 26 23 24 20
split_gain=143.744 81.7879 35.9368 49.6123 22.0681 17.3178 15.4256 11.2185 19.6257 13.908 12.7414 31.8852 13.9373 13.16 37.5476 16.8524 17.291 15.7457 13.6162 21.1874 22.9791 12.4586 12.4385 38.5155 13.1903 13.7454 13.1542 34.1219 22.6634 11.6562
threshold=2.4291000000000006e-06 2.5316500000000001e-06 6.4747000000000007e-07 2.6624500000000007e-06 9.5401000000000016e-07 2.5143000000000002e-06 1.9818000000000002e-07 9.7132500000000018e-07 1.1436000000000002e-06 1.4104000000000003e-06 1.6161000000000003e-06 5.9883000000000008e-07 4.5613500000000003e-07 4.8983500000000007e-07 3.2423500000000007e-07 8.6092000000000011e-07 3.9334500000000003e-07 3.2890500000000002e-07 1.0490500000000004e-06 2.9799500000000007e-07 1.6716500000000003e-07 1.9204500000000004e-06 2.9633500000000004e-07 4.7364000000000005e-07 1.4519500000000002e-07 3.7123000000000008e-07 2.0008e-07 3.7146500000000005e-07 1.3307500000000002e-07 3.0164500000000003e-07
decision_type=2 2 2 2 2 2 2 2 2 2 2 2 2 2 2 2 2 2 2 2 2 2 2 2 2 2 2 2 2 2
left_child=-1 4 -3 -4 6 -5 -2 8 10 -9 12 -12 -8 -14 15 16 -15 -18 19 -16 -21 -13 29 24 25 -24 -25 28 -28 -20
right_child=1 2 3 5 -6 -7 7 9 -10 -11 11 21 13 14 18 -17 17 -19 22 20 -22 -23 23 26 -26 -27 27 -29 -30 -31
leaf_value=-0.11553971559689076 -0.13819817350177707 0.12428810224247483 -0.11320815387912482 0.029463717866054825 -0.15794184894938745 -0.11266836227282434 -0.1184285782593289 0.12698066115043788 -0.162123090586582 -0.029387971683808085 -0.09906081714080707 -0.11220380482741397 0.069879760385100423 -0.11816130736869679 -0.185323664577937 -0.10716061791152971 0.079231772276254928 -0.13755250744459233 0.045388071464331499 0.070566241302589261 -0.14498468005330689 0.031178465076955032 -0.17877338111182201 0.086638665087826638 -0.20104624844506272 0.047490548688956837 0.070811532362625412 0.050582876652602887 -0.1507876316737122 0.10855548389654156
leaf_weight=97.770292058587074 5.5435873493552199 10.682568103075026 88.371963016688824 49.354123324155807 6.4413888454437247 10.374513521790503 5.8365499004721633 23.091336160898212 5.4654223173856726 7.5471649169921866 25.744330406188965 6.4004083573818198 98.767642959952354 8.9181443154811841 6.2833704501390448 24.994453459978104 20.75701962411404 3.9953962415456763 66.277713865041733 20.493645846843723 6.5189889073371878 113.96364775300026 4.1826368719339388 57.252418711781502 7.8661299496889105 7.497843012213707 6.5814917385578182 122.73903718590736 15.447610855102537 52.236065328121185
leaf_count=843 39 69 676 237 31 73 46 119 24 32 168 31 598 53 27 166 108 20 350 101 33 551 21 356 37 40 34 684 85 312
internal_value=0 0.122021 -0.528484 -0.656253 0.26335 0.0477621 0.279736 0.29255 0.266192 0.884625 0.281301 0.0194929 0.352581 0.36948 0.294196 -0.449529 0.0122538 0.442397 0.41105 -0.199258 0.185471 0.235541 0.470803 0.330933 -1.00945 -0.335318 0.460622 0.300151 -0.845819 0.732297
internal_weight=0 889.627 158.783 148.101 730.843 59.7286 724.402 718.858 688.22 30.6385 682.755 146.108 536.646 530.81 432.042 58.665 33.6706 24.7524 373.377 33.296 27.0126 120.364 340.081 221.567 19.5466 11.6805 202.021 144.768 22.0291 118.514
internal_count=5964 5121 1055 986 4066 310 4035 3996 3845 151 3821 750 3071 3025 2427 347 181 128 2080 161 134 582 1919 1257 98 61 1159 803 119 662
shrinkage=0.1


Tree=14
num_leaves=31
num_cat=0
split_feature=6 4 8 3 10 29 35 4 20 10 18 4 27 8 0 5 31 9 19 29 27 25 32 27 23 15 19 1 25 28
split_gain=127.349 69.5119 30.7852 46.3944 22.3557 19.1234 19.1155 14.5944 13.783 16.782 33.6223 14.5203 15.4013 15.0393 13.6157 12.6635 18.3709 35.2754 12.9285 20.2354 11.5026 18.4315 14.1822 17.0911 38.5956 24.4564 14.3678 13.0572 11.3331 11.0343
threshold=2.4291000000000006e-06 2.5316500000000001e-06 6.4747000000000007e-07 1.8250000000000001e-06 1.3983000000000002e-06 1.5339000000000003e-06 1.0941500000000001e-06 3.7278500000000007e-06 2.5160000000000006e-07 7.5394000000000004e-07 3.4809500000000007e-07 1.7020500000000003e-06 1.2050500000000003e-07 4.5613500000000003e-07 7.602900000000002e-07 1.0509500000000003e-06 1.6590500000000003e-07 5.6601500000000006e-07 2.9320000000000006e-07 4.2356000000000007e-07 5.7049500000000005e-07 9.4218000000000004e-07 2.0380500000000002e-07 1.4962500000000004e-07 3.7146500000000005e-07 4.7991000000000001e-07 2.9799500000000007e-07 7.6182000000000008e-07 3.2373500000000003e-07 1.6397500000000001e-07
decision_type=2 2 2 2 2 2 2 2 2 2 2 2 2 2 2 2 2 2 2 2 2 2 2 2 2 2 2 2 2 2
left_child=-1 6 -3 -4 -5 -6 8 -7 11 14 -11 12 13 -2 -10 18 -17 -18 -12 -20 21 22 -19 25 27 -24 -27 28 -25 -26
right_child=1 2 3 4 5 7 -8 -9 9 10 15 -13 -14 -15 -16 16 17 20 19 -21 -22 -23 23 24 29 26 -28 -29 -30 -31
leaf_value=-0.11384750374959351 -0.11536950983749326 0.11786698380907952 -0.11749274819049005 0.0982974851128635 -0.13265591582501321 0.035170791646442816 -0.15347629507312877 -0.12074238803325188 -0.13760731574340251 -0.074219412743812038 -0.11335323468769368 -0.21569611840648131 -0.11884684684062315 0.12942164618788041 0.073870142486669191 0.072287888203397432 -0.18756843051380898 -0.11014179099621804 0.055646935179536929 -0.13309675465944459 0.090265980841376339 -0.17920017078879841 0.095383675250856059 0.059891493723339032 0.069210469346476122 -0.15595225179094452 0.029351290749574339 -0.16745532220193415 -0.14117187391773253 0.017329375126530135
leaf_weight=89.713512942194939 3.5306501463055673 10.165389515459536 73.240155071020126 16.565095752477646 14.483634255826471 29.136241242289543 5.983972303569316 7.561895176768302 3.1459010764956465 34.023944824934006 11.751249358057974 4.2469025254249564 8.1534349769353849 8.6800527572631818 94.434491120278835 94.972231179475784 7.7704519033431998 7.5596099942922583 23.41902452707291 7.4991405308246604 27.257412180304527 4.4554253220558158 67.075921967625618 6.7800206691026705 51.640305161476135 6.3764444738626507 12.171058036386965 13.74233767390251 4.779700942337513 198.85611237585545
leaf_count=843 31 69 630 75 87 137 30 57 20 227 55 22 52 48 604 542 38 35 118 40 141 20 428 36 318 43 78 77 29 1034
internal_value=0 0.113597 -0.502033 -0.623215 -0.0267657 -0.35357 0.244973 0.0304384 0.260137 0.286833 0.222294 -0.474987 -0.124215 0.586418 0.670523 0.282385 0.326718 0.234606 -0.240677 0.0986752 0.27553 0.229755 0.254168 0.282521 0.161356 0.672802 -0.343542 -1.0157 -0.23244 0.280248
internal_weight=0 859.458 151.152 140.987 67.7469 51.1818 708.306 36.6981 702.322 677.711 580.13 24.611 20.3641 12.2107 97.5804 546.106 503.437 408.465 42.6694 30.9182 400.694 373.437 368.982 361.422 275.798 85.6234 18.5475 25.3021 11.5597 250.496
internal_count=5964 5121 1055 986 356 281 4066 194 4036 3883 3259 153 131 79 624 3032 2819 2277 213 158 2239 2098 2078 2043 1494 549 121 142 65 1352
shrinkage=0.1


Tree=15
num_leaves=31
num_cat=0
split_feature=7 0 14 23 22 23 18 24 12 10 36 20 27 5 9 18 2 19 20 36 33 2 6 0 27 4 27 21 25 22
split_gain=113.068 59.7651 44.7779 14.8456 16.4707 12.8431 12.6973 12.1578 14.7258 9.30971 26.5192 13.8999 21.9762 10.4985 9.37912 21.3727 9.99973 31.5667 14.2405 10.8037 16.4398 16.8136 16.2153 13.1692 12.8359 11.202 9.8898 28.5553 12.6942 26.7779
threshold=1.8151500000000001e-06 1.1660500000000003e-06 1.0186000000000001e-06 5.4190500000000009e-07 1.2320500000000001e-06 2.2453000000000003e-06 3.0247000000000003e-07 1.9368000000000005e-07 6.3215000000000006e-07 7.3939000000000011e-07 1.5074500000000004e-07 2.5160000000000006e-07 1.2050500000000003e-07 9.863000000000002e-07 5.2333000000000001e-07 3.4809500000000007e-07 1.6384500000000002e-06 3.3677000000000007e-07 2.8205500000000005e-07 2.4824500000000004e-07 1.0765500000000001e-06 2.6169000000000003e-06 3.5637500000000004e-06 1.1084500000000002e-06 1.9240000000000003e-07 2.0350500000000005e-06 1.3387500000000003e-07 4.3798500000000004e-07 2.9633500000000004e-07 4.7364000000000005e-07
decision_type=2 2 2 2 2 2 2 2 2 2 2 2 2 2 2 2 2 2 2 2 2 2 2 2 2 2 2 2 2 2
left_child=-1 6 -3 -4 7 -6 -2 8 -5 11 -11 12 -8 -12 -15 -16 18 -18 -17 22 -21 -22 25 24 -24 -19 -20 -28 -29 -30
right_child=1 2 3 4 5 -7 9 -9 -10 10 13 -13 -14 14 15 16 17 19 26 20 21 -23 23 -25 -26 -27 27 28 29 -31
leaf_value=-0.11238313077832927 -0.1191009291832713 -0.11474941507116183 0.077772331221292887 -0.14537769956868554 0.016886975010175592 -0.12320598153238951 0.058727233675859747 -0.12862770494570794 0.088138490812886452 -0.12697044952533931 -0.051690897936962299 0.076018592040402927 -0.19962033882488525 0.086057692617780499 -0.073680202844745135 -0.091449180179394657 -0.11924088085888435 -0.019542608096128632 0.090255115789020138 0.075638415898625813 -0.17983545844071414 0.090592410818522262 0.13027134543037927 -0.10531395470241384 -0.0076298478840785364 -0.22103969196539658 -0.069229660709934318 0.087743383772511493 -0.091680430331154417 0.04228302353691954
leaf_weight=82.195740476250648 6.0755855813622466 55.673177100718021 17.701977014541626 4.3305725604295748 70.345007568597794 7.2151293382048598 9.3959426954388601 20.130094856023788 7.1743898093700409 11.777371190488337 17.422104835510254 68.924661576747894 5.0689459815621367 25.760033473372459 21.365370459854603 8.44159237295389 17.80987261980772 5.6795201152563077 35.216293081641197 50.022293455898762 5.5588982254266721 3.9206428751349449 11.959012851119043 6.5553921535611144 15.495854988694189 5.3655298203229904 24.534312918782234 52.280146032571793 15.984755769371985 224.25537830591202
leaf_count=843 44 513 82 21 361 57 58 138 33 88 90 480 32 154 141 41 142 30 211 249 27 22 73 45 75 25 121 334 82 1352
internal_value=0 0.105636 -0.399807 -0.0717766 -0.209492 0.0385465 0.24785 -0.817611 0.00240871 0.26145 0.214985 0.573152 -0.318058 0.246915 0.272014 0.241958 0.285247 0.0382259 0.369045 0.247848 0.527564 -0.679892 -0.121556 0.220319 0.524383 -1.17427 0.399803 0.343961 0.430874 0.333696
internal_weight=0 831.44 182.57 126.897 109.195 77.5601 648.87 31.6351 11.505 642.794 559.404 83.3896 14.4649 547.627 530.205 504.445 483.079 122.367 360.712 104.557 59.5018 9.47954 45.0553 34.0103 27.4549 11.045 352.271 317.055 292.52 240.24
internal_count=5964 5121 1205 692 610 418 3916 192 54 3872 3302 570 90 3214 3124 2970 2829 688 2141 546 298 49 248 193 148 55 2100 1889 1768 1434
shrinkage=0.1


Tree=16
num_leaves=31
num_cat=0
split_feature=6 4 0 3 10 24 23 4 30 0 3 20 4 23 4 6 36 19 28 0 10 24 14 20 8 5 30 27 20 27
split_gain=100.518 50.6117 24.4547 39.0846 16.9776 16.5283 16.5225 12.9609 11.5313 16.0366 13.4575 24.0285 14.052 12.5766 12.1537 17.556 13.7155 12.9494 17.2391 12.6466 11.0386 22.7333 23.288 13.635 20.5293 16.4019 17.7243 21.8102 11.2213 16.9264
threshold=2.4291000000000006e-06 2.5316500000000001e-06 1.1084500000000002e-06 1.8250000000000001e-06 1.3983000000000002e-06 3.2137500000000006e-07 1.3030000000000003e-06 3.7278500000000007e-06 9.7132500000000018e-07 7.4551500000000009e-07 1.1947000000000002e-06 3.4172500000000005e-07 1.9039500000000002e-06 5.2336500000000013e-07 2.1921500000000003e-06 3.7549500000000004e-06 2.2469500000000004e-07 4.5485500000000006e-07 2.0496000000000003e-07 1.0500500000000002e-06 1.01065e-06 1.3954000000000002e-07 7.5062500000000012e-07 3.0229500000000007e-07 4.9866500000000008e-07 1.0490500000000004e-06 1.9965500000000002e-07 1.3431500000000002e-07 2.5160000000000006e-07 1.2064500000000003e-07
decision_type=2 2 2 2 2 2 2 2 2 2 2 2 2 2 2 2 2 2 2 2 2 2 2 2 2 2 2 2 2 2
left_child=-1 6 -3 -4 -5 -6 8 -7 9 -2 13 -12 -13 20 16 17 -14 18 19 -16 21 23 -23 24 28 -26 -27 -28 29 -11
right_child=1 2 3 4 5 7 -8 -9 -10 10 11 12 14 -15 15 -17 -18 -19 -20 -21 -22 22 -24 -25 25 26 27 -29 -30 -31
leaf_value=-0.11106549410371058 -0.13732442405910866 0.1093811309943829 -0.11447311013434334 0.08765464251254762 -0.12531360089240956 0.034618368030871864 -0.13154364895599091 -0.11753410011164833 0.086931151312410179 0.039953258624366994 -0.1197296229907811 -0.14827440563138172 -0.12617189475128202 -0.10736996843659496 0.078595914509975273 0.026962446342430297 0.059629449683717563 -0.17923610925156766 0.14753044802371293 -0.13319961726256463 0.096029896643484075 -0.12492937359711179 0.055524089954113315 0.054780126342899138 -0.104216796437861 -0.10158317073420227 0.06240781862302467 -0.038166318501277503 0.06174151481776588 -0.18506406384175322
leaf_weight=75.226212732493877 6.4172091335058203 9.428677521646021 61.669382691383362 15.620304703712462 13.692223951220511 28.05245965719223 7.0217442810535422 6.9944876655936232 26.790829002857208 10.822544053196905 16.062585070729256 5.4347283840179434 4.2555142641067496 6.5774990841746321 3.7568882554769578 43.298533111810684 59.833447873592377 8.3327647149562818 4.2592864483594886 11.296724095940588 25.366878598928452 18.594752766191963 11.621057644486426 182.12149283289909 16.225352518260479 13.763089060783384 51.611463114619255 37.033394753932953 96.004268877208233 4.837122067809104
leaf_count=843 58 74 625 75 85 135 35 61 146 68 107 30 21 34 21 229 310 36 21 69 140 125 64 1174 89 112 316 184 650 27
internal_value=0 0.0979775 -0.459609 -0.575827 -0.030701 -0.321463 0.210483 0.0425257 0.226612 0.199604 0.215597 -0.038667 0.093823 0.29946 0.157276 -0.12787 0.472922 -0.750426 -0.300871 -0.803424 0.318759 0.281993 -0.555266 0.343335 0.181641 -0.108024 0.0399805 0.203907 0.489385 -0.295525
internal_weight=0 806.797 135.458 126.029 64.3595 48.7392 671.339 35.0469 664.317 637.527 631.109 156.53 140.468 474.579 135.033 70.9442 64.089 27.6457 19.3129 15.0536 468.001 442.635 30.2158 412.419 230.297 118.633 102.408 88.6449 111.664 15.6597
internal_count=5964 5121 1055 981 356 281 4066 196 4031 3885 3827 844 737 2983 707 376 331 147 111 90 2949 2809 189 2620 1446 701 612 500 745 95
shrinkage=0.1


Tree=17
num_leaves=31
num_cat=0
split_feature=7 0 2 4 4 18 28 23 11 18 20 27 27 10 28 5 17 28 7 7 28 8 28 27 27 21 0 23 0 8
split_gain=89.5757 43.7303 39.2361 14.6445 10.8763 10.0873 8.67533 12.6339 7.93671 24.2836 12.1772 23.6083 8.03918 7.49846 17.4731 10.6541 14.9309 18.2574 10.4588 20.3421 17.9682 11.9381 10.2098 8.50283 9.85111 32.6169 24.2099 20.9179 21.4134 16.708
threshold=1.8151500000000001e-06 1.1789000000000003e-06 2.2509000000000003e-06 2.9809000000000005e-06 2.2959500000000004e-06 3.0247000000000003e-07 5.2864500000000009e-07 2.2453000000000003e-06 5.4880500000000008e-07 3.1848500000000006e-07 2.5362500000000005e-07 1.2050500000000003e-07 1.2000500000000002e-07 7.6064000000000012e-07 1.3053500000000002e-07 1.0490500000000004e-06 4.4090000000000004e-07 1.6716500000000003e-07 2.1821500000000004e-06 2.2163000000000007e-06 1.3954500000000002e-07 5.2803000000000016e-07 1.3505500000000004e-07 1.2851500000000004e-07 1.4877500000000003e-07 4.8204000000000015e-07 9.9956000000000009e-07 3.4312000000000002e-07 8.7876500000000015e-07 5.7208500000000011e-07
decision_type=2 2 2 2 2 2 2 2 2 2 2 2 2 2 2 2 2 2 2 2 2 2 2 2 2 2 2 2 2 2
left_child=-1 5 -3 4 -4 -2 -5 -8 10 -10 11 -7 -11 22 -15 16 -16 -18 21 20 -20 -17 -14 -21 26 29 27 28 -25 -26
right_child=1 2 3 6 -6 8 7 -9 9 12 -12 -13 13 14 15 18 17 -19 19 23 -22 -23 -24 24 25 -27 -28 -29 -30 -31
leaf_value=-0.10994067872236245 -0.11364103200195608 -0.10897503277592971 -0.11360622307348951 -0.097134212937647638 0.034568984223897814 0.070213948061607911 0.063264760297261441 -0.11996740211576107 -0.17315430161328302 -0.13736296637065781 0.086551963691711836 -0.16724050817460523 0.079993450222475157 -0.12382073179150493 -0.13482220087666272 -0.068707395302575275 0.054376751019891291 -0.13531936734412073 0.05733110531668896 -0.11698653347913696 -0.14833500826060206 0.076367149455665903 -0.08598069628525673 0.11953469282290814 0.012909301989560314 0.026427718297443573 -0.094059174516742644 0.092416834661600861 -0.056303829837954435 -0.15753609926825096
leaf_weight=68.778976686298847 5.503324829041957 51.877830423414707 5.357427865266799 20.709467649459839 65.733779907226562 12.312356002628805 10.873353183269503 5.754516288638114 6.5271791368722907 3.1918834075331679 42.00179148465395 6.3446072228252879 36.490952722728252 8.4847260117530805 10.023885399103163 6.2806027159094802 20.670900546014312 6.7241059914231291 6.3100417405366924 4.2211483493447295 12.998876996338366 58.554611712694168 4.1252325326204291 9.926937058567999 9.1153537780046481 225.15864936262369 10.709587894380091 75.783278673887253 22.90639491379261 15.582733586430548
leaf_count=843 44 513 25 177 341 82 49 54 51 29 324 44 249 65 53 33 109 40 45 32 71 354 22 58 60 1348 82 546 129 92
internal_value=0 0.091044 -0.374516 -0.0323106 0.234025 0.211428 -0.53942 -0.00147601 0.2235 0.185886 0.566903 -0.105363 0.208755 0.218039 0.184694 0.209085 -0.303945 0.0781583 0.251041 0.18961 -0.811245 0.623137 0.631361 0.241365 0.2575 0.144613 0.493874 0.635312 -0.0314024 -0.946296
internal_weight=0 780.256 160.306 108.429 71.0912 619.949 37.3373 16.6279 614.446 553.787 60.6588 18.657 547.26 544.068 503.452 494.967 37.4189 27.395 457.548 392.713 19.3089 64.8352 40.6162 373.404 369.183 249.857 119.326 108.617 32.8333 24.6981
internal_count=5964 5121 1159 646 366 3962 280 103 3918 3468 450 126 3417 3388 3117 3052 202 149 2850 2463 116 387 271 2347 2315 1500 815 733 187 152
shrinkage=0.1


Tree=18
num_leaves=31
num_cat=0
split_feature=6 4 8 3 29 24 16 29 8 21 30 35 0 0 37 11 28 14 28 17 4 2 20 36 24 21 11 4 21 24
split_gain=79.8869 37.9286 20.3238 35.868 12.8928 12.8555 8.70056 8.56332 12.3194 9.7388 8.37748 14.3492 9.9706 8.35687 8.03564 7.47412 8.5566 30.9009 12.0781 17.4308 11.7641 11.0982 12.8537 30.1438 9.85671 9.25463 36.7692 13.3282 8.90713 21.019
threshold=2.4291000000000006e-06 2.4888000000000002e-06 6.442800000000001e-07 1.7329000000000002e-06 1.6918000000000003e-06 1.8696500000000003e-07 1.9818000000000002e-07 1.4615500000000002e-06 8.449900000000001e-07 2.8432000000000006e-06 9.7132500000000018e-07 6.9005000000000017e-07 1.2198000000000002e-06 7.4551500000000009e-07 1.6688500000000003e-06 1.1298000000000004e-06 1.6397500000000001e-07 7.5062500000000012e-07 1.6910000000000003e-07 4.5886000000000007e-07 1.8091500000000001e-06 1.6384500000000002e-06 3.1393000000000006e-07 1.8019500000000003e-07 1.3954000000000002e-07 7.5903000000000015e-07 9.2063500000000014e-07 2.1921500000000003e-06 4.4408000000000004e-07 1.1933500000000003e-07
decision_type=2 2 2 2 2 2 2 2 2 2 2 2 2 2 2 2 2 2 2 2 2 2 2 2 2 2 2 2 2 2
left_child=-1 4 -3 -4 6 -5 -2 8 -7 -9 11 12 13 -8 -12 16 21 18 19 -18 -19 22 23 28 -21 -22 -27 -28 29 -15
right_child=1 2 3 5 -6 7 10 9 -10 -11 14 -13 -14 15 -16 -17 17 20 -20 24 25 -23 -24 -25 -26 26 27 -29 -30 -31
leaf_value=-0.10891338932998861 -0.12856476269081923 0.096352144883661728 -0.10907912374876141 0.089436751451751811 -0.14732752105800959 0.018120357625275026 -0.15392269512922641 0.025755850885379218 -0.13616816360046588 -0.1182439584290662 0.11742330573592621 -0.10443157805350022 -0.10141320647463137 0.029675098776258013 -0.013919415817471831 0.094954982317673575 -0.15938490855894025 -0.11522377510232668 -0.13960001848310893 0.088583812566958242 0.049449794634628619 -0.08470740243745456 0.060075684009006251 -0.14417644537351354 -0.12710128954648744 -0.27700666870048007 0.05870988204623543 -0.11513400276908713 0.063326775817743208 -0.06636891703838263
leaf_weight=62.808945655822754 3.8978689461946479 10.343621112406252 56.58041762560606 12.471119642257689 4.6195197328925124 8.7690002620220202 2.6757380701601496 33.751608565449715 12.627367250621317 5.4557556957006446 16.555140078067783 9.2708608806133253 6.5805106386542311 176.8683351315558 6.4818939119577399 14.161555409431456 6.3677351251244572 5.6826911494135848 17.289695359766483 10.069883421063421 86.916248485445976 8.3326420262455922 113.92077150940895 10.739814400672911 2.6834290549159041 4.5380665659904471 25.072738766670231 5.351409599184989 53.031529195606709 26.155831955373287
leaf_count=843 39 82 655 64 26 39 25 171 104 55 100 43 30 1247 29 69 44 37 110 63 479 67 800 56 20 22 134 24 346 141
internal_value=0 0.0844919 -0.385438 -0.493055 0.191075 -0.0302403 0.203624 -0.220507 -0.729352 0.0571809 0.21316 0.189895 0.209745 0.223878 0.804676 0.232195 0.213825 0.0222247 -0.790317 -0.242643 0.254154 0.294579 0.319566 0.199499 0.432014 0.319729 -0.114749 0.281319 0.268339 0.173016
internal_weight=0 757.263 139.999 129.655 617.264 73.0749 612.644 60.6037 21.3964 39.2074 608.747 585.709 576.439 569.858 23.037 567.182 553.021 163.972 36.4107 19.121 127.561 389.049 380.716 266.796 12.7533 121.878 34.9622 30.4241 256.056 203.024
internal_count=5964 5121 1170 1088 3951 433 3925 369 143 226 3886 3757 3714 3684 129 3659 3590 933 237 127 696 2657 2590 1790 83 659 180 158 1734 1388
shrinkage=0.1


Tree=19
num_leaves=31
num_cat=0
split_feature=7 4 3 8 29 24 18 24 8 0 32 23 30 31 0 8 37 4 20 27 1 37 0 28 5 19 39 28 7 7
split_gain=71.332 32.2393 17.4889 32.6485 11.1056 10.8633 7.83269 7.48758 12.525 10.4934 7.69189 8.29264 7.17127 12.3951 8.92047 9.99248 19.6644 10.2639 8.68221 12.2324 8.07026 7.15002 6.41416 5.91984 5.81194 9.53085 14.1111 12.9636 9.32285 13.2799
threshold=1.8151500000000001e-06 2.4888000000000002e-06 1.7329000000000002e-06 6.442800000000001e-07 1.6918000000000003e-06 1.8696500000000003e-07 3.0247000000000003e-07 3.0169500000000003e-07 8.449900000000001e-07 1.4961000000000002e-06 6.2321500000000012e-07 2.2453000000000003e-06 9.7132500000000018e-07 5.2854000000000015e-07 7.5615000000000006e-07 4.8983500000000007e-07 3.1531500000000007e-07 1.6698500000000004e-06 2.5160000000000006e-07 1.2064500000000003e-07 6.7969000000000007e-07 1.6688500000000003e-06 1.2198000000000002e-06 1.6716500000000003e-07 1.0509500000000003e-06 2.9799500000000007e-07 1.8050500000000001e-07 1.6716500000000003e-07 2.1821500000000004e-06 2.2163000000000007e-06
decision_type=2 2 2 2 2 2 2 2 2 2 2 2 2 2 2 2 2 2 2 2 2 2 2 2 2 2 2 2 2 2
left_child=-1 4 3 23 6 -4 -2 8 -7 -9 -11 -12 13 14 -8 18 -17 -18 19 -16 -20 -14 24 -3 25 26 -19 -27 -26 -30
right_child=1 2 5 -5 -6 7 12 9 -10 10 11 -13 21 -15 15 16 17 22 20 -21 -22 -23 -24 -25 28 27 -28 -29 29 -31
leaf_value=-0.10801229195498191 -0.10613700346976961 -0.039498190014432548 0.083856391576327197 -0.10738271038531905 -0.1419101031358396 0.016353947283430297 -0.12131378864504186 0.074365527346264296 -0.14593976654649984 -0.13735009147144303 0.031502334009503717 -0.11668220018641295 0.11239214715235993 -0.1264703372376306 0.047749444094904697 -0.091300227985145935 -0.13462928199751306 0.036182195019636376 0.075238435550473562 -0.17165243518783926 -0.079954822782121182 -0.012519621360451408 -0.069171120997888011 0.13619851936668823 0.06234978468877618 0.069617246451350631 -0.1403661405409555 -0.12116810557149382 -0.059409401322333924 0.023968921080283204
leaf_weight=57.309171490371227 4.9765012897551051 2.5944178178906423 11.996113672852514 51.963831074535847 4.3311573341488829 8.74581126868725 4.4830332994461051 13.880029410123823 10.421701841056345 5.5819460526108768 15.387301594018938 5.0047955065965644 15.615674749016764 5.9032475650310507 7.3734003752469999 16.817229233682156 4.3214764967560759 7.7510650977492359 63.578602403402328 3.8774628043174744 3.5371657460927954 6.4857420772314063 7.8926541656255713 7.352241225540638 58.328210555016994 17.342146202921871 10.884912632405756 4.4819958359003058 20.258479543030262 334.76582220196724
leaf_count=843 44 20 64 655 26 39 41 73 89 40 73 55 100 29 49 139 31 44 508 22 22 29 36 62 373 97 59 23 124 2155
internal_value=0 0.0781576 -0.367628 -0.756112 0.176428 -0.028962 0.187971 -0.205286 -0.718879 0.0417223 -0.333377 -0.0486633 0.198443 0.176832 0.191875 0.203098 0.149341 0.187677 0.534314 -0.278645 0.670594 0.757363 0.202035 0.90371 0.217579 -0.144138 -0.669363 0.304359 0.252985 0.192112
internal_weight=0 735.934 132.928 61.9105 603.006 71.0177 598.675 59.0216 19.1675 39.8541 25.974 20.3921 593.698 571.597 565.694 561.211 482.844 466.027 78.3666 11.2509 67.1158 22.1014 461.705 9.94666 453.813 40.4601 18.636 21.8241 413.353 355.024
internal_count=5964 5121 1170 737 3951 433 3925 369 128 241 168 128 3881 3752 3723 3682 3081 2942 601 71 530 129 2911 82 2875 223 103 120 2652 2279
shrinkage=0.1


Tree=20
num_leaves=31
num_cat=0
split_feature=7 4 2 0 39 4 7 36 4 8 0 8 13 35 12 0 23 4 7 4 5 31 15 7 28 20 0 5 28 30
split_gain=63.7109 27.7201 16.6342 27.1562 12.1698 8.47209 7.85518 17.0416 15.8853 17.4263 11.2016 5.73494 10.1123 16.6094 8.88717 15.9807 13.4794 13.9163 12.3668 11.2425 18.7422 13.6929 9.39732 8.68019 8.4402 7.37555 14.7528 23.2594 13.0486 17.5421
threshold=1.8151500000000001e-06 2.5316500000000001e-06 2.6624500000000007e-06 1.1084500000000002e-06 9.5401000000000016e-07 3.7278500000000007e-06 2.8989000000000007e-06 3.0874500000000003e-07 2.3818500000000003e-06 6.2487000000000006e-07 7.4551500000000009e-07 7.5303000000000012e-07 8.0970500000000009e-07 4.7916000000000006e-07 5.0159000000000003e-07 1.0460000000000002e-06 4.953900000000001e-07 2.0320000000000006e-06 2.6237000000000004e-06 2.1462500000000004e-06 1.2377000000000002e-06 1.8285000000000003e-07 4.7817500000000019e-07 2.3548000000000003e-06 1.7580500000000003e-07 3.0229500000000007e-07 8.3172000000000004e-07 1.0490500000000004e-06 1.3053500000000002e-07 2.1344500000000004e-07
decision_type=2 2 2 2 2 2 2 2 2 2 2 2 2 2 2 2 2 2 2 2 2 2 2 2 2 2 2 2 2 2
left_child=-1 4 3 -3 6 -4 7 8 10 -10 -2 12 14 -14 15 16 18 23 19 25 22 -22 -21 -18 -23 26 -12 -28 -29 -30
right_child=1 2 5 -5 -6 -7 -8 -9 9 -11 11 -13 13 -15 -16 -17 17 -19 -20 20 21 24 -24 -25 -26 -27 27 28 29 -31
leaf_value=-0.10719472975655085 -0.13095714746062939 0.097811232323549352 0.017962406333891692 -0.1012758360930425 -0.1398707937797514 -0.11414453803029807 0.053374483538280199 -0.1420081901486373 0.08775903937002888 -0.11568892267328348 0.041711325851546875 0.078103710186033959 -0.19278495177397847 0.002774943974304622 0.070998379728212491 -0.10864603735075529 -0.10110833298740501 -0.20903269470956382 0.10425201013317378 -0.030110582546554871 0.086115217344578859 -0.18537674309168528 -0.20814936003130791 0.092963592093026945 0.033929312015632797 0.041550865727244035 -0.14105510307203262 -0.11223322258616097 0.051306607789538675 -0.03734456662591315
leaf_weight=52.230753626674414 4.9433230683207503 7.9002813249826422 44.32442045211792 51.608660075813532 4.9972017481923094 5.4514958634972563 53.588100135326385 6.9786511585116378 5.5612097606062916 17.330086827278137 96.142489992082119 16.607868537306786 5.7932610586285618 17.349231243133545 33.716995626688004 9.7839083783328515 4.5188372507691366 5.0205345302820197 18.298994466662407 5.0742695704102534 12.607294991612436 3.9321368262171736 7.1309322342276573 4.7034353613853455 3.1693761646747589 156.67930188030005 12.353022143244742 8.7786361053585988 55.009239956736565 37.562683619558811
leaf_count=843 60 74 246 671 31 64 307 35 36 140 715 87 28 96 195 56 28 25 134 38 96 30 41 27 20 1105 83 88 369 196
internal_value=0 0.0720214 -0.391642 -0.748455 0.155413 0.0349395 0.1683 0.132632 0.152622 -0.662633 0.188568 0.20297 0.183677 -0.461796 0.215159 0.177307 0.205997 -0.750624 0.238691 0.201774 -0.367488 0.235574 -1.3413 -0.0213004 -0.875013 0.25134 0.128766 -0.115048 0.0428533 0.153348
internal_weight=0 716.916 109.285 59.5089 607.631 49.7759 602.634 549.046 542.067 22.8913 519.176 514.232 497.625 23.1425 474.482 440.765 430.981 14.2428 416.738 398.439 31.914 19.7088 12.2052 9.22227 7.10151 366.525 209.846 113.704 101.351 92.5719
internal_count=5964 5121 1055 745 4066 310 4035 3728 3693 176 3517 3457 3370 124 3246 3051 2995 80 2915 2781 225 146 79 55 50 2556 1451 736 653 565
shrinkage=0.1


Tree=21
num_leaves=31
num_cat=0
split_feature=6 4 3 8 25 24 39 0 32 21 19 7 36 4 8 8 11 18 29 13 5 24 9 20 12 31 17 27 21 8
split_gain=56.9841 23.4426 15.0416 26.1723 10.8147 12.6483 10.5459 7.70474 7.01701 6.94738 6.57111 6.195 14.4277 13.8046 15.0705 8.45134 7.60621 20.7107 10.6091 19.6363 6.93819 7.76912 10.1083 17.5804 9.00681 7.79273 25.1072 7.74835 21.783 14.3102
threshold=2.4291000000000006e-06 2.5316500000000001e-06 1.8250000000000001e-06 6.4747000000000007e-07 5.7800000000000012e-07 3.0169500000000003e-07 9.5401000000000016e-07 1.4961000000000002e-06 6.2321500000000012e-07 2.8432000000000006e-06 2.2450500000000004e-07 2.8989000000000007e-06 3.0874500000000003e-07 2.3818500000000003e-06 6.2487000000000006e-07 4.5613500000000003e-07 5.4880500000000008e-07 3.1848500000000006e-07 2.8871500000000003e-07 4.4110000000000005e-07 9.837150000000002e-07 1.0556000000000001e-07 5.2333000000000001e-07 2.8827500000000006e-07 3.6394000000000007e-07 1.6447000000000002e-07 4.0695500000000006e-07 1.4677500000000004e-07 4.6090500000000004e-07 5.4644500000000005e-07
decision_type=2 2 2 2 2 2 2 2 2 2 2 2 2 2 2 2 2 2 2 2 2 2 2 2 2 2 2 2 2 2
left_child=-1 6 3 -3 -4 -6 10 -7 -9 -10 -2 12 13 15 -15 -12 18 -18 -17 -20 -19 -22 24 -24 -23 -25 -27 29 -29 -28
right_child=1 2 4 -5 5 7 -8 8 9 -11 11 -13 -14 14 -16 16 17 20 19 -21 21 22 23 25 -26 26 27 28 -30 -31
leaf_value=-0.10647460669030206 -0.13702760506022754 0.095098888910002732 0.073620051088828339 -0.10926889418420627 -0.14193418672416855 0.074150001348839353 -0.1354965671080717 -0.13457636302272719 0.028451456997287114 -0.11517823898625622 -0.11463099183077159 0.049013250454940316 -0.13208764699949033 0.081238722578323153 -0.11138310323216659 0.074712821557593498 -0.172477352107962 -0.044410225585023985 -0.21425656146641595 0.11439353875525148 -0.16191661225426773 0.093876993746459927 -0.046463899970498247 0.056971393317369362 -0.062757615549718149 -0.16343029416080235 -0.099311964827404231 -0.191101391028521 0.018584345287158834 0.073052471911132066
leaf_weight=47.566958282142878 2.8098477534949771 7.4006067588925353 14.188476666808127 40.886574883013964 7.8375009931623927 9.7371739745140058 4.6600464656949034 5.1623582169413593 15.160312637686731 4.3294303938746443 4.7410365156829348 52.575729742646217 6.7637416124343863 5.4147152602672604 16.256069868803024 43.732333622872829 5.7943294793367377 17.223898217082024 3.7673327177762976 3.5134910643100739 2.3263837844133368 29.164153233170509 39.467321254312992 59.316687971353531 4.1997480988502494 7.4965343549847594 5.3446931466460219 5.0659020692110053 224.83442752063274 48.758987877517939
leaf_count=843 30 69 78 630 59 51 31 40 73 55 58 307 35 36 140 362 52 103 27 32 24 223 259 410 28 39 29 25 1424 392
internal_value=0 0.0664585 -0.369785 -0.77947 -0.0191253 -0.27292 0.143454 -0.0116441 -0.309124 -0.0345429 0.155318 0.162636 0.130342 0.148988 -0.632541 0.182543 0.195143 0.153569 0.561053 -0.556606 0.178126 0.203286 0.213293 0.16813 0.741603 0.239317 0.172086 0.219767 0.139639 0.560253
internal_weight=0 697.93 104.702 48.2872 56.4153 42.2268 593.227 34.3893 24.6521 19.4897 588.567 585.758 533.182 526.418 21.6708 504.747 500.006 448.993 51.0132 7.28082 443.199 425.975 423.648 390.285 33.3639 350.817 291.501 284.004 229.9 54.1037
internal_count=5964 5121 1055 699 356 278 4066 219 168 128 4035 4005 3698 3663 176 3487 3429 3008 421 59 2956 2853 2829 2578 251 2319 1909 1870 1449 421
shrinkage=0.1


Tree=22
num_leaves=31
num_cat=0
split_feature=7 4 3 0 27 24 24 0 19 32 4 7 33 4 8 31 14 28 24 12 21 0 7 27 4 16 1 4 22 28
split_gain=51.0204 20.0686 13.7077 23.763 9.45236 9.17657 11.5449 7.79291 5.78609 5.56645 6.35402 5.15707 13.2547 12.8805 13.3343 7.77989 11.5058 9.83573 9.22584 8.07141 16.7282 11.6248 10.4984 11.7064 23.5174 17.4979 20.2915 15.7008 17.9992 15.5805
threshold=1.8151500000000001e-06 2.5316500000000001e-06 1.8250000000000001e-06 1.1084500000000002e-06 6.7222500000000005e-07 1.9208500000000002e-07 3.2137500000000006e-07 1.4961000000000002e-06 2.2450500000000004e-07 6.2321500000000012e-07 3.7278500000000007e-06 2.8989000000000007e-06 1.0765500000000001e-06 2.3818500000000003e-06 6.2487000000000006e-07 4.4232500000000004e-07 1.0026500000000003e-06 2.1030500000000003e-07 1.9060500000000003e-07 5.0159000000000003e-07 7.5458000000000013e-07 1.0460000000000002e-06 2.6237000000000004e-06 1.4999500000000004e-07 2.0522500000000001e-06 2.4363500000000005e-07 7.4257500000000015e-07 1.7118500000000002e-06 4.8763000000000009e-07 1.4614500000000002e-07
decision_type=2 2 2 2 2 2 2 2 2 2 2 2 2 2 2 2 2 2 2 2 2 2 2 2 2 2 2 2 2 2
left_child=-1 4 3 -3 8 -4 -7 -8 -2 -9 -11 12 13 15 -15 16 19 -18 -19 20 21 22 23 25 27 26 29 -25 -29 -10
right_child=1 2 5 -5 -6 6 7 9 11 10 -12 -13 -14 14 -16 -17 17 18 -20 -21 -22 -23 -24 24 -26 -27 -28 28 -30 -31
leaf_value=-0.10582262633292741 -0.13276959221645376 0.090322039144807298 0.068429683844820274 -0.10885882106957384 -0.1375981774372674 -0.11688887977437326 0.092860821035858715 -0.13802095276176227 0.020823715815890462 0.027828943043583354 -0.11329620846285463 0.045122138783762915 -0.12795911428875417 0.075092135909659866 -0.10836442258019177 0.10087498716891408 -0.17503445399101192 0.053739226315183956 -0.1070581884347272 0.061335564749860787 -0.18152266395411121 -0.099613941832125963 0.094884360399139014 -0.14041135977293404 -0.068971284378380571 0.062956752438801847 -0.16666024528802448 -0.14404323901669672 0.050061694370209832 -0.14687501632761024
leaf_weight=43.295133803039789 2.6620715074241152 7.1388645693659774 13.837677359580992 37.210031047463417 4.1250717639923087 10.372965525835751 7.6169557869434383 3.6054165214300182 171.25775953382254 14.869645677506925 4.0618479475378981 51.713247515261173 6.6785438098013392 5.2794607430696514 15.87514181435108 10.843037907034157 5.3612773567438152 8.1665081381797773 6.3370248526334754 40.037344131618738 4.3152953386306754 8.4655525013804418 17.355520240962505 5.4499355405569068 43.844642698764801 89.919633850455284 6.3413028195500365 5.1563498005270949 64.984260208904743 5.7253634855151168
leaf_count=843 32 74 76 625 29 84 42 27 1327 72 55 308 37 36 144 62 26 44 32 240 22 50 136 37 282 707 39 29 413 34
internal_value=0 0.0614236 -0.355383 -0.767966 0.132375 -0.0188116 -0.258884 0.0541583 0.143182 -0.241386 -0.0245017 0.150014 0.120139 0.138301 -0.6258 0.171051 0.152235 -0.592997 -0.165179 0.184219 0.143583 0.163781 0.187728 0.154089 -0.107068 0.268241 0.0910117 0.230882 0.357922 0.153987
internal_weight=0 678.608 98.7134 44.3489 579.894 54.3645 40.5268 30.1539 575.769 22.5369 18.9315 573.107 521.394 514.715 21.1546 493.561 482.718 19.8648 14.5035 462.853 422.816 418.5 410.035 392.679 119.435 273.244 183.324 75.5905 70.1406 176.983
internal_count=5964 5121 1055 699 4066 356 280 196 4037 154 127 4005 3697 3660 180 3480 3418 102 76 3316 3076 3054 3004 2868 761 2107 1400 479 442 1361
shrinkage=0.1


Tree=23
num_leaves=31
num_cat=0
split_feature=2 4 2 8 29 4 7 32 8 10 34 27 0 7 8 38 22 28 4 3 6 5 10 17 31 9 7 32 37 20
split_gain=45.786 17.0861 12.6233 20.4966 8.00091 6.14805 4.87284 10.0406 5.61831 7.66926 16.8053 9.43574 9.2493 7.16486 8.67305 16.0705 7.68934 5.63804 5.49028 12.5954 7.30641 5.34689 7.3618 13.464 10.8368 20.829 10.4645 8.5205 11.0884 20.5759
threshold=1.1230000000000003e-06 2.5225000000000004e-06 2.6624500000000007e-06 6.4996500000000012e-07 1.6918000000000003e-06 3.7278500000000007e-06 3.0802000000000002e-06 3.793550000000001e-07 4.5613500000000003e-07 7.047650000000001e-07 2.5981000000000005e-07 1.2398500000000003e-07 8.0143500000000008e-07 1.9000500000000003e-06 4.9266000000000002e-07 2.3383000000000002e-07 3.8547000000000002e-07 1.3456500000000001e-07 2.3818500000000003e-06 1.2172000000000002e-06 3.9051000000000001e-06 1.0509500000000003e-06 7.8069000000000004e-07 3.9188000000000004e-07 1.6590500000000003e-07 5.6601500000000006e-07 2.3849000000000002e-06 2.0380500000000002e-07 3.6815000000000008e-07 3.1144500000000002e-07
decision_type=2 2 2 2 2 2 2 2 2 2 2 2 2 2 2 2 2 2 2 2 2 2 2 2 2 2 2 2 2 2
left_child=-1 4 3 -3 6 -4 7 8 -2 11 12 -10 -11 -12 16 -16 -15 -18 21 -20 -21 -17 -23 -24 26 -26 -25 -27 -29 -30
right_child=1 2 5 -5 -6 -7 -8 -9 9 10 13 -13 -14 14 15 18 17 -19 19 20 -22 22 23 24 25 27 -28 28 29 -31
leaf_value=-0.10686655059122085 -0.082706729532947498 0.084960069322536774 0.014753833681708271 -0.096094527249822481 -0.13729605207946347 -0.11141143877103601 0.055196044568764369 -0.10283196228953102 0.10855588040501314 -0.0099566812589814806 -0.072228655187950283 -0.084258651205622814 -0.25732845070591898 -0.089387384809980097 -0.10266443566030355 -0.020308133709933715 0.075780462842414326 -0.046916089802817501 0.06646804781116375 -0.11219304750973609 0.032681879002175618 0.086357351192591525 -0.067458002871777029 0.070764683383144025 -0.16722244243237008 -0.10450870193436451 -0.11524298591709113 0.079841877538532696 -0.14200789170302913 0.018999997205627638
leaf_weight=38.302786540240049 6.0949607677757731 7.3571210652589789 43.164538867771626 41.649742089211941 3.5565386712551108 4.2419812306761733 26.29319229722023 7.6247001439332953 15.513736873865129 2.627358838915824 9.5453278832137567 3.0344618931412688 3.5589300692081451 3.4598615542054167 12.152718335390089 35.067062001675367 42.931283824145794 4.1030271351337424 9.2544069066643733 14.023008517920973 4.630631908774375 16.25473939627409 17.700594242662191 56.164022691547871 6.227064535021781 5.5725208632647982 3.196669988334178 28.032209139317274 8.2333241030573827 220.64137866720557
leaf_count=816 81 76 256 682 27 64 157 45 133 20 91 22 27 23 119 212 383 21 66 138 25 109 109 422 36 27 20 239 44 1474
internal_value=0 0.0558528 -0.333254 -0.689138 0.122193 0.0346444 0.131656 0.111025 0.127477 0.138624 0.115355 0.770117 -1.52268 0.135736 0.152532 0.107206 0.544932 0.650771 0.139629 -0.289101 -0.762289 0.16976 0.205875 0.174957 0.220793 0.135369 0.607479 0.178252 0.204788 0.132081
internal_weight=0 661.907 96.4134 49.0069 565.494 47.4065 561.937 535.644 528.019 521.924 503.376 18.5482 6.18629 497.19 487.645 437.15 50.4942 47.0343 424.998 27.908 18.6536 397.09 362.023 345.768 328.067 268.706 59.3607 262.479 256.907 228.875
internal_count=5964 5148 1078 758 4070 320 4043 3886 3841 3760 3605 155 47 3558 3467 3040 427 404 2921 229 163 2692 2480 2371 2262 1820 442 1784 1757 1518
shrinkage=0.1


Tree=24
num_leaves=31
num_cat=0
split_feature=2 4 3 0 6 8 24 23 30 31 25 8 10 34 27 0 20 11 22 30 15 4 28 0 9 28 32 23 28 14
split_gain=41.084 14.4521 11.4714 20.5923 7.28313 7.06862 14.4131 6.80469 7.06288 9.7814 7.73159 6.46532 6.68674 13.9759 8.25487 7.99281 6.52482 9.61332 9.22306 6.70854 9.95741 6.61486 11.1685 6.22083 5.9881 7.42351 5.71181 5.56348 3.8912 25.313
threshold=1.1230000000000003e-06 2.4888000000000002e-06 1.7329000000000002e-06 1.1084500000000002e-06 3.9051000000000001e-06 8.449900000000001e-07 3.0169500000000003e-07 1.3030000000000003e-06 9.7132500000000018e-07 5.2854000000000015e-07 1.4104000000000003e-06 4.5613500000000003e-07 7.047650000000001e-07 2.5981000000000005e-07 1.2398500000000003e-07 8.0143500000000008e-07 2.5362500000000005e-07 5.5007500000000009e-07 3.9474500000000003e-07 1.9751000000000003e-07 4.0119500000000004e-07 1.6884500000000001e-06 1.3673500000000004e-07 1.4961000000000002e-06 5.0508000000000013e-07 1.2813500000000003e-07 6.2321500000000012e-07 2.2453000000000003e-06 1.6397500000000001e-07 7.5062500000000012e-07
decision_type=2 2 2 2 2 2 2 2 2 2 2 2 2 2 2 2 2 2 2 2 2 2 2 2 2 2 2 2 2 2
left_child=-1 7 3 4 -3 -4 -7 8 9 11 -10 -2 14 15 -13 -14 -15 19 -19 -18 -21 22 -20 -8 -23 -26 -25 -28 -27 -30
right_child=1 2 5 -5 -6 6 23 -9 10 -11 -12 12 13 16 -16 -17 17 18 21 20 -22 24 -24 26 25 28 27 -29 29 -31
leaf_value=-0.10636231723663159 -0.11022173921927735 -0.095409727429114799 0.049612895710235472 -0.10525787659229323 0.11870059357439067 -0.1427548022130613 0.061585543902163746 -0.10879747507009617 0.11627281843984719 -0.12103633480970055 -0.030142776443007491 0.10577914422602915 -0.008917418309453494 -0.12371124925085475 -0.073895237650059939 -0.24030305111408479 0.09907529644901536 -0.14327164039274895 0.078137055008314443 -0.17539967976791973 0.11378303866879405 0.11375430191510319 -0.13349201751553261 -0.1291082779496121 -0.10050002012715648 0.021475386270739718 0.024753897966031252 -0.11492134371891607 -0.079021447549420309 0.020648514484359792
leaf_weight=34.813720881938934 4.2872096747159949 2.0892985723912698 18.752297267317772 33.236805129796267 6.6306727081537247 8.2548180818557721 12.251631200313566 4.6451885588467112 12.724277757108213 5.581030521541833 5.0331673920154563 14.387109808623793 2.6395247206091872 3.4752109497785559 3.1097411364316931 3.4365774393081665 20.338813640177253 3.8676989860832682 3.7186301872134191 2.4140161722898474 2.3496447876095772 5.9062647074460974 7.5703151673078537 4.4017628915607956 5.7488258183002463 263.06986271217465 14.761241659522058 3.5345661155879489 31.357488963752985 135.96599956601858
leaf_count=816 71 22 102 641 74 90 73 33 98 32 24 133 20 21 22 27 206 36 23 21 23 59 74 40 56 1977 73 55 235 787
internal_value=0 0.0516133 -0.289987 -0.69374 0.673999 -0.0165663 -0.239097 0.117151 0.127576 0.106367 0.747728 0.120674 0.130967 0.109356 0.738454 -1.39787 0.128209 0.138046 0.104965 0.740567 -0.327622 0.118084 -0.637804 0.0416091 0.137388 0.123844 -0.268356 -0.0222995 0.138922 0.0196973
internal_weight=0 645.54 103.913 41.9568 8.71997 61.9563 43.204 541.627 536.981 519.224 17.7574 513.643 509.356 491.859 17.4969 6.0761 485.783 482.308 457.205 25.1025 4.76366 453.337 11.2889 34.9492 442.048 436.142 22.6976 18.2958 430.393 167.323
internal_count=5964 5148 1170 737 96 433 331 3978 3945 3823 122 3791 3720 3565 155 47 3518 3497 3247 250 44 3211 97 241 3114 3055 168 128 2999 1022
shrinkage=0.1


Tree=25
num_leaves=31
num_cat=0
split_feature=2 4 3 0 25 24 35 0 14 27 7 7 31 4 8 35 31 1 8 10 34 27 37 3 28 8 37 39 7 29
split_gain=36.8804 12.4206 11.085 18.632 7.001 10.2552 6.49566 5.18628 5.24 4.93706 6.23323 4.26583 11.7775 9.96523 11.1813 8.96838 7.76543 11.5857 5.70064 5.48617 11.9102 7.25274 7.07353 6.50278 16.0281 8.85441 13.5373 7.3144 6.55006 6.65102
threshold=1.1230000000000003e-06 2.5225000000000004e-06 1.8250000000000001e-06 1.1084500000000002e-06 5.7800000000000012e-07 3.0169500000000003e-07 1.0941500000000001e-06 1.4961000000000002e-06 2.1862000000000003e-06 1.2902500000000003e-06 4.9633500000000014e-06 2.8858000000000004e-06 4.9011000000000014e-07 2.3568000000000005e-06 6.3033500000000014e-07 2.5935500000000009e-07 4.5523500000000007e-07 1.0777500000000002e-06 4.5613500000000003e-07 7.047650000000001e-07 2.5981000000000005e-07 1.2398500000000003e-07 2.9353000000000006e-07 8.8820500000000006e-07 1.2843000000000002e-07 4.9266000000000002e-07 3.1445000000000007e-07 2.1371000000000003e-07 2.1012500000000004e-06 4.2008500000000007e-07
decision_type=2 2 2 2 2 2 2 2 2 2 2 2 2 2 2 2 2 2 2 2 2 2 2 2 2 2 2 2 2 2
left_child=-1 6 3 -3 -4 -6 11 -7 -9 10 -10 12 13 16 15 -15 17 18 -2 21 22 -20 -21 24 -22 27 -27 -25 29 -28
right_child=1 2 4 -5 5 7 -8 8 9 -11 -12 -13 -14 14 -16 -17 -18 -19 19 20 23 -23 -24 25 -26 26 28 -29 -30 -31
leaf_value=-0.10590696697466911 -0.10936796956861844 0.078847413294418675 0.063006455893082972 -0.10727826188213307 -0.13199931126104289 0.061704867733226844 -0.12999741983844362 -0.13005551585028682 0.060066972214351824 -0.086769326985529194 -0.12840926478723078 0.039423089178863856 -0.14567031134372951 -0.098282439859965653 -0.11161654401196514 0.12829249627881154 0.10944553317088004 -0.12415375475667352 0.10310639816697278 -0.0080412636941226186 0.063978119465230424 -0.065033967252174696 -0.2267297962564877 0.069605087277889319 -0.20216644316599686 -0.11588329295877194 -0.0092192625603091435 -0.08832190701941689 0.017820824176237669 -0.13207609601363343
leaf_weight=31.629297077655792 3.7645841985940924 6.5929550603032103 12.963016621768473 29.193185247480869 6.9437820091843596 10.017215117812155 3.2758844643831244 3.9110983237624195 10.983054250478746 5.0134282931685439 2.0883257985115042 48.857173100113869 4.9094327613711348 2.8342551812529591 13.516517758369444 4.5539993122220039 8.2065563648939115 6.2283814251422873 13.338277868926527 2.6924421042203894 4.5003430694341642 3.1763372346758834 3.2819448374211788 40.825901612639427 4.5511799082159996 8.2464890666306001 26.073289237916473 3.1596609950065604 331.58193385973573 5.3026133701205245
leaf_count=816 68 79 78 632 61 60 29 37 52 59 20 303 35 20 142 31 51 29 133 21 43 22 26 386 31 96 162 20 2374 48
internal_value=0 0.0475049 -0.301664 -0.729879 -0.00651446 -0.218338 0.103916 0.0206158 -0.251007 -0.0240276 0.299554 0.112439 0.0843844 0.0999573 -0.575457 0.413746 0.130326 0.113002 0.13173 0.142056 0.120344 0.707671 -1.28175 0.140089 -0.698415 0.158369 0.1081 0.582606 0.136885 -0.299824
internal_weight=0 630.583 87.7061 35.7861 51.9199 38.9569 542.877 32.0131 21.9959 18.0848 13.0714 539.601 490.744 485.835 20.9048 7.38825 464.93 456.723 450.495 446.73 430.216 16.5146 5.97439 424.241 9.05152 415.19 371.204 43.9856 362.958 31.3759
internal_count=5964 5148 1078 711 367 289 4070 228 168 131 72 4041 3738 3703 193 51 3510 3459 3430 3362 3207 155 47 3160 74 3086 2680 406 2584 210
shrinkage=0.1


Tree=26
num_leaves=31
num_cat=0
split_feature=2 2 13 21 6 0 6 4 2 23 24 25 6 4 7 28 4 2 19 36 5 3 5 33 28 23 10 27 2 15
split_gain=33.1179 10.7182 13.984 9.40087 8.06623 10.5152 9.52954 18.4874 8.18915 9.27707 11.0863 7.49672 7.39865 8.49207 8.3518 10.4292 8.98009 15.118 15.2783 7.29453 8.2774 7.12673 11.885 6.70959 6.54595 6.37945 5.93058 5.69011 5.63534 14.6683
threshold=1.1230000000000003e-06 1.6384500000000002e-06 7.6957500000000006e-07 7.4959500000000017e-07 3.7549500000000004e-06 1.0595500000000001e-06 3.3959500000000005e-06 2.1648500000000005e-06 1.5656500000000002e-06 4.6443500000000002e-07 1.4307500000000003e-07 3.1123000000000001e-07 4.8186000000000008e-06 2.7600500000000004e-06 2.3618000000000004e-06 2.0496000000000003e-07 2.1921500000000003e-06 2.1027500000000003e-06 4.5485500000000006e-07 2.2469500000000004e-07 1.6298500000000004e-06 1.3066500000000002e-06 1.4665000000000003e-06 1.0765500000000001e-06 1.8443000000000004e-07 3.6320500000000006e-07 1.0505500000000003e-06 1.8715500000000004e-07 1.5295500000000002e-06 5.5208000000000016e-07
decision_type=2 2 2 2 2 2 2 2 2 2 2 2 2 2 2 2 2 2 2 2 2 2 2 2 2 2 2 2 2 2
left_child=-1 3 21 4 5 6 7 8 9 28 -11 25 14 -14 15 -4 19 18 -18 20 -16 22 26 -21 -12 -9 -3 -28 29 -2
right_child=1 2 12 -5 -6 -7 -8 11 -10 10 24 -13 13 -15 16 -17 17 -19 -20 23 -22 -23 -24 -25 -26 -27 27 -29 -30 -31
leaf_value=-0.10549396430146903 0.015589727641162036 -0.11914661044090108 0.05176902398372879 -0.17467888290432432 0.11018419734595131 -0.11518411654025931 0.070453734152613842 -0.10308146337868174 0.081510631727075067 -0.24950064401293198 0.040310162933955972 -0.15083817156494639 -0.20070263731052293 -0.026375608514147771 -0.14742894826928696 -0.21044096055218861 0.074294045881420842 0.01482162821256963 -0.16803751177345952 0.088441320245890465 0.04848373106149953 -0.11405333559883926 0.10453111636696288 -0.025099764655576985 -0.1036063898164734 0.11236122504705942 0.048639679378638313 -0.085785515844899407 0.095839473165262798 -0.19942217279588792
leaf_weight=28.72571387887001 298.40646219067276 10.362261131405836 2.5782010816037646 2.6269270852208129 8.7302550226449949 6.296936433762311 28.776080265641212 3.0126847773790351 17.773904394358397 2.6629795506596556 6.9475089237093908 9.6144693195819837 3.0744387544691554 30.675240263342857 3.6166095957159978 3.6849250495433807 3.5664672181010237 65.907149612903595 9.6176759563386423 31.607099980115891 5.3421160206198692 17.119112644344568 5.1840360090136519 6.2306026741862288 5.7980315834283829 2.5274918749928474 6.446443058550356 6.155864879488945 8.5057460665702802 3.2069803103804579
leaf_count=816 2447 135 21 29 92 40 233 20 116 20 45 68 22 361 21 21 28 465 75 199 29 355 51 38 35 26 48 32 56 20
internal_value=0 0.0435412 -0.139102 0.138798 0.151112 0.130021 0.150866 0.106418 0.154133 0.118044 -0.639304 -0.974479 -0.00467909 -0.42256 0.102042 -1.02503 0.158116 -0.0473265 -1.02484 0.505338 -0.306056 -0.631743 -0.322313 0.697449 -0.251584 -0.0479405 -0.631041 -0.170232 0.155673 0.133036
internal_weight=0 616.055 211.168 404.886 402.26 393.529 387.232 358.456 343.302 325.528 15.4085 15.1546 165.901 33.7497 132.151 6.26313 125.888 79.0913 13.1841 46.7964 8.95873 45.2677 28.1486 37.8377 12.7455 5.54018 22.9646 12.6023 310.119 301.613
internal_count=5964 5148 1901 3247 3218 3126 3086 2853 2739 2623 100 114 1280 383 897 42 855 568 103 287 50 621 266 237 80 46 215 80 2523 2467
shrinkage=0.1


Tree=27
num_leaves=31
num_cat=0
split_feature=1 4 3 8 29 24 24 16 0 4 31 16 11 18 29 16 3 9 30 12 12 6 13 18 37 22 0 26 7 17
split_gain=29.7782 9.08805 10.0422 15.4378 5.71432 5.5795 10.1367 4.75853 6.43264 4.5266 3.92992 4.23282 6.21774 13.1449 8.14275 10.3145 5.8168 5.03112 12.2318 7.26534 7.35836 5.35769 5.5495 14.794 15.3976 21.6829 19.0345 13.3307 12.6055 7.40461
threshold=5.9411000000000012e-07 2.5225000000000004e-06 1.8250000000000001e-06 6.4996500000000012e-07 1.6918000000000003e-06 2.0165000000000004e-07 3.0169500000000003e-07 3.4332500000000007e-07 1.3681500000000004e-06 3.7278500000000007e-06 1.3647000000000003e-07 1.9978000000000003e-07 5.4880500000000008e-07 3.1848500000000006e-07 2.8871500000000003e-07 2.1825500000000004e-07 8.9207500000000016e-07 5.2333000000000001e-07 1.9965500000000002e-07 3.6394000000000007e-07 3.4976500000000006e-07 2.5562000000000006e-06 4.8715000000000018e-07 3.5611500000000001e-07 3.6815000000000008e-07 4.7364000000000005e-07 9.9518000000000031e-07 1.7374000000000005e-07 2.4240500000000005e-06 4.0784500000000006e-07
decision_type=2 2 2 2 2 2 2 2 2 2 2 2 2 2 2 2 2 2 2 2 2 2 2 2 2 2 2 2 2 2
left_child=-1 4 3 -3 10 7 -7 8 -4 -8 -2 -12 14 -14 -13 -16 -15 19 -19 20 -18 -20 27 -24 26 -26 29 -23 -29 -25
right_child=1 2 5 -5 -6 6 9 -9 -10 -11 11 12 13 16 15 -17 17 18 21 -21 -22 22 23 24 25 -27 -28 28 -30 -31
leaf_value=-0.10510960211815773 -0.11554176961139379 0.075063457204845058 0.080668617135415399 -0.1060208419274993 -0.13308941441251546 -0.13828737748236972 0.016786819316277398 0.13082517383277578 -0.10514824519681983 -0.10944720175860385 -0.10804306476830752 0.069236617685898769 -0.16650619403006797 -0.14722779415395268 -0.20554392505046942 0.040880360321919176 -0.027938534264117788 -0.12073111787475743 -0.1115067117717562 -0.072554705488215562 0.091901978846881227 0.054365132949609256 -0.1503296728701114 0.027241860733980425 -0.1585281632366419 0.01067554283881398 -0.18488536461854679 -0.098291162279947955 0.068138216872568907 0.092160247420018063
leaf_weight=26.093683080747724 2.4985481575131407 5.7952346019446876 4.72476878762245 25.090986303985119 2.8228998817503443 5.9990963824093333 27.619146395474676 5.2097812592983246 3.0758792459964752 3.1663161143660536 3.0112035125493994 33.523763909935951 4.2951161712408057 2.3642888609319916 2.6322524342685929 4.7885192185640335 6.6030450016260174 7.3556923717260352 3.6381517816334954 4.4112678542733184 22.867247238755226 14.345151029527186 5.38924366980791 28.89259647578001 7.7757151275873175 291.23605463281274 3.1346399411559096 22.229080419987444 5.7224612832069388 44.833154499530792
leaf_count=817 23 76 28 635 27 61 167 30 20 61 36 363 46 21 20 51 55 84 54 31 203 97 30 220 42 2063 30 134 36 403
internal_value=0 0.0399671 -0.272477 -0.720437 0.0880407 0.00537839 -0.193697 0.568227 0.0739903 0.0380352 0.0957208 0.101743 0.108642 0.0764173 0.482552 -0.465298 0.0923049 0.100202 0.0712637 0.47135 0.650508 0.0932788 0.103658 0.141783 0.16537 0.0627545 0.564579 -0.240002 -0.642184 0.667192
internal_weight=0 605.051 80.6812 30.8862 524.37 49.795 36.7846 13.0104 7.80065 30.7855 521.547 519.049 516.037 475.093 40.9445 7.42077 470.798 468.434 434.552 33.8816 29.4703 427.196 423.558 381.261 375.872 299.012 76.8604 42.2967 27.9515 73.7258
internal_count=5964 5147 1078 711 4069 367 289 78 48 228 4042 4019 3983 3549 434 71 3503 3482 3193 289 258 3109 3055 2788 2758 2105 653 267 170 623
shrinkage=0.1


Tree=28
num_leaves=31
num_cat=0
split_feature=1 2 35 0 6 39 21 6 0 10 24 28 18 10 20 36 2 28 15 16 1 13 6 24 17 35 5 4 16 36
split_gain=26.7797 7.9447 12.5075 9.61131 11.9169 8.48279 8.07158 7.15768 8.98706 7.43627 15.7146 7.4529 19.3031 13.0494 13.1648 17.245 8.55678 12.5647 8.3096 8.02181 13.5806 7.92091 6.87143 6.34605 15.1936 5.68636 7.15647 7.14361 5.47964 12.6314
threshold=5.9411000000000012e-07 1.6384500000000002e-06 3.6586000000000007e-07 1.1084500000000002e-06 3.5967000000000002e-06 2.3449e-07 7.4959500000000017e-07 3.7549500000000004e-06 1.0689000000000003e-06 1.0067500000000004e-06 1.5258500000000001e-07 1.6037500000000003e-07 4.1527000000000004e-07 9.3121000000000004e-07 3.1393000000000006e-07 1.8019500000000003e-07 1.5226500000000004e-06 1.6656500000000004e-07 4.6679500000000004e-07 2.4363500000000005e-07 7.4257500000000015e-07 4.9245000000000015e-07 3.4620000000000005e-06 1.1933500000000003e-07 4.0324500000000004e-07 3.8711500000000006e-07 1.1591000000000003e-06 2.6122500000000007e-06 2.5328500000000003e-07 1.7752000000000004e-07
decision_type=2 2 2 2 2 2 2 2 2 2 2 2 2 2 2 2 2 2 2 2 2 2 2 2 2 2 2 2 2 2
left_child=-1 6 3 4 -3 -6 7 8 9 10 11 13 22 14 15 19 17 -14 -17 20 23 -21 -13 -2 -25 27 -27 -4 29 -16
