tree
version=v3
num_class=1
num_tree_per_iteration=1
label_index=0
max_feature_idx=89
objective=binary sigmoid:1
feature_names=Column_0 Column_1 Column_2 Column_3 Column_4 Column_5 Column_6 Column_7 Column_8 Column_9 Column_10 Column_11 Column_12 Column_13 Column_14 Column_15 Column_16 Column_17 Column_18 Column_19 Column_20 Column_21 Column_22 Column_23 Column_24 Column_25 Column_26 Column_27 Column_28 Column_29 Column_30 Column_31 Column_32 Column_33 Column_34 Column_35 Column_36 Column_37 Column_38 Column_39 Column_40 Column_41 Column_42 Column_43 Column_44 Column_45 Column_46 Column_47 Column_48 Column_49 Column_50 Column_51 Column_52 Column_53 Column_54 Column_55 Column_56 Column_57 Column_58 Column_59 Column_60 Column_61 Column_62 Column_63 Column_64 Column_65 Column_66 Column_67 Column_68 Column_69 Column_70 Column_71 Column_72 Column_73 Column_74 Column_75 Column_76 Column_77 Column_78 Column_79 Column_80 Column_81 Column_82 Column_83 Column_84 Column_85 Column_86 Column_87 Column_88 Column_89
feature_infos=[2.8459e-08:3.5628999999999998e-06] [2.1215999999999999e-07:6.7402999999999997e-06] [7.8501999999999997e-08:2.5461999999999999e-06] [1.5641999999999999e-07:4.7550999999999996e-06] [1.0043000000000001e-07:3.2407000000000002e-06] [2.7048999999999998e-07:2.3811999999999998e-05] [1.0004e-07:8.8241000000000008e-06] [7.3167000000000003e-14:5.6700000000000001e-10] [1.9111:2.1259999999999999] [1.3397000000000001e-08:1.9163000000000002e-06] [9.2843999999999994e-08:4.6947000000000001e-06] [4.9321000000000002e-08:2.5175999999999998e-06] [6.9339999999999998e-08:2.9809000000000001e-06] [4.4688999999999997e-08:2.3228e-06] [1.1768000000000001e-07:1.026e-05] [6.2522999999999997e-08:5.5696e-06] [1.3848999999999999e-14:1.0527e-10] [2.1951000000000001:2.3668] [8.4230000000000004e-09:1.4191999999999999e-06] [5.7580999999999998e-08:4.0490999999999999e-06] [3.9389999999999997e-08:2.7966e-06] [4.3349e-08:2.5301999999999999e-06] [2.8740999999999999e-08:1.8099e-06] [7.2741000000000003e-08:9.2789000000000002e-06] [4.9754999999999998e-08:6.5463999999999997e-06] [5.2912999999999998e-15:8.6101000000000001e-11] [2.3694000000000002:2.4581] [5.7958000000000002e-09:1.1542999999999999e-06] [4.0852000000000001e-08:3.6260000000000001e-06] [3.3954000000000001e-08:3.0265000000000002e-06] [3.0722000000000002e-08:2.2220999999999999e-06] [2.0730000000000001e-08:1.3258000000000001e-06] [5.1675999999999999e-08:1.011e-05] [4.2944999999999998e-08:8.3998000000000005e-06] [2.6704999999999999e-15:1.0222e-10] [2.4977999999999998:2.5552999999999999] [3.9989999999999999e-09:1.035e-06] [3.4020000000000003e-08:3.5055000000000001e-06] [3.3109000000000002e-08:3.4286999999999999e-06] [2.5361000000000001e-08:2.1745000000000001e-06] [1.6416e-08:1.2662e-06] [4.2553999999999998e-08:8.6250999999999998e-06] [4.1409999999999998e-08:8.4648000000000007e-06] [1.8108999999999999e-15:7.4393999999999997e-11] [2.5710000000000002:2.5849000000000002] [1.1912e-09:5.2523000000000005e-07] [1.6537000000000001e-08:1.7204000000000001e-06] [2.5929e-08:2.6958999999999999e-06] [1.24e-08:1.0714e-06] [6.8945000000000001e-09:5.2185000000000003e-07] [2.0826000000000001e-08:3.8172999999999999e-06] [3.2654999999999997e-08:5.9837e-06] [4.3371999999999998e-16:1.4571999999999999e-11] [2.552:2.5663999999999998] [3.1159e-09:9.1882000000000002e-07] [2.8822999999999999e-08:3.2919000000000002e-06] [3.1942999999999997e-08:3.6447999999999998e-06] [2.1527000000000001e-08:2.0403000000000002e-06] [1.4088e-08:1.2112999999999999e-06] [3.6070999999999999e-08:8.1752999999999995e-06] [3.9973000000000003e-08:9.0394000000000002e-06] [1.3011e-15:6.6836999999999999e-11] [2.5255999999999998:2.5718000000000001] [1.4804e-09:6.6288000000000002e-07] [1.9626e-08:2.2266999999999998e-06] [2.8699999999999999e-08:3.2687000000000001e-06] [1.4534e-08:1.3641e-06] [9.4865000000000003e-09:7.0062000000000004e-07] [2.4663999999999998e-08:5.5095999999999997e-06] [3.6167000000000002e-08:8.0709999999999995e-06] [6.0834000000000004e-16:3.0356999999999999e-11] [2.1598000000000002:2.3553999999999999] [2.4209999999999998e-09:8.2622000000000005e-07] [2.5005000000000001e-08:2.9749999999999999e-06] [3.0933999999999998e-08:3.6781e-06] [1.8600000000000001e-08:1.8402e-06] [1.1781e-08:9.6606999999999997e-07] [3.1465999999999999e-08:7.3329999999999999e-06] [3.8909000000000001e-08:9.0501e-06] [9.9012999999999998e-16:5.3774000000000001e-11] [2.4573:2.5089000000000001] [1.9419000000000001e-09:7.3770000000000005e-07] [2.1842000000000001e-08:2.5602000000000001e-06] [2.9615999999999999e-08:3.4738000000000001e-06] [1.6213000000000001e-08:1.5759e-06] [1.0549000000000001e-08:8.4254999999999998e-07] [2.7284999999999999e-08:5.8772999999999996e-06] [3.6979000000000003e-08:7.9784999999999999e-06] [7.4447000000000005e-16:3.4542999999999998e-11] [2.2563:2.3704000000000001]
tree_sizes=3369 3345 3383 3359 3377 3385 3375 3399 3370 3395 3399 3390 3401 3415 3388 3402 3420 3420 3420 3401 3401 3422 3415 3402 3406 3413 3409 3407 3396 3457 3415 3413 3425 3401 3421 3403 3391 3435 3417 3410 3417 3447 3403 3410 3391 3395 3408 3421 3394 3412 3428 3403 3372 3427 3387 3412 3416 3397 3419 3411 3411 3405 3429 3445 3465 3413 3459 3459 3420 3392 3398 3392 3434 3368 3425 3434 3408 3414 3381 3377 3449 3379 3456 3439 3457 3402 3376 3407 3402 3406 3420 3430 3459 3418 3470 3468 3425 3473 3417 3421

Tree=0
num_leaves=31
num_cat=0
split_feature=0 45 8 70 89 61 1 89 45 21 17 62 0 0 8 2 11 45 80 49 36 22 0 17 0 63 25 10 66 68
split_gain=1779.43 433.09 155.246 95.4248 75.7171 64.8764 134.844 62.75 57.3794 141.233 32.8941 31.4829 30.7651 28.519 25.7924 40.9773 23.8317 142.526 26.4435 24.1414 23.0819 22.8068 44.5617 21.2217 21.1815 32.2605 20.8796 18.8444 18.6073 18.2889
threshold=1.74925e-06 8.294900000000001e-08 2.0413500000000004 1.0095000000000003e-12 2.2682500000000005 2.8162000000000002e-13 2.1035000000000003e-06 2.2735500000000006 9.7866500000000011e-08 3.9583500000000005e-07 2.2725500000000003 2.5620500000000006 2.2249500000000002e-06 1.5485000000000003e-06 2.0460500000000006 1.0541500000000001e-06 4.5725500000000003e-07 1.0325500000000002e-07 2.4674500000000004 7.3969500000000019e-08 2.1203500000000003e-07 6.6215500000000012e-07 1.9972500000000007e-06 2.2759500000000004 1.7054500000000001e-06 1.5851000000000003e-07 4.2578000000000008e-13 1.3709500000000002e-06 1.2376000000000002e-07 2.8626500000000006e-07
decision_type=2 2 2 2 2 2 2 2 2 2 2 2 2 2 2 2 2 2 2 2 2 2 2 2 2 2 2 2 2 2
left_child=1 -1 4 14 5 6 8 10 20 -10 -4 -12 -5 -7 21 -16 17 19 24 -13 -3 -2 -23 -8 28 -26 -21 -15 -18 -20
right_child=3 2 7 12 -6 13 23 -9 9 -11 11 16 -14 27 15 -17 18 -19 29 26 -22 22 -24 -25 25 -27 -28 -29 -30 -31
leaf_value=-0.20817421354913118 -0.21428725748312485 0.16160893865908255 -0.095647926892787394 0.082414509920744283 -0.1875458358646285 0.11463946948669407 -0.18939815899898482 -0.21457463262105234 -0.17399226531720435 0.057478974462845202 -0.023653040987040217 0.15609183886062081 -0.19552576633557267 -0.097900326622489348 0.055443046975621919 -0.19767211746633095 -0.069110562804662157 -0.15742803376461334 -0.13764651877584591 -0.12761241696994943 -0.062183702337214999 0.042585062232923174 -0.19989477236435244 -0.064564810622899954 -0.15939860613897322 0.10885079920475138 0.085445011375252428 0.074333172708722611 0.11576122925288271 0.055443046975621947
leaf_weight=62.495909631252289 347.97722482681274 37.747529417276382 9.249394625425337 16.498920142650608 18.498789250850677 80.494731605052948 35.747660309076309 6.7495582401752463 34.497742116451263 111.74268642067909 21.998560190200806 54.496433198451996 5.2496564090251914 11.999214649200441 9.999345541000368 17.74883833527565 5.4996400475502005 24.498396575450897 6.4995746016502407 5.7496236860752132 5.2496564090251914 10.499312818050383 27.248216599225998 21.998560190200806 7.2495255172252682 11.749231010675429 22.998494744300842 13.499116480350493 540.96459376811981 19.998691082000732
leaf_count=250 1392 151 37 66 74 322 143 27 138 447 88 218 21 48 40 71 22 98 26 23 21 42 109 88 29 47 92 54 2164 80
internal_value=0 0.641355 0.78567 -1.72661 0.258457 0.361812 0.0809619 1.05115 0.489131 0.190551 1.07918 1.10319 0.31505 1.01625 -1.834 -0.902799 1.14023 0.707641 1.21896 1.33158 1.50465 -1.90099 -1.1627 -1.25663 1.26471 0.22672 0.590131 0.0946168 1.3008 0.24261
internal_weight=0 1171.67 1109.18 435.222 371.476 352.977 246.984 737.702 189.238 146.24 730.952 721.703 21.7486 105.993 413.473 27.7482 699.704 107.743 591.961 83.2446 42.9972 385.725 37.7475 57.7462 565.463 18.9988 28.7481 25.4983 546.464 26.4983
internal_count=6428 4687 4437 1741 1486 1412 988 2951 757 585 2924 2887 87 424 1654 111 2799 431 2368 333 172 1543 151 231 2262 76 115 102 2186 106
shrinkage=1


Tree=1
num_leaves=31
num_cat=0
split_feature=0 45 8 70 0 52 18 35 80 3 45 28 17 72 0 62 63 16 8 2 22 0 11 45 38 76 80 5 80 3
split_gain=1454.75 353.48 126.186 78.544 63.2386 65.557 52.012 51.684 48.6413 44.8508 34.1112 100.26 30.2336 25.0982 25.0781 24.6737 22.1456 36.3799 21.4045 33.556 18.9932 36.559 18.2043 116.009 30.0079 22.5104 21.7836 17.5837 17.5461 16.5566
threshold=1.74925e-06 8.294900000000001e-08 2.0413500000000004 1.0095000000000003e-12 1.5485000000000003e-06 9.472150000000002e-14 5.2423500000000011e-07 2.5352500000000004 2.4642500000000003 1.5751500000000003e-06 9.7866500000000011e-08 3.9856500000000002e-07 2.2727500000000007 1.8501500000000002e-07 2.2249500000000002e-06 2.5620500000000006 1.2286e-07 1.2733500000000002e-12 2.0460500000000006 1.0541500000000001e-06 6.6215500000000012e-07 1.9972500000000007e-06 4.5725500000000003e-07 1.00625e-07 3.1558000000000002e-07 1.2348500000000002e-07 2.4674500000000004 2.3483000000000005e-06 2.4662500000000005 1.9045000000000001e-06
decision_type=2 2 2 2 2 2 2 2 2 2 2 2 2 2 2 2 2 2 2 2 2 2 2 2 2 2 2 2 2 2
left_child=1 -1 4 18 5 8 -6 -4 -3 10 -10 -12 -9 -11 -5 28 -13 -18 20 -20 -2 -22 23 25 -25 -17 29 -26 -14 -24
right_child=3 2 7 14 6 -7 -8 12 9 13 11 16 15 -15 -16 22 17 -19 19 -21 21 -23 26 24 27 -27 -28 -29 -30 -31
leaf_value=-0.17473696487879498 -0.18042097953351602 -0.088668459375069925 -0.17657093939416202 0.088883663716905092 -0.16101455694006286 0.13854589226811229 0.041430962631131774 -0.04958176635697914 0.14041518166673786 -0.12618665219813194 -0.13382658901549424 0.13895573384223389 -0.079998935382299255 0.019337517523599686 -0.16300996772143428 0.15215798639898973 -0.12200305377763164 0.075969672795253337 0.064506662956408015 -0.16499683405240748 0.052908975217452005 -0.1670556645884643 0.11989260895634353 -0.16033629446624037 0.14512919834643093 -0.067972991604792643 0.021867118359943611 -0.090747322317407758 0.10237950279197394 0.057474475630233279
leaf_weight=61.827726662158966 344.03541898727417 36.062680289149284 6.9448103904724112 16.472014188766483 31.06252121925354 55.814897745847702 21.457171976566315 13.70718704164028 40.25516277551651 22.613444358110428 27.820392668247223 39.205483913421631 12.748217135667803 24.902744233608246 5.2001408189535132 67.398114815354347 10.984214425086973 59.904168039560318 9.9923193454742449 17.5777308344841 10.495241045951841 26.979589015245438 513.77143195271492 21.133428886532784 6.7214179784059507 4.9892647862434378 26.453947633504868 5.965229257941246 8.9987415075302106 46.328227922320366
leaf_count=250 1392 145 28 66 125 224 86 55 162 91 112 157 51 100 21 271 44 240 40 71 42 109 2062 85 27 20 106 24 36 186
internal_value=0 0.579494 0.709659 -1.57079 0.233428 0.401536 -0.783045 0.949397 0.191725 0.364046 0.594263 0.357868 0.97529 -0.499189 0.284429 1.00351 0.786476 0.452936 -1.66908 -0.81817 -1.73057 -1.05452 1.03644 0.655483 -0.873537 1.36986 1.10542 0.342207 -0.04532 1.1473
internal_weight=0 1167.07 1105.24 430.752 370.083 317.563 52.5197 735.16 261.748 225.686 178.169 137.914 728.215 47.5162 21.6722 714.508 110.094 70.8884 409.08 27.5701 381.51 37.4748 692.761 106.207 33.8201 72.3874 586.554 12.6866 21.747 560.1
internal_count=6428 4687 4437 1741 1486 1275 211 2951 1051 906 715 553 2923 191 87 2868 441 284 1654 111 1543 151 2781 427 136 291 2354 51 87 2248
shrinkage=0.1


Tree=2
num_leaves=31
num_cat=0
split_feature=0 45 8 70 89 70 0 89 16 18 45 17 62 0 8 2 3 58 63 25 80 22 0 0 59 85 11 45 0 1
split_gain=1205.8 293.025 104.55 66.0924 54.8876 47.2732 66.8981 46.3953 42.2105 33.6902 101.662 22.9337 20.6738 20.6468 18.3673 27.9028 17.9982 25.3914 20.5221 37.3158 16.4896 16.4394 30.5313 16.2813 15.9302 15.8187 15.3593 100.152 18.7352 15.5491
threshold=1.74925e-06 8.6481000000000018e-08 2.0413500000000004 1.0095000000000003e-12 2.2682500000000005 2.2789000000000005e-13 1.4425000000000002e-06 2.2725500000000003 2.7386000000000005e-12 3.4332000000000003e-07 9.8815500000000016e-08 2.2725500000000003 2.5620500000000006 2.2249500000000002e-06 2.0460500000000006 1.0541500000000001e-06 1.5695500000000003e-06 1.5765500000000004e-07 1.2175500000000002e-07 5.2826000000000011e-13 2.4674500000000004 6.6215500000000012e-07 1.9972500000000007e-06 1.5647500000000003e-06 1.3711500000000002e-06 1.5894500000000002e-07 4.5725500000000003e-07 1.0325500000000002e-07 1.2338500000000003e-06 2.0657500000000005e-06
decision_type=2 2 2 2 2 2 2 2 2 2 2 2 2 2 2 2 2 2 2 2 2 2 2 2 2 2 2 2 2 2
left_child=1 -1 4 14 5 6 9 11 -8 10 -3 -4 -13 -5 21 -16 18 -18 -11 -20 26 -2 -23 -10 -7 -19 27 28 -14 -28
right_child=3 2 7 13 -6 24 8 -9 23 16 -12 12 20 -15 15 -17 17 25 19 -21 -22 22 -24 -25 -26 -27 29 -29 -30 -31
leaf_value=-0.15078443961153457 -0.16708897190207572 0.13372791472207779 -0.066935294371014087 0.080469067099037103 -0.14918169147492222 0.1635625476645288 -0.12571739811366178 -0.14761447877257949 0.14300345404033277 0.11888590453507289 -0.15429955098704939 -0.0041257595734460004 0.13822358944137558 -0.15020352644285898 0.058228340194507212 -0.15211839298623711 -0.1038994479454286 0.10480160055653553 -0.13805922865023262 0.067518074502754738 0.019350812422226943 0.047709302628650987 -0.15410578651770168 -0.044178196530787049 0.020022614962992874 -0.095938648582112776 0.1240933512849533 -0.11830167553786826 0.0015764620550578696 0.090275093742261905
leaf_weight=66.680926650762558 334.79019212722778 21.285544142127037 9.2013963609933835 16.379549682140354 17.906175389885902 32.300184488296509 45.697359457612038 8.3185065537691099 9.656430736184122 63.494239255785942 28.882061138749123 21.702220037579536 65.466662704944611 5.0848309993743888 9.9641162157058734 17.178901076316833 14.782029241323469 18.839519217610363 9.9517037570476514 78.309980228543282 27.641097694635391 10.47609883546829 26.352879568934441 8.9574363082647306 10.164921328425406 4.9588266760110846 237.24689254164696 23.54002982378006 11.849762320518492 318.45013609528542
leaf_count=276 1392 87 37 66 73 131 186 34 39 257 118 87 267 21 40 71 60 76 40 315 111 42 109 36 41 20 962 96 48 1290
internal_value=0 0.52705 0.651694 -1.45112 0.215517 0.303549 0.165839 0.87188 -0.740116 0.408093 -0.320928 0.899194 0.91964 0.258236 -1.54313 -0.749008 0.600243 -0.009636 0.755291 0.443388 0.950119 -1.60113 -0.96699 0.529272 1.29203 0.629736 0.981973 0.622954 1.17281 1.04713
internal_weight=0 1155.28 1088.6 420.227 365.186 347.28 304.815 723.417 64.3112 240.504 50.1676 715.098 705.897 21.4644 398.762 27.143 190.336 38.5804 151.756 88.2617 684.195 371.619 36.829 18.6139 42.4651 23.7983 656.553 100.856 77.3164 555.697
internal_count=6428 4687 4411 1741 1479 1406 1234 2932 261 973 205 2898 2861 87 1654 111 768 156 612 355 2774 1543 151 75 172 96 2663 411 315 2252
shrinkage=0.1


Tree=3
num_leaves=31
num_cat=0
split_feature=0 45 8 52 35 89 61 45 3 25 6 45 9 49 22 4 8 2 0 0 35 21 45 22 0 5 25 50 25 5
split_gain=1012.44 248.181 86.3707 63.355 54.589 45.9168 31.8113 51.2946 28.6367 26.8749 118.26 62.8129 90.2808 31.0338 22.3731 39.806 20.4333 29.4322 20.0266 19.4439 18.2673 16.8349 23.2294 16.3736 29.6999 16.2429 66.3504 18.8701 19.9404 17.4632
threshold=1.7338500000000001e-06 8.294900000000001e-08 2.0401500000000001 7.9846500000000007e-13 2.5354500000000004 2.2666500000000007 2.5586000000000003e-13 1.03705e-07 1.5434500000000002e-06 6.2168000000000013e-13 1.00525e-06 1.03705e-07 5.920150000000001e-07 7.4135500000000009e-08 2.7926500000000006e-07 1.0766500000000003e-06 2.0460500000000006 1.0541500000000001e-06 2.2249500000000002e-06 1.5485000000000003e-06 2.5412500000000002 3.9583500000000005e-07 1.0672500000000001e-07 6.5034000000000009e-07 2.0234000000000004e-06 3.1612500000000004e-06 8.7757000000000007e-13 2.8119500000000008e-07 8.2240000000000011e-13 2.7374000000000003e-06
decision_type=2 2 2 2 2 2 2 2 2 2 2 2 2 2 2 2 2 2 2 2 2 2 2 2 2 2 2 2 2 2
left_child=1 -1 5 16 -4 6 7 8 -3 10 11 -6 13 -13 -9 20 23 -18 -5 -8 -16 -15 -23 -2 -25 27 -27 -11 29 -29
right_child=3 2 4 18 9 -7 19 14 -10 25 -12 12 -14 21 15 -17 17 -19 -20 -21 -22 22 -24 24 -26 26 -28 28 -30 -31
leaf_value=-0.15177672634648917 -0.15550887677601288 0.092090948185254387 -0.14936627967479396 0.09079188254620213 0.10491826362746293 -0.14272525145374046 0.097901681781690134 -0.16089087785401224 -0.15817690308848112 0.11693638242811738 -0.14040447114397012 0.16899438290587468 0.098389373130629176 -0.16386092006425923 0.090347320212442572 -0.15034561638389893 0.066398688106266437 -0.14298443556864379 -0.13981842473689943 -0.043191601843405127 -0.060760085221943066 0.05896072258352425 -0.11153897305271843 0.03755806473709792 -0.14785777076695139 -0.14333653679864405 0.08937998672660559 0.058328763657150076 0.085946440556139425 -0.14522896059621149
leaf_weight=58.252569288015366 329.64810433983803 43.534593880176544 10.793775618076323 16.004152253270153 221.40358270704746 19.795367792248726 54.861314117908478 18.831788584589958 5.1085772365331641 263.6000809520483 28.097134068608284 4.9266626089811316 64.712365299463272 20.864248692989349 20.492767781019211 18.799234688282013 11.15069702267647 16.870170652866364 4.924437850713729 11.882786959409712 13.123598620295523 12.482490360736845 22.2065819054842 12.841906577348707 26.396049007773399 14.161706522107123 90.829179719090462 9.5095384418964404 90.281643480062485 7.5690201073884955
leaf_count=250 1423 180 45 65 914 82 225 78 21 1082 115 20 266 87 83 78 45 72 21 48 53 51 91 52 113 58 370 39 370 31
internal_value=0 0.492217 0.601863 -1.33045 0.741082 0.0208978 0.174496 -0.133546 0.658075 0.769438 0.56911 0.729065 0.162936 -0.715473 -0.674013 -0.338126 -1.41987 -0.59662 0.365299 0.727821 0.31356 -0.928794 -0.501865 -1.4824 -0.871744 0.927147 0.5799 1.02543 0.67202 -0.318857
internal_weight=0 1126.12 1067.87 417.836 861.438 206.43 186.635 119.891 48.6432 850.644 374.693 346.596 125.192 60.48 71.2474 52.4156 396.907 28.0209 20.9286 66.7441 33.6164 55.5533 34.6891 368.886 39.238 475.951 104.991 370.96 107.36 17.0786
internal_count=6428 4637 4387 1791 3539 848 766 493 201 3494 1544 1429 515 249 292 214 1705 117 86 273 136 229 142 1588 165 1950 428 1522 440 70
shrinkage=0.1


Tree=4
num_leaves=31
num_cat=0
split_feature=0 45 8 52 35 52 0 81 25 17 35 0 62 17 45 44 80 0 70 58 0 17 26 80 71 80 25 63 40 66
split_gain=854.305 206.212 74.4489 48.8981 44.6813 41.9645 57.6 32.5223 51.3371 24.3244 21.5718 18.8127 16.8876 19.5227 16.6145 17.0676 16.5477 15.4665 15.1179 14.5221 25.1371 12.6393 12.2747 12.1462 27.7214 14.6546 17.3739 17.0241 12.6002 21.9335
threshold=1.74925e-06 8.6481000000000018e-08 2.0405500000000005 7.9846500000000007e-13 2.5352500000000004 1.0147000000000001e-13 1.4387500000000002e-06 1.2675500000000003e-07 4.3230500000000004e-13 2.2723500000000008 2.5423500000000003 1.6008000000000002e-06 2.5622500000000001 2.2761500000000003 9.9564500000000005e-08 2.5837500000000007 2.4646500000000002 2.2249500000000002e-06 8.2398000000000019e-13 3.1506500000000005e-07 1.9972500000000007e-06 2.2751500000000004 2.4386500000000004 2.4670500000000004 2.2497500000000001 2.4644500000000007 6.0720500000000004e-13 1.2931000000000001e-07 1.7153500000000001e-07 1.3123500000000002e-07
decision_type=2 2 2 2 2 2 2 2 2 2 2 2 2 2 2 2 2 2 2 2 2 2 2 2 2 2 2 2 2 2
left_child=1 18 5 19 -4 6 7 -3 -9 -6 12 -7 13 14 -11 -16 21 -5 -1 -2 -21 -10 -18 25 -25 26 27 28 29 -14
right_child=3 2 4 17 9 11 -8 8 16 10 -12 -13 23 -15 15 -17 22 -19 -20 20 -22 -23 -24 24 -26 -27 -28 -29 -30 -31
leaf_value=-0.14691347965787535 -0.14380423646840232 0.14194651462275487 -0.15152577105869519 0.076472183457668319 -0.088400051603784904 0.11696476498513322 -0.11736109793503101 -0.14238957194566507 -0.1694394338385769 0.12014874133038943 -0.078853052238492566 -0.032456100710401219 0.065008497639420376 0.076678234420161195 -0.0030981084817208542 -0.18021008799310576 -0.039140809219592822 -0.13115812753867059 0.040158903791574004 0.018481158146369924 -0.13551849867354573 -0.0024397514574615101 0.058353673917722337 -0.11206188635157738 0.069500589640764596 0.09037744536941765 0.085460774398639611 -0.17141278747206315 0.11024360551650265 -0.098419423735099043
leaf_weight=57.46330738067627 320.75717741250992 17.615586370229721 9.0572900623083097 14.811222508549692 9.3625560700893384 41.479007467627525 42.548704996705055 21.986788272857666 6.7000690996646908 5.4847524017095592 9.1571943759918195 10.57421839237213 18.857791796326637 33.805917859077454 13.630067959427835 9.0560418516397458 15.46110364794731 4.7344436198472968 4.6710434108972541 15.799824267625807 32.201530948281288 14.005756571888922 78.378075778484344 10.454485118389128 42.987648740410805 548.45061908662319 65.400506660342216 4.8103607743978491 12.886374294757841 14.546943932771681
leaf_count=256 1450 75 39 61 38 174 181 94 28 23 38 43 79 139 56 37 64 21 20 65 144 57 322 43 177 2297 273 20 53 61
internal_value=0 0.441953 0.546056 -1.27958 0.693336 0.0676852 -0.143608 0.140699 -0.0242894 0.718375 0.737377 0.86611 0.755283 0.254442 -0.360384 -0.737992 0.244364 0.26179 -1.3285 -1.36127 -0.848289 -0.564781 0.422903 0.798491 0.339829 0.835353 0.513251 0.076377 0.262438 -0.0616036
internal_weight=0 1118.83 1056.7 388.304 807.949 248.749 196.696 154.147 136.532 798.891 789.529 52.0532 780.372 61.9768 28.1709 22.6861 114.545 19.5457 62.1344 368.759 48.0014 20.7058 93.8392 718.395 53.4421 664.953 116.502 51.1015 46.2911 33.4047
internal_count=6428 4687 4411 1741 3373 1038 821 640 565 3334 3296 217 3258 255 116 93 471 82 276 1659 209 85 386 3003 220 2783 486 213 193 140
shrinkage=0.1


Tree=5
num_leaves=31
num_cat=0
split_feature=0 45 8 52 26 52 0 80 8 2 17 45 19 43 45 14 43 81 0 22 35 22 0 0 63 0 11 16 8 80
split_gain=724.565 177.079 59.4337 47.2812 35.6563 34.5875 43.6039 28.3472 23.3355 27.9431 19.9984 19.4961 36.0007 16.9027 90.5921 101.758 37.4925 17.6514 15.0071 14.969 15.8256 14.6178 23.9681 13.7218 13.604 56.4852 47.3051 12.5117 14.7557 22.3882
threshold=1.72685e-06 8.294900000000001e-08 2.0405500000000005 7.9846500000000007e-13 2.4479500000000005 1.0147000000000001e-13 1.4216500000000004e-06 2.4642500000000003 2.0461500000000004 1.0541500000000001e-06 2.2723500000000008 9.7511500000000006e-08 5.3918500000000007e-07 1.8672500000000002e-13 1.0105500000000001e-07 1.2025500000000002e-06 1.7069500000000004e-13 1.4159000000000001e-07 1.6008000000000002e-06 2.3937500000000004e-07 2.5421500000000004 6.5034000000000009e-07 2.0234000000000004e-06 2.2249500000000002e-06 1.2592500000000001e-07 1.3935500000000002e-06 4.7734500000000015e-07 1.4457500000000002e-12 2.0429500000000007 2.4668500000000004
decision_type=2 2 2 2 2 2 2 2 2 2 2 2 2 2 2 2 2 2 2 2 2 2 2 2 2 2 2 2 2 2
left_child=1 -1 5 8 10 6 7 -3 21 -10 -4 -9 -13 14 15 -12 -16 -18 -7 -15 24 -2 -23 -5 25 -21 -26 -28 29 -29
right_child=3 2 4 23 -6 18 -8 11 9 -11 13 12 -14 19 16 -17 17 -19 -20 20 -22 22 -24 -25 26 -27 27 28 -30 -31
leaf_value=-0.13640907407681507 -0.13994382433874364 -0.10671786967951902 -0.079713052657818417 0.073352339571368705 -0.15518196091258113 0.10824928045993641 -0.099682104784685921 0.10814538577468223 0.081018265931816255 -0.12608166380304739 0.11173141068829279 -0.10381285123423847 0.040499631263221175 -0.065277128110095145 -0.14461498204387002 -0.19673906706891947 0.084759898257648694 -0.10133809971251646 -0.037130129663233841 0.12779556010870646 -0.017035594087079935 0.035963954420494298 -0.13223675314347325 -0.12376130832481713 -0.12329539903497222 -0.10250203254902489 0.014024101961358504 0.070236368490610254 0.098545047620241966 -0.067316348760399519
leaf_weight=52.98480287194252 303.78639064729214 17.150076001882553 9.2498084306716901 16.06915578246117 7.3271678686141959 40.393317997455597 43.353338092565536 25.679340660572052 11.610012322664263 14.845755204558371 124.63751250505447 21.713880568742752 84.776644736528397 7.3364275544881812 29.261279597878456 11.697711527347563 15.916251689195635 7.4977244883775702 8.6148778051137906 127.10136546194553 16.838831096887589 13.003328427672384 24.310300797224045 4.526458427309989 12.002717480063437 11.624183282256125 28.310459956526756 131.85024243593216 232.74746240675449 12.999231919646261
leaf_count=250 1445 73 38 67 33 174 188 112 47 69 536 94 349 31 123 48 67 32 35 542 70 53 114 21 50 48 120 557 988 54
internal_value=0 0.41868 0.51056 -1.1741 0.643852 0.076847 -0.113946 0.142387 -1.25671 -0.351967 0.664502 0.299338 0.110737 0.682064 0.422313 0.852643 -0.691475 0.251668 0.826938 0.766594 0.784752 -1.32689 -0.736209 0.300311 0.813645 1.08498 0.723574 0.781428 0.829502 0.57892
internal_weight=0 1081.06 1028.08 388.151 786.398 241.681 192.673 149.32 367.556 26.4558 779.071 132.17 106.491 769.821 189.01 136.335 52.6753 23.414 49.0082 580.811 573.474 341.1 37.3136 20.5956 556.636 138.726 417.91 405.907 377.597 144.849
internal_count=6428 4612 4362 1816 3337 1025 816 628 1728 116 3304 555 443 3266 806 584 222 99 209 2460 2429 1612 167 88 2359 590 1769 1719 1599 611
shrinkage=0.1


Tree=6
num_leaves=31
num_cat=0
split_feature=0 45 8 70 70 0 80 18 80 81 24 59 35 62 45 25 8 2 71 17 8 58 36 70 76 70 3 45 16 35
split_gain=620.146 149.018 53.5019 37.5389 32.8543 41.5377 27.3508 25.263 23.8538 21.048 52.6581 15.6368 15.1072 14.2024 18.724 35.3896 14.1335 16.911 13.6299 20.0882 13.7368 13.3094 12.8511 12.7068 12.3387 13.6805 16.0185 15.7134 23.6467 12.0759
threshold=1.74925e-06 8.6481000000000018e-08 2.0413500000000004 1.0095000000000003e-12 2.2789000000000005e-13 1.4863500000000004e-06 2.4623500000000003 5.4243000000000018e-07 2.4642500000000003 1.2974500000000003e-07 4.5263500000000003e-07 1.3711500000000002e-06 2.5423500000000003 2.5624500000000006 9.9564500000000005e-08 4.5368000000000009e-13 2.0460500000000006 1.0541500000000001e-06 2.2499500000000006 2.2759500000000004 2.0438500000000004 1.6602000000000003e-07 2.2337500000000003e-07 8.2398000000000019e-13 1.9533000000000002e-07 1.1443500000000003e-13 1.5728500000000003e-06 1.0849500000000001e-07 1.2733500000000002e-12 2.5410500000000007
decision_type=2 2 2 2 2 2 2 2 2 2 2 2 2 2 2 2 2 2 2 2 2 2 2 2 2 2 2 2 2 2
left_child=1 23 4 16 5 8 -4 -7 22 -10 -11 -6 13 14 -8 -16 -2 -18 -17 -20 21 -21 -3 -1 25 26 27 -12 -29 -24
right_child=3 2 6 -5 11 7 12 -9 9 10 24 -13 -14 -15 15 18 17 -19 19 20 -22 -23 29 -25 -26 -27 -28 28 -30 -31
leaf_value=-0.13474711103560055 -0.12961978762585732 -0.11075339443139408 -0.1488117386621825 0.017621839820949125 0.13652828329733732 -0.11782318362870195 0.11838887442660039 0.053016251721802847 0.10591849889674171 -0.1401037670002607 0.081147238578379174 -0.0066546882626006103 -0.069704442553262497 0.072436173462882031 -0.17026899894120795 0.088264102573632444 0.050388485807536965 -0.11929946916733176 -0.097173088198322974 0.073606517007061653 0.1042490261895581 -0.13374648593021468 -0.094153644223365904 0.03936624978101505 -0.12001181082020385 0.10581497842192347 -0.039874403438137827 -0.14454897945992595 0.036320518314323584 0.085536228251424595
leaf_weight=51.91781210899353 306.23270234465599 19.671620428562164 6.0673049390316001 19.90264093875885 29.506334543228149 39.210014715790749 20.123516097664833 11.10795873403549 32.483699306845665 18.778085231781006 57.665674641728401 10.286123543977736 8.2878694683313352 557.83872623741627 9.5443864166736585 28.63038082420826 9.880137652158739 14.481333389878271 14.420237690210341 5.9837145060300845 17.302559912204742 6.4134040772914886 6.3800743222236624 4.5596263110637656 4.8892600983381262 27.279193460941315 27.538218349218369 8.7729174792766553 41.056315705180168 9.0381333976984006
leaf_count=256 1543 86 28 87 131 174 89 46 145 85 245 43 34 2430 41 122 40 71 61 26 74 27 28 20 20 117 116 36 170 37
internal_value=0 0.374198 0.461892 -1.15758 0.140738 0.02885 0.625495 -0.801095 0.193554 0.31648 0.186757 0.995163 0.644676 0.661518 0.319231 0.107796 -1.23788 -0.504801 0.345321 -0.00335764 0.466822 -0.336635 -0.571766 -1.2069 0.36508 0.412227 0.281739 0.456066 0.044767 0.111803
internal_weight=0 1074.75 1018.28 350.497 343.664 303.871 674.612 50.318 253.553 218.463 185.98 39.7925 668.545 660.257 102.418 82.2947 330.594 24.3615 72.7503 44.1199 29.6997 12.3971 35.0898 56.4774 167.202 162.312 135.033 107.495 49.8292 15.4182
internal_count=6428 4687 4411 1741 1479 1305 2932 220 1085 934 789 174 2904 2870 440 351 1654 111 310 188 127 53 151 276 704 684 567 451 206 65
shrinkage=0.1


Tree=7
num_leaves=31
num_cat=0
split_feature=0 45 62 8 54 0 0 70 13 80 25 45 14 46 9 0 5 24 8 63 34 75 16 81 33 71 26 60 53 8
split_gain=529.721 125.07 49.9339 40.9475 34.0932 33.1937 24.5143 24.3988 20.9664 18.8355 15.5599 78.4419 55.5165 40.4726 30.5885 28.4557 22.7403 67.9017 27.4527 20.8833 60.5075 15.8602 26.8088 15.2857 19.9999 12.7796 12.2652 13.8249 12.1351 11.6027
threshold=1.7677500000000004e-06 8.294900000000001e-08 2.5665500000000008 2.0401500000000001 3.5128000000000006e-07 2.2249500000000002e-06 1.5422000000000002e-06 1.7841500000000003e-13 7.0243500000000006e-07 2.4640500000000007 5.5069500000000011e-13 1.0325500000000002e-07 1.2025500000000002e-06 1.4885500000000002e-07 5.920150000000001e-07 1.3429500000000002e-06 3.1495500000000006e-06 6.8888000000000006e-07 2.0463500000000008 1.1540000000000001e-07 2.5471000000000008e-13 2.6801500000000006e-07 2.2993500000000003e-12 1.2974500000000003e-07 4.0790500000000003e-07 2.2502500000000007 2.4381500000000007 6.7372000000000013e-07 2.5577500000000004 2.0420500000000001
decision_type=2 2 2 2 2 2 2 2 2 2 2 2 2 2 2 2 2 2 2 2 2 2 2 2 2 2 2 2 2 2
left_child=1 -1 3 6 -2 29 7 9 -8 -3 11 12 19 -12 25 -16 21 18 -18 -5 -21 -15 -23 -11 -25 -13 -19 -28 -29 -6
right_child=4 2 -4 10 5 -7 8 -9 -10 23 13 14 -14 16 15 -17 17 26 -20 20 -22 22 -24 24 -26 -27 27 28 -30 -31
leaf_value=-0.12548609399861019 -0.12826594586955198 -0.14110130433271897 -0.12847246807738552 0.10761187836011371 -0.043279213792344569 -0.13118525193376793 -0.1353392372030153 0.12075020123320204 0.045637571455198415 0.095569003941622488 -0.14043931359438808 -0.018313803040345376 -0.18359291135622569 0.084053525700312645 0.10641045050722278 -0.15893973253471527 -0.1410620810043301 -0.079239840428781377 0.1217230985888783 -0.15975580088106686 0.088381597843496792 -0.14357438708524334 0.058605277659807754 -0.13951929661847787 0.011362767417229438 -0.1258597385939893 0.15662753466861168 -0.084629620222416838 0.072439911437198481 0.073662879037836401
leaf_weight=47.136817276477814 262.05553795397282 8.4947671890258771 17.064523607492447 110.81325373053551 15.701505810022352 25.313850432634354 21.004417598247532 20.20323683321476 9.2076116204261762 18.981602966785431 9.5850874930620176 15.750640794634817 8.2348783016204816 383.76608057320118 17.466455921530727 5.2579869478940955 25.774960920214657 5.0401641875505439 4.7003913372755042 12.651844218373297 44.014767915010452 8.1478919982910138 33.620480835437775 9.5950440764427167 104.09155270457268 37.016150593757629 18.925640881061554 5.3569022715091696 60.14549033343792 18.458444088697433
leaf_count=250 1406 38 83 504 72 132 100 95 38 87 41 68 34 1700 77 22 112 22 20 53 196 35 147 46 442 162 82 23 260 81
internal_value=0 0.337486 0.411442 0.440448 -1.12753 -0.444002 0.0248745 0.179657 -0.801836 0.0325513 0.539193 0.332694 0.698965 0.632649 -0.519847 0.450137 0.668444 0.283863 -1.00531 0.823604 0.329804 0.776844 0.191654 0.124983 -0.0137154 -0.937578 0.722992 0.813457 0.595945 0.199108
internal_weight=0 1062.05 1014.91 997.847 321.529 59.4738 191.578 161.366 30.212 141.163 806.269 251.206 175.715 555.063 75.4912 22.7244 545.478 119.944 30.4754 167.48 56.6666 425.534 41.7684 132.668 113.687 52.7668 89.4682 84.428 65.5024 34.1599
internal_count=6428 4737 4487 4404 1691 285 846 708 138 613 3558 1116 787 2442 329 99 2401 519 132 753 249 1882 182 575 488 230 387 365 283 153
shrinkage=0.1


Tree=8
num_leaves=31
num_cat=0
split_feature=0 45 62 8 54 0 70 0 81 25 25 44 26 35 17 89 44 53 71 59 17 63 80 28 71 17 70 0 44 22
split_gain=454.66 108.132 42.3565 34.9823 31.6447 29.1923 22.3795 36.8993 20.2738 57.6651 19.4406 18.9373 15.8298 31.68 15.863 14.7052 14.6523 13.0851 12.8367 12.8287 12.6311 11.8561 11.651 12.3783 11.4127 11.3358 11.2279 11.1193 12.6799 10.1909
threshold=1.7677500000000004e-06 8.6481000000000018e-08 2.5665500000000008 2.0416500000000002 3.5128000000000006e-07 2.2249500000000002e-06 2.2789000000000005e-13 1.40525e-06 1.2747500000000002e-07 4.3487500000000005e-13 8.7327500000000013e-13 2.5838500000000004 2.4409500000000004 2.5412500000000002 2.2742500000000008 2.2626500000000003 2.5839500000000002 2.5582500000000006 2.2521500000000008 1.3711500000000002e-06 2.2779500000000001 1.3200000000000002e-07 2.4645500000000005 3.8101000000000005e-07 2.2541500000000005 2.2785500000000005 8.2398000000000019e-13 1.5647500000000003e-06 2.5835500000000002 3.7380000000000008e-07
decision_type=2 2 2 2 2 2 2 2 2 2 2 2 2 2 2 2 2 2 2 2 2 2 2 2 2 2 2 2 2 2
left_child=1 26 3 6 -2 -6 7 8 -3 -10 11 -9 14 25 15 -5 22 -15 -17 -8 -11 -18 23 -16 -13 -14 -1 -12 -29 -24
right_child=4 2 -4 12 5 -7 19 10 9 20 27 24 13 17 16 18 21 -19 -20 -21 -22 -23 29 -25 -26 -27 -28 28 -30 -31
leaf_value=-0.12604524677552487 -0.12375102118484632 0.11431322237662221 -0.12138254911446125 0.063401634711826221 0.01803552793589842 -0.12660450064592207 0.12127861862234585 -0.13716749159589051 -0.11445891631266747 0.045652751481585749 0.033814910060516748 -0.091252137987114068 0.071723134567416066 -0.13543983937920137 -0.095422368864916091 0.016985585054515896 0.044515226197697162 0.0011478459529614354 -0.1124788820907317 -0.0021193295876587854 -0.079039591906128762 -0.13694518999395075 0.069776799535097814 0.048412282260915929 0.1139984053999962 -0.067728546639096693 0.040381803931362925 0.065834639995305339 -0.11012440424880095 0.1074093079745788
leaf_weight=46.132272318005562 245.31894944608212 25.002845630049706 16.295307695865631 34.619084000587463 33.950966238975525 23.69045577943325 29.585580140352249 30.328454717993736 28.015253856778145 171.76041351258755 30.669442489743233 5.1511248052120191 55.92085924744606 14.781796768307688 6.7428796440362921 21.216776341199875 9.1093003749847394 13.346606329083441 11.984864994883536 11.779228433966635 8.5271589010953885 5.9540892988443366 270.89030955731869 53.108652412891388 5.7143233716487885 6.5074963569641104 4.4441970735788336 5.6643527597188976 14.785023689270018 97.989367425441742
leaf_count=256 1406 121 83 158 153 132 141 141 135 745 132 25 253 65 31 95 41 60 53 50 36 26 1243 240 24 29 20 24 68 442
internal_value=0 0.311837 0.385026 0.411909 -1.08085 -0.414111 0.16854 0.080524 0.292274 0.190144 -0.45464 -0.965848 0.560226 0.174846 0.628439 0.178005 0.697274 -0.706305 -0.297475 0.861393 0.397551 -0.272104 0.731333 0.322079 0.166926 0.571868 -1.11421 -0.0426843 -0.613848 0.797735
internal_weight=0 1036.03 985.451 969.155 302.96 57.6414 366.983 325.618 233.306 208.303 92.3127 41.1939 602.172 90.5568 511.615 67.8207 443.795 28.1284 33.2016 41.3648 180.288 15.0634 428.731 59.8515 10.8654 62.4284 50.5765 51.1188 20.4494 368.88
internal_count=6428 4737 4461 4378 1691 285 1642 1451 1037 916 414 190 2736 407 2329 306 2023 125 148 191 781 67 1956 271 49 282 276 224 92 1685
shrinkage=0.1


Tree=9
num_leaves=31
num_cat=0
split_feature=0 63 89 25 8 61 0 80 0 35 17 35 17 5 36 49 10 8 6 26 22 49 89 48 24 45 0 16 41 53
split_gain=390.578 91.8452 36.8856 30.1437 29.9688 21.9538 32.4111 20.9074 19.6759 16.754 13.7248 13.6844 13.7066 16.0064 37.3317 20.5416 33.9033 13.2442 13.1268 12.7226 12.3796 64.9326 18.2011 14.1263 31.5688 15.8858 39.121 27.8613 14.0483 13.3458
threshold=1.7677500000000004e-06 9.8349500000000003e-08 2.2725500000000003 5.1663000000000007e-12 2.0405500000000005 4.8627500000000007e-13 1.4346000000000002e-06 2.4649500000000004 2.2716500000000005e-06 2.5419500000000004 2.2774500000000004 2.5423500000000003 2.2742500000000008 2.6044500000000005e-06 2.3039500000000005e-07 7.7038500000000005e-08 8.9987500000000011e-07 2.0460500000000006 1.3357000000000002e-06 2.4382500000000005 2.6717000000000003e-07 7.3557500000000015e-08 2.2643500000000008 1.0825500000000003e-07 4.7680500000000001e-07 1.0704000000000001e-07 1.4107500000000002e-06 1.2980000000000001e-12 5.1850500000000013e-07 2.5579500000000004
decision_type=2 2 2 2 2 2 2 2 2 2 2 2 2 2 2 2 2 2 2 2 2 2 2 2 2 2 2 2 2 2
left_child=1 -1 4 17 5 6 7 -3 -5 -9 -8 12 13 15 -15 -6 -17 -2 -19 -16 21 28 -23 24 -22 26 -25 -27 -14 -29
right_child=3 2 -4 8 11 -7 10 9 -10 -11 -12 -13 20 14 19 16 -18 18 -20 -21 23 22 -24 25 -26 27 -28 29 -30 -31
leaf_value=-0.11386836671374917 -0.12119233175398987 -0.049033865452150077 -0.12608194447017332 0.050793534276489187 0.1160239898521839 0.072370135900603025 -0.11830130406036699 0.044801001064621281 -0.12854917894197257 -0.13072429865087987 0.049157709457046048 -0.07397148638273443 0.11252716322145062 -0.17720199853017227 -0.11171878552002473 -0.17090378729405889 0.082179551567842846 0.077894496096329396 -0.093834453134861162 0.041714856439362 0.13665971254415796 -0.10775475318180772 0.016513349998140341 0.10579475463983101 -0.18946068706321795 -0.093873686918253915 -0.12720070769385169 0.022002193888829298 -0.073789417561174242 0.068527315489517626
leaf_weight=43.253521129488945 236.70465122163296 40.619728267192841 13.999612987041472 19.366321891546253 27.225002929568291 40.247483894228935 31.558716207742691 100.56056079268456 8.9419650137424451 5.7488719075918189 5.7926194518804541 9.1996417790651304 50.995143905282021 11.955416679382322 6.2471590787172309 8.4846643805503863 14.071907997131346 6.6842291206121471 13.323504641652105 40.052370429039001 5.2990044206380826 30.479816138744354 19.217626765370369 128.3280656337738 6.7484129369258881 12.533388733863829 7.6351038068532935 79.964755907654762 4.3957081437110892 269.26737177371979
leaf_count=256 1451 183 74 86 128 186 158 452 52 26 27 39 250 51 28 37 65 27 75 181 26 137 88 607 29 53 32 361 20 1243
internal_value=0 0.287089 0.350625 -1.03789 0.374208 0.0546028 -0.0915306 0.119919 -0.0585688 0.353092 -0.92331 0.472227 0.48765 0.159154 -0.196665 0.575537 -0.130179 -1.14589 -0.364629 0.210122 0.54537 0.23285 -0.597012 0.609794 -0.46018 0.635693 0.927107 0.52617 0.977414 0.578743
internal_weight=0 1013.88 970.628 285.021 956.629 224.528 184.28 146.929 28.3083 106.309 37.3513 732.101 722.901 108.037 58.2549 49.7816 22.5566 256.712 20.0077 46.2995 614.864 105.088 49.6974 509.776 12.0474 497.729 135.963 361.766 55.3909 349.232
internal_count=6428 4737 4481 1691 4407 1032 846 661 138 478 185 3375 3336 490 260 230 102 1553 102 209 2846 495 225 2351 55 2296 639 1657 270 1604
shrinkage=0.1


Tree=10
num_leaves=31
num_cat=0
split_feature=0 45 58 35 8 0 8 0 0 70 9 1 8 18 17 36 25 5 49 21 63 63 0 11 17 35 40 2 45 58
split_gain=337.738 81.4072 33.2615 28.3357 25.8151 22.2714 18.4963 18.1566 16.2685 18.1614 15.6099 28.7293 27.6287 20.7153 17.0887 17.2868 21.6165 66.1248 29.4212 82.0032 27.7064 27.6531 34.7341 20.1631 16.9937 18.7348 15.1607 41.6153 14.7507 21.719
threshold=1.72685e-06 8.294900000000001e-08 2.9553500000000003e-07 2.5354500000000004 2.0401500000000001 1.9972500000000007e-06 2.0460500000000006 1.8787000000000001e-06 1.5422000000000002e-06 1.7841500000000003e-13 7.8164000000000011e-07 2.4526000000000005e-06 2.0472500000000005 4.7561000000000006e-07 2.2723500000000008 3.1508500000000007e-07 6.8253500000000008e-13 2.6488500000000005e-06 7.3557500000000015e-08 4.0213000000000007e-07 1.1636500000000001e-07 1.2748000000000003e-07 1.2577500000000002e-06 6.1636500000000013e-07 2.2749500000000005 2.5415500000000004 2.4169500000000007e-07 7.7830500000000006e-07 1.03705e-07 1.4865000000000002e-07
decision_type=2 2 2 2 2 2 2 2 2 2 2 2 2 2 2 2 2 2 2 2 2 2 2 2 2 2 2 2 2 2
left_child=1 -1 6 -3 8 -4 -2 -8 9 28 11 14 13 -13 -6 16 17 18 -16 20 -20 -21 -23 -17 -19 -26 -18 -28 -5 -30
right_child=2 3 5 4 10 -7 7 -9 -10 -11 -12 12 -14 -15 15 23 26 24 19 21 -22 22 -24 -25 25 -27 27 -29 29 -31
leaf_value=-0.11383073682924945 -0.12043504181584833 -0.1169109922992663 0.03177782339008936 0.047086160546865707 -0.11325857968864135 -0.086236535693847705 0.076807344875339773 -0.1258765498916633 -0.078980590297416164 0.10779383892098027 0.08816613498037118 -0.16854672633306905 0.11515151213808128 -0.0023442025654671589 0.10391992745172265 -0.19903893626664521 0.086373575535952013 -0.14146916608319754 0.0095947950333542514 0.089271048191838537 -0.14216885438329627 -0.15065865601904407 0.051731820394723786 0.016170439120974153 0.0066101125708669679 -0.17353248123079218 -0.15274767333346326 0.074314774234939804 -0.10690866667905657 0.0058013552290901594
leaf_weight=38.738817527890205 211.26922017335892 12.255381762981413 30.191317453980446 45.773071005940437 6.7733940780162802 33.998863264918327 9.8169290721416491 8.0389908850193006 21.843255192041397 17.946421682834625 73.340275198221207 15.712070390582086 8.4812709391117078 14.346800938248633 82.997778490185738 5.8493985980749157 185.2877910733223 18.830322340130806 20.543091759085655 131.30581603944302 29.026354074478149 11.641279593110083 31.221967041492462 17.022982001304626 32.054377362132072 7.0413736999034873 10.491455063223837 34.996001526713371 22.836598545312881 68.022463858127594
leaf_count=250 1390 69 132 213 29 203 41 50 109 95 339 68 39 65 420 26 878 83 95 634 136 51 144 79 144 31 48 165 110 292
internal_value=0 0.281912 -0.943512 0.341349 0.361616 -0.307295 -1.12175 -0.144438 0.0180131 0.132165 0.443871 0.395489 -0.442453 -0.892199 0.447153 0.464458 0.497229 0.345656 0.530707 0.342077 -0.792734 0.66505 -0.0323565 -0.388674 -0.634245 -0.258346 0.73674 0.21944 0.00793886 -0.225273
internal_weight=0 964.38 293.315 925.641 913.386 64.1902 229.125 17.8559 176.422 154.579 736.964 663.624 38.5401 30.0589 625.083 618.31 595.438 364.662 306.736 223.739 49.5694 174.169 42.8632 22.8724 57.9261 39.0958 230.775 45.4875 136.632 90.8591
internal_count=6428 4612 1816 4362 4293 335 1481 91 819 710 3474 3135 172 133 2963 2934 2829 1738 1480 1060 231 829 195 105 258 175 1091 213 615 402
shrinkage=0.1


Tree=11
num_leaves=31
num_cat=0
split_feature=0 45 54 89 81 25 18 8 4 61 0 17 26 63 62 34 76 5 8 89 53 67 35 53 50 17 44 75 70 26
split_gain=292.601 68.6853 28.8178 28.1066 25.3278 82.2046 27.228 23.3396 28.9616 44.4416 22.976 21.2438 19.581 18.4622 18.05 22.9286 14.6091 26.9794 13.3867 13.3338 12.973 16.2488 12.9321 12.2753 11.0918 15.8261 11.5003 14.4381 11.0784 10.1935
threshold=1.7677500000000004e-06 8.6481000000000018e-08 3.5128000000000006e-07 2.2732500000000004 1.2747500000000002e-07 4.3230500000000004e-13 3.6083000000000004e-07 2.0424500000000005 1.0667500000000002e-06 2.6637500000000001e-13 2.2249500000000002e-06 2.2782500000000003 2.4407500000000004 1.1309500000000001e-07 2.5641500000000002 3.3283500000000007e-13 1.4186500000000003e-07 3.1495500000000006e-06 2.0399500000000006 2.2654500000000004 2.5579500000000004 1.2017000000000002e-07 2.5421500000000004 2.5585500000000008 3.8418500000000002e-07 2.2764500000000005 2.5839500000000002 1.9728500000000004e-07 8.2398000000000019e-13 2.4394500000000003
decision_type=2 2 2 2 2 2 2 2 2 2 2 2 2 2 2 2 2 2 2 2 2 2 2 2 2 2 2 2 2 2
left_child=1 28 -2 4 6 13 -3 8 11 16 -4 -7 22 -6 15 -14 -10 18 -18 -11 21 -17 24 -21 26 29 -9 -28 -1 -26
right_child=2 3 10 -5 5 7 -8 12 9 19 -12 -13 14 -15 -16 20 17 -19 -20 23 -22 -23 -24 -25 25 -27 27 -29 -30 -31
leaf_value=-0.11684097905579718 -0.11416935988126993 0.11471683808074994 0.01992341379189071 -0.1322302929590238 0.044907354538220569 0.046159985997446057 -0.14267398085941402 0.075868838921005446 -0.12168721567725899 0.053179776584479178 -0.11700733106233539 -0.13707635721902595 -0.18832654264689641 -0.13141781016834828 0.087441007854329122 0.0049508120034321319 -0.089096059608873762 -0.15169325914100795 0.059206638551844784 -0.08830797956142189 0.032918730883323657 -0.22151631652335457 -0.039714693376003724 0.086866686762983494 -0.20197977674440876 0.061056415588190006 0.11861731130407589 -0.10497375399375114 0.053520413629087008 0.0050872279625963877
leaf_weight=38.181954741477966 197.94902935624123 54.813296541571617 33.048746272921562 10.515437498688696 7.0408910363912574 222.47206941246986 4.4430258870124808 282.56286327540874 32.011254921555519 71.820401474833488 19.474652037024498 6.5123853385448447 7.269224911928176 37.916482090950012 20.268896281719208 8.2214772403240186 8.371864005923273 13.32606093585491 22.297921225428581 14.320746764540674 36.226411268115044 5.1545057892799369 11.978109896183012 5.5507729947566977 4.7826530337333697 17.599758788943291 4.5757698565721494 7.8299633413553238 4.2411169558763495 4.7272309064865112
leaf_count=256 1406 297 153 64 34 1033 20 1394 152 337 132 29 33 195 99 38 41 73 102 64 172 22 52 25 22 84 22 35 20 22
internal_value=0 0.246043 -0.966971 0.30325 0.321991 0.278066 0.954177 0.351305 0.178253 -0.137485 -0.308478 0.409487 0.518249 -1.03803 0.0641385 -0.22464 -0.702901 -0.328938 0.187248 0.331211 0.0184312 -0.823195 0.623112 -0.393759 0.661056 0.0489226 0.717315 -0.225037 -0.998096 -0.990497
internal_weight=0 965.033 250.472 922.609 912.094 852.838 59.2563 807.88 396.683 167.699 52.5234 228.984 411.197 44.9574 77.1405 56.8716 76.0071 43.9958 30.6698 91.6919 49.6024 13.376 334.056 19.8715 322.078 27.1096 294.969 12.4057 42.4231 9.50988
internal_count=6428 4737 1691 4461 4397 4080 317 3851 1856 794 285 1062 1995 229 364 265 368 216 143 426 232 60 1631 89 1579 128 1451 57 276 44
shrinkage=0.1


Tree=12
num_leaves=31
num_cat=0
split_feature=0 67 58 89 8 0 8 62 0 61 3 63 21 17 89 63 16 18 52 62 17 45 35 1 11 49 71 50 89 19
split_gain=253.128 60.1587 29.8119 25.2095 20.3521 17.7769 15.1147 14.823 12.9721 12.9657 27.1101 15.4128 40.8451 14.588 12.1947 11.4967 17.402 13.9093 11.5014 11.1726 17.1026 17.3607 13.697 12.4135 11.6277 35.9501 11.9174 10.8697 10.5666 12.3117
threshold=1.7405500000000002e-06 7.3360500000000017e-08 3.0774500000000006e-07 2.2722500000000005 2.0416500000000002 2.2249500000000002e-06 2.0460500000000006 2.5631500000000007 1.8787000000000001e-06 3.8349500000000002e-13 1.5695500000000003e-06 1.1515500000000001e-07 3.9461000000000006e-07 2.2760500000000001 2.2658500000000004 1.2051500000000002e-07 1.3902500000000003e-12 4.3562500000000006e-07 7.786700000000001e-14 2.5622500000000001 2.2762500000000006 9.9564500000000005e-08 2.5421500000000004 2.0826500000000007e-06 4.5725500000000003e-07 7.6040500000000012e-08 2.2488500000000005 2.4434500000000006e-07 2.2669500000000005 6.3010500000000015e-07
decision_type=2 2 2 2 2 2 2 2 2 2 2 2 2 2 2 2 2 2 2 2 2 2 2 2 2 2 2 2 2 2
left_child=1 -1 6 4 9 7 -2 -4 -8 10 11 -3 -13 -12 -11 -14 27 -18 -19 20 21 -6 24 -24 25 -21 -27 -17 29 -15
right_child=2 3 5 -5 19 -7 8 -9 -10 14 13 12 15 28 -16 16 17 18 -20 22 -22 -23 23 -25 -26 26 -28 -29 -30 -31
leaf_value=-0.11920537116752153 -0.11677310600602885 0.072155486090121443 0.04166143497980767 -0.10983525146539025 0.0896541031164797 -0.11380840287538392 0.067799873453849205 -0.1125262213488345 -0.11242304125934915 0.068924065628636011 -0.08494987525987048 -0.11438639192535019 0.083693980610869134 -0.16538679628749575 -0.054182304473211131 -0.0142698736934366 0.081856934432873285 -0.099682784389276691 0.089854073703086679 0.071441131648258507 0.048404290811645961 -0.13069822076839485 0.024800853509326159 -0.17251814928042719 0.055366788759328378 0.075415200044609498 -0.10243435248936002 -0.15669271893993988 0.11429884174190219 0.0074650388889435136
leaf_weight=28.579219505190849 177.78318881988525 45.729600682854652 31.474415957927704 13.044641830027102 4.7367625385522869 16.048197731375694 8.6413584947586077 7.7752981483936301 7.4258894324302664 55.551266670227051 45.496474608778954 23.774115115404129 29.064084887504578 5.1186950802803066 9.409483924508093 37.652259483933449 38.520613342523575 9.2508357614278776 4.8960241526365271 40.831721603870392 25.177879333496094 14.583652794361113 8.0113354027271253 5.2959102392196646 419.92751626670361 4.4635118991136578 24.169243723154068 6.2479015886783591 6.7195514142513266 21.135114461183548
leaf_count=206 1373 243 147 82 25 116 36 41 53 273 229 131 137 23 45 165 175 40 23 229 118 65 37 22 2101 21 119 27 30 96
internal_value=0 0.236271 -0.899036 0.281687 0.302011 -0.251379 -1.08379 0.111171 -0.154948 0.109304 0.0139503 0.213562 0.0580779 -0.482437 0.510923 0.285529 0.119571 0.507136 -0.340868 0.421243 -0.0590292 -0.766747 0.463757 -0.537266 0.490976 0.111988 -0.747097 -0.345396 0.0240336 -0.262358
internal_weight=0 927.387 249.148 898.808 885.764 55.2979 193.85 39.2497 16.0672 338.566 273.605 195.135 149.406 78.4698 64.9608 125.632 96.5676 52.6675 14.1469 547.198 44.4983 19.3204 502.699 13.3072 489.392 69.4645 28.6328 43.9002 32.9734 26.2538
internal_count=6428 4662 1766 4456 4374 304 1462 188 89 1637 1319 941 698 378 318 567 430 238 63 2737 208 90 2529 59 2470 369 140 192 149 119
shrinkage=0.1


Tree=13
num_leaves=31
num_cat=0
split_feature=0 63 21 62 8 0 16 0 26 81 25 26 61 76 5 58 2 80 16 54 11 45 62 89 89 42 3 31 18 5
split_gain=220.89 51.6568 25.5206 23.8973 19.498 27.6388 33.5331 18.6556 15.6439 15.2568 44.5744 13.0045 13.0095 18.1852 13.393 16.3972 28.8806 13.076 13.4371 12.9874 12.5009 26.1494 12.0098 11.8992 17.219 11.2506 11.1045 24.4732 11.0233 15.8968
threshold=1.8163500000000002e-06 9.8349500000000003e-08 9.7345500000000011e-07 2.5665500000000008 2.0428500000000005 1.4863500000000004e-06 2.6984000000000003e-12 2.2716500000000005e-06 2.4404500000000007 1.2747500000000002e-07 4.3230500000000004e-13 2.4434500000000003 4.8627500000000007e-13 1.9301500000000001e-07 2.2888500000000005e-06 1.5117000000000002e-07 7.619050000000001e-07 2.4642500000000003 1.1599000000000001e-12 2.0047000000000002e-07 4.5725500000000003e-07 9.9564500000000005e-08 2.5627500000000007 2.2659500000000006 2.2623500000000005 4.2608500000000005e-07 1.9045000000000001e-06 2.6546500000000008e-07 4.7046500000000002e-07 3.2081000000000003e-06
decision_type=2 2 2 2 2 2 2 2 2 2 2 2 2 2 2 2 2 2 2 2 2 2 2 2 2 2 2 2 2 2
left_child=1 -1 -2 4 5 9 28 22 20 -3 -11 12 13 14 -12 16 17 -16 -19 -20 21 -6 -4 24 -10 -23 -22 -28 -7 -30
right_child=2 3 7 -5 8 6 -8 -9 23 10 11 -13 -14 -15 15 -17 -18 18 19 -21 26 25 -24 -25 -26 -27 27 -29 29 -31
leaf_value=-0.10210978539208843 -0.11348473111461949 0.085992822280660117 0.10928647408481354 -0.10655770180173907 0.083520624098096977 -0.13457611765579894 0.026999160834779403 -0.11775200235594817 0.042470094913775423 -0.10310270207989664 0.090458245285381586 0.12520843366847917 0.08892898933513177 -0.12410148444562215 -0.12049308364861372 0.037294943730148404 -0.11133475758331622 -0.082562722447587528 0.063332722658808058 -0.073832859913773641 0.069683710212220459 -0.12981511248442923 -0.040010734076941695 0.047110207523788361 -0.072979190703500216 0.047784620092762589 -0.15724430831114963 0.049900374831434793 0.017586998224507835 -0.11847872639549911
leaf_weight=33.627718895673752 162.35420948266983 37.716533750295639 11.256594426929952 13.786648280918596 18.572455182671547 24.248158887028694 52.640444740653038 11.986590810120104 22.347728461027145 27.524937815964222 26.70120744407177 13.588771939277647 29.079042673110962 8.6474580913782102 6.5294514596462241 145.50245046615601 23.849014520645142 9.5611587911844236 51.927601039409637 7.961195081472396 227.6400198340416 13.855050355196001 10.335034817457197 41.773471303284168 30.619506493210793 4.803553342819213 7.0319441184401503 30.191559933125973 18.210407182574272 16.247070349752903
leaf_count=256 1345 219 51 92 108 132 250 94 111 157 131 67 153 38 30 684 109 44 258 38 1181 69 51 206 149 23 33 147 90 112
internal_value=0 0.196041 -0.970717 0.240991 0.261078 0.129706 -0.309543 -0.177128 0.426581 0.255568 0.190603 0.294594 0.25259 0.186627 0.232009 0.158808 -0.153309 0.148036 0.275238 0.450989 0.537771 -0.00480134 0.37824 0.0720366 -0.242693 -0.840931 0.614038 0.107684 -0.829203 -0.465695
internal_weight=0 944.185 195.932 910.557 896.77 499.935 111.346 33.5782 396.835 388.589 350.872 323.347 309.759 280.68 272.032 245.331 99.8284 75.9794 69.45 59.8888 302.095 37.2311 21.5916 94.7407 52.9672 18.6586 264.864 37.2235 58.7056 34.4575
internal_count=6428 4887 1541 4631 4539 2512 584 196 2027 1928 1709 1552 1485 1332 1294 1163 479 370 340 296 1561 200 102 466 260 92 1361 180 334 202
shrinkage=0.1


Tree=14
num_leaves=31
num_cat=0
split_feature=0 67 21 35 8 0 17 4 8 26 0 40 9 1 19 17 26 80 8 26 62 35 45 11 0 76 7 45 63 52
split_gain=192.464 45.6393 23.7806 22.1528 17.7881 16.4073 16.1221 16.193 16.8332 17.8661 17.8221 23.8961 16.4039 22.4231 14.9593 14.4908 13.4309 17.6287 11.8038 11.4664 12.9538 11.2715 12.3539 50.5256 31.6505 14.6671 19.3928 13.5556 12.9951 22.5833
threshold=1.8163500000000002e-06 7.3360500000000017e-08 9.7345500000000011e-07 2.5354500000000004 2.0395500000000006 2.2716500000000005e-06 2.2829500000000005 1.5222000000000002e-06 2.0462500000000001 2.4412500000000006 1.7054500000000001e-06 2.9238000000000008e-07 7.8164000000000011e-07 2.4329500000000006e-06 7.1408000000000005e-07 2.2723500000000008 2.4432500000000004 2.4634500000000004 2.0353500000000007 2.4385500000000007 2.5634500000000005 2.5404500000000003 1.03705e-07 4.7734500000000015e-07 1.3617500000000003e-06 1.9105500000000001e-07 8.2709500000000016e-12 8.6481000000000018e-08 1.2697500000000004e-07 4.9562500000000003e-14
decision_type=2 2 2 2 2 2 2 2 2 2 2 2 2 2 2 2 2 2 2 2 2 2 2 2 2 2 2 2 2 2
left_child=1 -1 -2 -3 18 -4 7 8 10 -10 12 -12 13 15 -15 -6 17 -17 -5 -20 -21 -19 24 28 27 -25 -27 -23 29 -24
right_child=2 3 5 4 6 -7 -8 -9 9 -11 11 -13 -14 14 -16 16 -18 21 19 20 -22 22 23 25 -26 26 -28 -29 -30 -31
leaf_value=-0.11507112450207178 -0.11119138697633231 -0.11008133960641851 0.034445930322863569 -0.15800468790865296 -0.12707508708898141 -0.11578277476126037 -0.16656056627542315 -0.16541056834281492 0.087159870688765809 -0.08135632009982452 -0.094457435390554984 0.086612728511349865 0.084742131628578243 -0.16129482638075637 -0.011826559326744104 -0.088438059586430362 0.10494989531735305 -0.01564150870948796 -0.080503458440078099 0.016714667686868936 -0.12995820932489108 -0.091784841405945505 -0.094795720326158822 0.051337834394680648 -0.095175330557384405 -0.13685682966440932 0.049363102510141102 0.077022506368844057 -0.1481478394436257 0.060860479700868164
leaf_weight=25.037446767091751 149.7791777998209 12.55602667480707 21.36039624363184 5.2284101322293273 5.7924642711877814 11.020876005291937 4.1706642135977736 4.1914681792259207 78.148247070610523 6.8422222137451163 25.394293397665024 10.222299382090567 50.738594591617584 9.4426948651671392 23.019194558262825 12.571387156844137 24.070538952946663 46.14950280636549 17.106448128819466 98.78543309867382 6.4122451096773139 4.9206425473093978 24.296421326696873 219.88750939071178 12.357849031686781 10.042163848876955 12.620136544108389 143.06241822242737 13.697411388158796 15.12209130078554
leaf_count=206 1345 91 102 28 27 94 20 20 407 32 158 49 255 45 115 61 124 241 95 495 35 27 130 1120 56 45 65 803 62 75
internal_value=0 0.180955 -0.943915 0.218131 0.236859 -0.16684 0.295082 0.305948 0.316925 0.735933 0.263245 -0.424886 0.302285 0.254353 -0.553047 0.30248 0.319394 0.285251 -0.108631 -0.0457292 0.0777433 0.314533 0.362194 0.240984 0.585704 0.434434 -0.33155 0.714094 -0.642388 -0.350815
internal_weight=0 921.886 182.16 896.849 884.293 32.3813 756.76 752.59 748.398 84.9905 663.408 35.6166 627.791 577.052 32.4619 544.591 538.798 514.728 127.533 122.304 105.198 502.156 456.007 295.666 160.341 242.55 22.6623 147.983 53.1159 39.4185
internal_count=6428 4887 1541 4681 4590 196 3937 3917 3897 439 3458 207 3251 2996 160 2836 2809 2685 653 625 530 2624 2383 1497 886 1230 110 830 267 205
shrinkage=0.1


Tree=15
num_leaves=31
num_cat=0
split_feature=0 45 21 80 8 0 18 0 26 81 27 26 35 17 5 19 26 44 21 61 1 67 17 45 49 17 53 37 16 30
split_gain=167.653 39.6548 22.3704 18.559 15.7742 20.5885 24.8699 14.4454 13.5512 13.5103 34.2001 13.2432 20.3054 13.6956 13.8734 24.2143 15.1528 12.9951 12.1838 11.5454 17.8724 22.686 17.3588 11.417 11.3641 11.1447 11.0184 10.822 16.9399 24.8523
threshold=1.8163500000000002e-06 8.294900000000001e-08 9.7345500000000011e-07 2.4626500000000004 2.0424500000000005 1.5422000000000002e-06 6.188800000000001e-07 2.2716500000000005e-06 2.4377500000000007 1.2974500000000003e-07 2.6207500000000005e-07 2.4410500000000002 2.5410500000000007 2.2749500000000005 2.6082500000000004e-06 6.223550000000001e-07 2.4383500000000002 2.5836500000000004 4.1325000000000008e-07 4.1403000000000005e-13 2.1153000000000003e-06 1.0294500000000001e-07 2.2782500000000003 9.8121500000000009e-08 8.2328000000000008e-08 2.2759500000000004 2.5578500000000006 4.3098000000000001e-07 1.5269500000000003e-12 3.6377000000000009e-07
decision_type=2 2 2 2 2 2 2 2 2 2 2 2 2 2 2 2 2 2 2 2 2 2 2 2 2 2 2 2 2 2
left_child=1 -1 -2 -3 5 8 25 26 -5 18 23 13 -13 14 24 -16 -17 -14 -10 20 22 -22 27 -11 -6 -7 -4 28 29 -12
right_child=2 3 7 4 11 6 -8 -9 9 10 19 12 17 -15 15 16 -18 -19 -20 -21 21 -23 -24 -25 -26 -27 -28 -29 -30 -31
leaf_value=-0.10133452508403501 -0.10905392806975159 -0.094699384436592579 -0.09370690593485817 -0.078005783578873666 0.080932634853512334 -0.10745511047659147 0.089311289362653035 -0.11405942215715387 0.090075760043888536 0.030030109910425862 0.0407848445498089 0.041674245156196749 0.041786408947659573 0.053987355109650186 -0.15152787171854815 -0.12731914742900552 0.041112671911555008 -0.12324021955947269 -0.09136847529362721 0.075247328988607171 -0.11827386471895428 0.014439520977321325 -0.14555781260961914 -0.10581938859818729 -0.051611060076152307 -0.021606442497340485 0.072392648628569284 -0.034582167430712858 0.10917112480874594 -0.17891458512629135
leaf_weight=27.599280789494514 138.04662732034922 13.785841077566145 5.3186966478824678 13.950955241918562 31.091249793767929 31.315794505178928 12.425656184554098 10.115018486976622 40.905856862664223 7.9121293723583213 104.43709775060415 33.701556921005249 6.5476967543363598 277.00578632205725 11.763323023915289 6.4277361556887618 31.599969111382961 17.592151179909706 4.0689417421817771 42.249579757452011 19.248479932546616 38.932636126875877 5.1695953756570807 28.362971596419811 8.1681505367159826 29.242329277098179 16.032203674316406 17.141845852136612 35.788255885243416 5.4158394485712043
leaf_count=250 1345 94 27 73 182 202 57 94 241 40 511 177 33 1503 53 34 163 81 20 231 96 181 23 162 43 154 75 79 180 24
internal_value=0 0.166838 -0.917102 0.204096 0.222538 0.0891207 -0.395583 -0.1562 0.186417 0.224981 0.149454 0.359943 -0.084709 0.430203 0.0890556 -0.26143 0.12643 -0.784784 0.736602 0.272632 0.182981 -0.29467 0.348446 -0.761886 0.533561 -0.660005 0.310158 0.405738 0.494196 0.299535
internal_weight=0 901.851 169.513 874.251 860.466 436.568 72.9838 31.4659 363.584 349.633 304.658 423.898 57.8414 366.056 89.0504 49.791 38.0277 24.1398 44.9748 268.383 226.134 58.1811 167.953 36.2751 39.2594 60.5581 21.3509 162.783 145.641 109.853
internal_count=6428 4887 1541 4637 4543 2274 413 196 1861 1788 1527 2269 291 1978 475 250 197 114 261 1325 1094 277 817 202 225 356 102 794 715 535
shrinkage=0.1


Tree=16
num_leaves=31
num_cat=0
split_feature=0 67 21 17 35 8 3 54 26 9 0 17 25 45 14 63 34 72 1 16 36 16 32 7 89 45 36 34 33 71
split_gain=146.257 35.8911 20.9164 17.7294 17.0694 15.4693 20.2242 40.6792 15.0795 13.8137 19.1826 23.2884 14.2335 47.932 30.7775 16.7738 36.6733 15.1669 33.5217 25.1328 22.1029 24.3803 19.6696 17.0723 19.9603 14.8258 14.2115 14.6003 13.8671 13.5356
threshold=1.8163500000000002e-06 7.3360500000000017e-08 9.7345500000000011e-07 2.2832500000000002 2.5354500000000004 2.0462500000000001 1.8974000000000002e-06 2.5463500000000003e-07 2.4412500000000006 7.6333500000000018e-07 1.5063000000000003e-06 2.2754500000000006 5.5069500000000011e-13 1.0346500000000002e-07 1.1978000000000002e-06 1.1515500000000001e-07 2.5091000000000004e-13 1.7022500000000003e-07 2.1153000000000003e-06 1.4966000000000001e-12 2.6985500000000003e-07 1.8097000000000001e-12 6.3572500000000006e-07 7.2041500000000006e-12 2.2626500000000003 8.6481000000000018e-08 3.1658000000000005e-07 9.3142000000000029e-13 9.8285000000000025e-07 2.2510500000000007
decision_type=2 2 2 2 2 2 2 2 2 2 2 2 2 2 2 2 2 2 2 2 2 2 2 2 2 2 2 2 2 2
left_child=1 -1 -2 4 -3 6 9 -8 -7 10 12 -12 13 14 15 25 -17 18 -14 22 -21 29 -19 24 -23 -6 -25 -28 -11 -22
right_child=2 3 -4 -5 5 8 7 -9 -10 28 11 -13 17 -15 -16 16 -18 19 -20 20 21 23 -24 26 -26 -27 27 -29 -30 -31
leaf_value=-0.11122704145003737 -0.10703804841147523 -0.10496514768348611 -0.014710700894069876 -0.19393172806596023 -0.084912591843394281 0.07533344597332936 -0.11401615923601705 0.027189692644038699 -0.076151470069200644 0.096128755795220844 -0.12103838515363428 0.014488641030405395 0.10115920999106028 -0.059869920588488029 -0.14770675082791429 -0.12381039204941623 0.051688357750566905 -0.0074517980455228623 -0.068148904060664137 0.07344047678648695 -0.008780438228466669 0.053425304908135199 -0.16450464756851374 0.077209099325098507 -0.16140696467772564 0.08225753311544938 -0.17309095708273303 0.036231642515758451 -0.046766744629071787 -0.19690779515727261
leaf_weight=21.838151514530182 127.14251010864973 10.868756406009195 30.405234768986702 3.9076890274882308 5.6413033530116072 75.702328845858574 33.996475510299206 51.018892146646976 7.1958785206079474 41.974796317517757 20.974748037755489 32.057808615267277 71.475038416683674 76.99146131426096 8.6635488048195821 16.213979348540306 44.824561178684235 39.706950157880783 13.981800965964792 100.63429893553257 7.181413695216178 8.1977633535861987 9.9785697907209379 50.19181914627552 9.1542759984731656 89.04453219473362 5.0083205774426451 9.9566010087728483 8.1021194607019407 8.1816373914480192
leaf_count=206 1345 87 196 22 32 417 227 259 33 224 109 170 400 407 42 82 242 189 70 539 34 39 45 266 41 550 22 55 41 37
internal_value=0 0.153763 -0.892197 0.185881 0.195572 0.211569 0.167003 -0.292766 0.62184 0.224642 0.184342 -0.391132 0.237415 0.0524435 0.357408 0.459467 0.0506973 0.371234 0.734583 0.246127 0.405331 0.0669686 -0.389934 0.282336 -0.59912 0.722977 0.517078 -0.338225 0.730092 -1.08968
internal_weight=0 882.666 157.548 860.827 856.92 846.051 763.153 85.0154 82.8982 678.137 628.06 53.0326 575.028 241.379 164.388 155.724 61.0385 333.648 85.4568 248.192 198.506 97.8718 49.6855 82.5088 17.352 94.6858 65.1567 14.9649 50.0769 15.3631
internal_count=6428 4887 1541 4681 4659 4572 4122 486 450 3636 3371 279 3092 1355 948 906 324 1737 470 1267 1033 494 234 423 80 582 343 77 265 71
shrinkage=0.1


Tree=17
num_leaves=31
num_cat=0
split_feature=0 1 21 89 8 4 0 6 53 25 32 45 1 25 9 1 67 39 52 25 5 17 5 25 9 45 30 63 63 10
split_gain=127.231 31.973 19.978 16.3719 12.8878 13.0435 12.419 11.3144 13.545 11.2897 20.2052 16.9869 14.266 20.7056 15.5676 21.9095 13.5351 12.7073 22.37 18.334 36.9491 15.9955 14.6289 26.1331 20.5884 52.692 22.4348 29.1865 13.3021 16.7404
threshold=1.8342000000000004e-06 1.5486500000000002e-06 9.7345500000000011e-07 2.2732500000000004 2.0395500000000006 1.5222000000000002e-06 2.2716500000000005e-06 8.1116000000000012e-07 2.5582500000000006 3.6864500000000007e-12 1.3160000000000002e-06 8.6481000000000018e-08 2.6200500000000004e-06 1.4311500000000002e-12 7.6766500000000007e-07 2.4875000000000007e-06 1.3673500000000004e-07 3.7064500000000002e-07 1.1278000000000001e-13 7.6818500000000002e-13 2.9323500000000004e-06 2.2787500000000005 2.6488500000000005e-06 6.4641000000000017e-13 5.8845000000000016e-07 9.9564500000000005e-08 2.9795500000000002e-07 1.2852500000000002e-07 1.3132500000000002e-07 9.2907000000000005e-07
decision_type=2 2 2 2 2 2 2 2 2 2 2 2 2 2 2 2 2 2 2 2 2 2 2 2 2 2 2 2 2 2
left_child=1 -1 -2 4 7 9 -4 -3 -9 10 11 -6 14 -14 15 17 -12 19 -19 20 21 22 24 -24 25 -13 -27 -28 -26 -30
right_child=2 3 6 -5 5 -7 -8 8 -10 -11 16 12 13 -15 -16 -17 -18 18 -20 -21 -22 -23 23 -25 28 26 27 -29 29 -31
leaf_value=-0.12563316088463228 -0.10739825253369656 0.14352279829630851 0.027432608605622862 -0.11884555159342357 -0.1215471806104544 -0.15444665565320034 -0.11236267793778779 -0.050540235837174111 0.017303512409482559 0.084537818193503506 0.016497149030374979 0.079300820689248305 -0.090967040294375107 0.079865294718361915 0.075201892197829787 -0.10983949043896811 -0.22167228436454872 -0.10054689206140344 0.05702690605175556 0.063015986952113787 -0.12951668747214054 -0.082045814776061932 -0.06397931445346916 0.063748650527034836 0.086726550418333048 -0.098188515094475182 0.033536921427041927 -0.16634245833835815 -0.13060016449105008 0.050055216079576817
leaf_weight=16.100434944033623 112.37850197404623 4.5080238953232756 20.73177728056908 8.8294106721878034 7.9654710441827765 4.1118500083684912 9.1636560261249524 61.172153599560261 56.708388805389404 29.692762687802315 4.1290088891983014 73.157986879348755 23.068851687014103 10.246175423264502 64.669642694294453 12.075087480247019 5.6527854949235916 20.329451516270638 16.179936692118645 128.9621507525444 15.952461957931517 13.249026246368883 39.75929756462574 26.826202407479286 99.854983732104301 34.47494051605463 49.077643863856792 8.5830766409635526 6.5388222336769131 23.796633824706078
leaf_count=156 1297 24 100 83 77 20 94 329 311 153 23 481 173 53 354 62 30 95 85 712 78 67 194 145 585 197 256 37 30 127
internal_value=0 0.139703 -0.880708 0.166159 0.180385 0.23149 -0.154179 -0.11957 -0.179029 0.241714 0.215529 0.236215 0.253556 -0.384268 0.287099 0.234242 -1.21138 0.263145 -0.307146 0.303168 0.195392 0.258746 0.298237 -0.125198 0.393655 0.159391 -0.343717 0.0378391 0.691084 0.111149
internal_weight=0 865.673 142.274 849.572 840.743 718.354 29.8954 122.389 117.881 714.242 684.55 674.768 666.802 33.315 633.487 568.818 9.78179 556.743 36.5094 520.233 391.271 375.319 362.07 66.5855 295.484 165.294 92.1357 57.6607 130.19 30.3355
internal_count=6428 4937 1491 4781 4698 4034 194 664 640 4014 3861 3808 3731 226 3505 3151 53 3089 180 2909 2197 2119 2052 339 1713 971 490 293 742 157
shrinkage=0.1


Tree=18
num_leaves=31
num_cat=0
split_feature=0 2 21 35 3 21 25 5 45 25 63 2 73 16 45 58 5 16 89 22 10 49 27 45 39 16 26 62 52 0
split_gain=111.216 27.8551 18.9572 14.9756 12.0825 35.7264 14.2319 33.7439 23.3772 32.3815 42.7721 28.6252 21.7504 25.029 17.372 17.3561 17.062 20.774 21.0885 16.27 15.887 15.6261 14.3231 13.5725 13.1802 13.729 12.809 11.9709 11.7741 11.0006
threshold=1.8342000000000004e-06 5.9390000000000004e-07 9.7345500000000011e-07 2.5349500000000007 1.8851000000000002e-06 5.9118500000000006e-07 7.6818500000000002e-13 2.6488500000000005e-06 1.0704000000000001e-07 4.9576500000000006e-13 1.1340500000000002e-07 7.2745500000000016e-07 3.0551500000000002e-07 1.8368000000000004e-12 8.6481000000000018e-08 1.4007000000000004e-07 2.9323500000000004e-06 1.6590000000000003e-12 2.2641500000000003 2.6241500000000006e-07 9.0126000000000001e-07 8.171150000000001e-08 3.5074000000000008e-07 1.1338000000000001e-07 3.7064500000000002e-07 2.2810500000000007e-12 2.4381500000000007 2.5631500000000007 3.3250500000000008e-14 2.2716500000000005e-06
decision_type=2 2 2 2 2 2 2 2 2 2 2 2 2 2 2 2 2 2 2 2 2 2 2 2 2 2 2 2 2 2
left_child=1 -1 -2 -3 6 -6 7 8 9 10 14 -10 -8 -14 -5 -9 17 18 -17 -12 -13 22 -15 -23 -25 27 -7 -26 -11 -4
right_child=2 3 29 4 5 26 12 15 11 28 19 20 13 21 -16 16 -18 -19 -20 -21 -22 23 -24 24 25 -27 -28 -29 -30 -31
leaf_value=-0.11137034904614154 -0.10579081702150064 -0.11650740113693332 0.024704636088852663 -0.089677767591738344 -0.09304077445822069 -0.10967046047277945 0.083577284765713744 -0.12858269670452202 -0.065830023579467573 -0.089998013650500058 -0.099784396017636251 -0.08762271130111042 -0.097950276346351867 0.050013501972511559 0.084986539643549269 -0.11445596601797935 -0.11075935376503519 0.08753839469442648 0.027298554106258002 0.0016638611536497776 0.055460772427038757 -0.14809698655734427 -0.19511184633795609 0.076480408941688185 -0.16187672635302994 0.035049453997415797 0.038392416951427255 0.039215220670375785 0.090618121902297621 -0.1110501775715233
leaf_weight=17.64967942237854 103.15085065364838 8.4940538778901082 20.719583801925186 6.3253862857818595 37.600804477930069 6.3748754858970633 80.639047779142857 18.375576950609684 52.45469368994236 3.7402760460972777 31.376735433936119 9.0913241505622846 16.092168368399143 4.1711637824773771 57.075963869690895 19.020800195634365 16.604977242648602 19.924873009324074 23.412645235657692 31.862014658749104 52.993335649371147 3.7192673459649077 5.5627709478139877 71.049055434763432 7.2831147909164411 65.998835504055023 70.004955343902111 4.9875925481319427 103.00377834588289 8.384587921202181
leaf_count=182 1297 85 100 58 265 41 463 93 266 20 183 42 78 23 402 92 85 112 117 176 287 21 28 400 32 362 378 23 623 94
internal_value=0 0.129378 -0.856803 0.1559 0.169604 -0.132468 0.218458 0.109972 0.255582 0.437174 0.0951948 -0.114428 0.404601 0.210211 0.675607 -0.41049 -0.206789 0.0330796 -0.362429 -0.48671 0.345084 0.32783 -0.900713 0.405971 0.452971 0.169906 0.260347 -0.801402 0.842894 -0.144048
internal_weight=0 844.89 132.255 827.24 818.746 113.981 704.765 445.262 347.924 233.384 126.64 114.539 259.503 178.864 63.4014 97.3389 78.9633 62.3583 42.4334 63.2388 62.0847 162.772 9.73393 153.038 149.319 78.2695 76.3798 12.2707 106.744 29.1042
internal_count=6428 4937 1491 4755 4670 684 3986 2556 2057 1462 819 595 1430 967 460 499 406 321 209 359 329 889 51 838 817 417 419 55 643 194
shrinkage=0.1


Tree=19
num_leaves=31
num_cat=0
split_feature=0 2 21 17 8 1 21 26 71 8 58 78 16 49 0 27 3 27 13 62 17 88 5 58 63 25 81 88 44 35
split_gain=97.2314 24.4824 17.999 13.7194 14.3121 17.2902 33.5051 11.1463 10.5043 11.1326 10.5505 10.0248 9.832 27.4009 9.76573 9.63815 13.4584 11.5911 12.8735 9.42026 8.1983 8.56312 14.4523 23.8298 15.7697 9.83731 18.8609 9.86887 8.06146 8.00801
threshold=1.8342000000000004e-06 5.7681000000000009e-07 9.7345500000000011e-07 2.2832500000000002 2.0462500000000001 2.4985000000000003e-06 5.9118500000000006e-07 2.4412500000000006 2.2511500000000004 2.0399500000000006 1.5489500000000004e-07 2.4983500000000004e-06 1.1926500000000004e-12 7.3816000000000017e-08 2.2716500000000005e-06 4.7514500000000004e-07 2.0021000000000003e-06 4.1670000000000002e-07 7.2444000000000015e-07 2.5630500000000005 2.2787500000000005 9.9445000000000012e-14 2.5479000000000002e-06 1.4992000000000003e-07 1.2887500000000002e-07 4.8906000000000004e-13 1.3271500000000003e-07 7.0223000000000005e-14 2.5837500000000007 2.5417500000000004
decision_type=2 2 2 2 2 2 2 2 2 2 2 2 2 2 2 2 2 2 2 2 2 2 2 2 2 2 2 2 2 2
left_child=1 -1 -2 4 5 8 -7 -6 20 10 28 15 13 -11 19 16 17 -8 -19 -4 21 22 24 -24 25 26 -3 -28 -10 -14
right_child=2 3 14 -5 7 6 11 -9 9 12 -12 -13 29 -15 -16 -17 -18 18 -20 -21 -22 -23 23 -25 -26 -27 27 -29 -30 -31
leaf_value=-0.11917770681143834 -0.1042549790262441 0.066309268000513871 0.059396580780020448 -0.17620684550712232 0.068303088630128447 -0.10549344519865361 0.091728110866483414 -0.059420972897732564 -0.15201862077834205 0.056775020441426016 8.7228986661785489e-05 -0.12466202693133543 0.030277484107080289 -0.084635002458455677 -0.10988987339637357 0.089899771908361389 -0.088080871401581981 -0.11055977075219886 0.096051645579691702 -0.10023365612364164 -0.057511896728412726 0.054724428982587808 -0.13461944446408286 0.022881609747036416 -0.13571472199640452 0.090291229005661749 -0.14327646922430759 0.011872290431118817 -0.037631784005497035 -0.025984617709193265
leaf_weight=13.985531009733675 94.640021592378616 31.780916199088097 15.886873960495 3.7638609185814849 70.33636225014925 35.70911779999733 16.828579209744934 7.5677628070116034 9.70291366428137 24.223213091492653 44.956640563905239 4.7242715656757346 208.33504339307547 31.549739621579647 7.662687934935092 17.136813297867775 12.095415771007536 8.1544720157980901 4.7854923605918875 4.8179998174309722 9.826799273490904 121.73892337083817 14.379867054522036 28.93731278181076 4.7799747437238684 36.311903484165668 8.2031747475266474 8.1963325664401037 16.878908611834049 28.795010909438133
leaf_count=156 1297 230 75 23 422 279 96 35 55 194 225 21 1210 191 94 84 93 40 26 25 49 683 78 154 22 216 49 47 103 156
internal_value=0 0.120027 -0.833123 0.142685 0.151581 0.107989 -0.279486 0.558957 0.169281 0.0592251 -0.294427 0.155047 0.145601 -0.23218 -0.134432 0.26728 0.00868931 0.370106 -0.341502 0.222508 0.32112 0.355749 0.179925 -0.294035 0.409902 0.509869 0.213646 -0.657345 -0.793853 0.234455
internal_weight=0 823.684 123.008 809.699 805.935 728.031 99.4342 77.9041 628.597 364.441 71.5385 63.725 292.903 55.773 28.3676 59.0008 41.864 29.7685 12.94 20.7049 264.155 254.328 132.589 43.3172 89.2723 84.4923 48.1804 16.3995 26.5818 237.13
internal_count=6428 4937 1491 4781 4758 4301 639 457 3662 2134 383 360 1751 385 194 339 255 162 66 100 1528 1479 796 232 564 542 326 96 158 1366
shrinkage=0.1


Tree=20
num_leaves=31
num_cat=0
split_feature=0 67 21 8 35 35 17 4 16 26 26 62 77 52 80 8 1 80 49 16 73 7 25 28 13 39 72 45 20 0
split_gain=84.9828 22.5655 16.9647 12.7073 11.4415 11.0656 9.95767 9.52311 12.6541 9.24836 17.3194 14.9219 11.5722 18.1124 10.3326 12.4747 16.8929 12.9145 10.2035 9.99067 28.6155 19.3362 14.7551 18.6933 12.9168 9.70391 9.63518 9.29201 28.5886 17.9759
threshold=1.8342000000000004e-06 7.3360500000000017e-08 9.7345500000000011e-07 2.0353500000000007 2.5349500000000007 2.5423500000000003 2.2741500000000001 1.3870000000000002e-06 6.8278000000000013e-12 2.4430500000000004 2.4413500000000004 2.5636500000000004 5.5952500000000006e-07 5.0462000000000006e-14 2.4671500000000006 2.0460500000000006 2.6200500000000004e-06 2.4631500000000002 1.0193000000000001e-07 2.3128000000000004e-12 3.2800000000000003e-07 9.950100000000003e-12 7.6208000000000012e-13 5.0176000000000007e-07 5.291250000000001e-07 3.449450000000001e-07 1.7358500000000003e-07 1.03705e-07 3.7739500000000005e-07 1.3562000000000002e-06
decision_type=2 2 2 2 2 2 2 2 2 2 2 2 2 2 2 2 2 2 2 2 2 2 2 2 2 2 2 2 2 2
left_child=1 -1 -2 -3 -5 6 -6 8 9 10 11 14 13 -12 15 16 17 -8 -15 20 21 22 23 27 -22 -24 -16 29 -29 -19
right_child=2 3 -4 4 5 -7 7 -9 -10 -11 12 -13 -14 18 26 -17 -18 19 -20 -21 24 -23 25 -25 -26 -27 -28 28 -30 -31
leaf_value=-0.10397231098009585 -0.1027723388341395 -0.14535522957432565 -0.012628456607135291 -0.11557996227484335 -0.009372019803960888 -0.078569826072150004 -0.12357641738464731 -0.040573376630378327 0.11493138785304161 0.092200979100685435 -0.13195451983897533 -0.1117593261337621 -0.1977570812521825 0.076157424382342784 0.03157898125753196 0.076576013122579417 -0.090920252693421244 0.060652837857031849 -0.09912722302037591 0.06229170103678372 -0.22963722000825879 -0.12247308164603353 0.088595310325957785 -0.12404976741774763 -0.04631984818254159 -0.049070728219375248 -0.067761979234837441 -0.095984982879616376 0.030149272433939125 -0.057222694632149455
leaf_weight=16.707807749509811 86.806723520159721 5.0060121007263652 27.488255061209202 6.7067033722996703 119.87389355897903 12.283052295446394 5.5617584660649291 23.437372647225857 15.052479594945906 18.263949811458588 10.377392716705801 7.9663675129413596 4.5876849740743628 13.725592039525511 17.705587733536959 51.490724995732307 12.305140249431131 113.82864627242088 4.3809058442711821 77.759750761091709 4.9003055840730694 8.113409645855425 59.032318852841854 8.3285908102989179 17.826111368834972 5.6065657883882514 21.765846334397793 21.512192495167255 109.10169719159603 14.596275441348551
leaf_count=206 1297 35 194 73 721 60 29 137 83 110 55 50 21 71 106 329 102 772 21 457 24 48 353 44 88 29 112 142 589 70
internal_value=0 0.110347 -0.810925 0.134636 0.14475 0.155941 0.171019 0.220052 0.243564 0.221168 0.19949 0.241207 -0.503621 -0.266222 0.260908 0.29906 0.246645 0.278523 0.337469 0.297638 0.227929 0.300521 0.337795 0.234139 -0.85847 0.766546 -0.232009 0.281552 0.0937488 0.472556
internal_weight=0 807.804 114.295 791.096 786.09 779.384 767.101 647.227 623.789 608.737 590.473 557.401 33.0716 28.4839 549.435 509.963 458.473 446.168 18.1065 440.606 362.846 340.12 332.006 267.367 22.7264 64.6389 39.4714 259.039 130.614 128.425
internal_count=6428 4937 1491 4731 4696 4623 4563 3842 3705 3622 3512 3344 168 147 3294 3076 2747 2645 92 2616 2159 2047 1999 1617 112 382 218 1573 731 842
shrinkage=0.1


Tree=21
num_leaves=31
num_cat=0
split_feature=0 63 30 35 8 53 26 0 35 26 81 34 18 45 1 45 2 16 25 72 77 16 0 30 27 25 50 5 16 39
split_gain=73.784 19.9409 16.6034 10.2805 10.1773 9.54216 12.9415 9.0851 9.06455 9.11152 8.89281 32.9561 16.6275 16.3693 9.46025 9.38705 35.9904 29.9192 14.5638 21.4596 13.8178 12.1654 14.9808 15.0484 11.3076 12.2363 17.0172 17.0829 15.6416 13.801
threshold=1.8342000000000004e-06 9.4028000000000013e-08 7.8834500000000012e-07 2.5354500000000004 2.0353500000000007 2.5579500000000004 2.4388500000000004 2.2716500000000005e-06 2.5423500000000003 2.4377500000000007 1.2974500000000003e-07 2.5091000000000004e-13 3.6714000000000004e-07 9.7866500000000011e-08 1.5486500000000002e-06 1.0899500000000002e-07 8.1387000000000007e-07 1.5269500000000003e-12 5.3176500000000011e-13 1.6349000000000002e-07 4.1409000000000008e-07 1.2733500000000002e-12 1.3845500000000004e-06 3.7047500000000004e-07 3.2158500000000008e-07 8.7757000000000007e-13 2.8428500000000003e-07 3.1495500000000006e-06 1.7815000000000002e-12 3.1772000000000002e-07
decision_type=2 2 2 2 2 2 2 2 2 2 2 2 2 2 2 2 2 2 2 2 2 2 2 2 2 2 2 2 2 2
left_child=1 -1 -2 -3 -5 -4 -7 -8 9 -6 12 13 14 -12 -11 16 18 20 19 -13 21 -17 23 -23 -19 26 27 28 29 -26
right_child=2 3 5 4 8 6 7 -9 -10 10 11 15 -14 -15 -16 17 -18 24 -20 -21 -22 22 -24 -25 25 -27 -28 -29 -30 -31
leaf_value=-0.099513299385420501 -0.10003492527170799 -0.097595327544826083 -0.092202339587473703 -0.14251034242300201 -0.03110797356731608 -0.1610991233033113 0.11307609463223119 -0.10905123866810128 -0.070672436748657599 -0.09608495651921023 0.076569705774217747 0.04455466737607678 -0.12776080573086165 -0.11791238173353996 0.077875192478512212 -0.1138961263789265 -0.11322514628184695 0.064930416086404805 0.077430225563629329 -0.091116556899707254 -0.15202341558058302 0.041785494561082742 -0.11158781864343224 -0.15772378701800568 0.021446166520865922 0.027982189767137219 -0.1470618325262541 -0.096365306538215789 0.073762877648239647 -0.14431007270979471
leaf_weight=16.235429916530848 82.019299741834402 8.3952241390943509 8.6123931035399455 4.1498827226459971 39.073542006313801 2.7276936098933247 11.482297651469706 2.1929694935679427 12.289504259824751 3.3099648356437674 5.1952296346426037 61.31343436986208 4.668703965842723 25.921598218381405 56.276753142476082 13.178300842642782 14.366788499057291 56.856890842318535 95.884936913847923 14.39598225802183 10.453295812010763 36.755294464528561 10.705921985208986 4.2140777707099906 14.024999402463438 224.02324259653687 9.0762070938944799 14.619487818330525 29.430806256830692 7.8259639889001837
leaf_count=230 1320 90 62 24 250 25 55 29 60 20 34 366 25 175 415 66 78 348 613 72 49 187 51 20 82 1307 48 109 182 36
internal_value=0 0.101715 -0.782838 0.124651 0.136682 -0.069671 0.377858 0.774557 0.145167 0.159096 0.184881 0.149708 0.539728 -0.854419 0.682119 0.200338 0.388135 0.119341 0.51543 0.187571 -0.453289 -0.281315 -0.0625972 0.212641 0.240522 0.162789 -0.18689 -0.0100899 0.261753 -0.379197
internal_weight=0 792.641 107.035 776.406 768.011 25.0154 16.403 13.6753 763.861 751.571 712.498 648.242 64.2554 31.1168 59.5867 617.126 185.961 431.164 171.594 75.7094 75.3069 64.8536 51.6753 40.9694 355.858 299.001 74.9775 65.9013 51.2818 21.851
internal_count=6428 4937 1491 4707 4617 171 109 84 4593 4533 4283 3823 460 209 435 3614 1129 2485 1051 438 373 324 258 207 2112 1764 457 409 300 118
shrinkage=0.1


Tree=22
num_leaves=31
num_cat=0
split_feature=0 67 21 17 8 0 18 18 5 26 89 89 53 53 25 17 80 88 39 50 4 9 37 3 58 81 34 4 45 11
split_gain=64.5252 17.8532 15.6499 10.442 10.7401 14.4864 17.6435 10.2119 11.3627 9.64085 10.2557 14.9802 11.9934 11.3215 10.1571 9.53125 16.8794 9.50182 10.7145 9.3915 8.79589 8.60394 10.6914 8.48658 11.642 13.0288 9.61201 11.8372 13.5924 8.97808
threshold=1.8342000000000004e-06 7.3360500000000017e-08 9.7345500000000011e-07 2.2832500000000002 2.0428500000000005 1.4863500000000004e-06 5.9385500000000007e-07 4.7046500000000002e-07 3.1725500000000002e-06 2.4401500000000005 2.2653500000000002 2.2623500000000005 2.5580500000000002 2.5581500000000004 5.5338000000000011e-13 2.2753500000000004 2.4645500000000005 2.5342500000000005e-13 4.8155000000000018e-07 3.4398000000000004e-07 1.0380000000000003e-06 7.8164000000000011e-07 4.6006500000000004e-07 1.3226500000000002e-06 1.4486500000000002e-07 1.3106000000000004e-07 2.5471000000000008e-13 1.0357500000000004e-06 1.1358000000000002e-07 5.0155500000000013e-07
decision_type=2 2 2 2 2 2 2 2 2 2 2 2 2 2 2 2 2 2 2 2 2 2 2 2 2 2 2 2 2 2
left_child=1 -1 -2 4 5 23 7 -7 21 15 11 -11 -12 -13 -14 19 20 -10 -19 -6 -17 22 -9 -3 25 29 -27 28 -28 -25
right_child=2 3 -4 -5 9 6 -8 8 17 10 12 13 14 -15 -16 16 -18 18 -20 -21 -22 -23 -24 24 -26 26 27 -29 -30 -31
leaf_value=-0.09993475343289554 -0.099989992827128948 0.061390773624111765 -0.010139880646033644 -0.16125095481878068 0.021651368794698873 -0.11207732152945982 0.054340817974874583 0.078315945540597801 -0.10815192461237094 0.025255059609735134 -0.033958158838597589 -0.011686573458364977 -0.064757236341083768 -0.13299675500876726 0.0892184289377147 -0.11901173024726251 0.066204534250732847 0.097015583495104918 -0.074841780532921134 -0.093262184824984856 0.02723213663470361 0.12739557772843929 -0.089705446621967194 0.046178620014203781 0.02042802929111583 -0.10937133066956761 0.022762412723102695 -0.13438552482920146 -0.15298514624215606 -0.13018074692653364
leaf_weight=14.657638948410748 73.104441478848457 31.301786456257105 26.380936868488789 3.4834856316447249 68.027338225394487 21.253925815224648 19.075712472200394 6.9530747011303928 21.215293649584055 29.122602246701717 17.311042502522469 14.795316681265833 4.9847344979643813 16.026839129626751 30.48318725451827 7.7500639557838467 124.30620421096683 6.1642356216907492 8.8162569329142553 7.9423548802733412 8.762738920748232 6.0880646854639044 8.3171482309699041 30.026533965021372 200.95304952934384 18.225545831024647 33.206431530416012 7.9843978211283675 5.0729279220104209 3.1936171725392333
leaf_count=206 1297 217 194 22 444 153 97 41 194 175 95 87 31 83 197 45 829 41 44 41 55 34 42 213 1122 141 196 44 27 21
internal_value=0 0.0938089 -0.761641 0.114869 0.122814 0.0183069 -0.319535 -0.528413 -0.309663 0.258508 0.0212983 -0.261729 0.342753 -0.747652 0.675784 0.38185 0.535859 -0.65098 -0.0412519 0.0963758 -0.414055 0.268765 -0.131993 0.118528 0.0666085 -0.216533 -0.478616 -0.2363 -0.0052833 0.292243
internal_weight=0 775.502 99.4854 760.844 757.36 427.848 97.8837 78.808 57.5541 329.512 112.724 59.9448 52.779 30.8222 35.4679 216.789 140.819 36.1958 14.9805 75.9697 16.5128 21.3583 15.2702 329.964 298.663 97.7095 64.4893 46.2638 38.2794 33.2202
internal_count=6428 4937 1491 4731 4709 2627 646 549 396 2082 668 345 323 170 228 1414 929 279 85 485 100 117 83 1981 1764 642 408 267 223 234
shrinkage=0.1


Tree=23
num_leaves=31
num_cat=0
split_feature=4 36 3 0 89 89 89 20 35 8 62 17 0 13 9 17 1 62 35 35 25 5 63 40 40 61 25 45 45 32
split_gain=56.8278 17.5896 17.2246 11.0696 10.8208 9.46941 9.28053 9.02539 8.74654 11.6993 10.4446 10.1976 9.13556 13.2829 11.2169 9.1276 8.5338 10.2777 16.5888 10.978 9.56733 26.7898 19.9081 13.3037 11.4308 15.3518 11.3284 16.7689 14.0356 13.9632
threshold=1.3870000000000002e-06 4.0293500000000005e-07 1.1600500000000002e-06 2.0795500000000007e-06 2.2652500000000004 2.2732500000000004 2.2632500000000007 9.6812000000000023e-07 2.5417500000000004 2.0466500000000005 2.5631500000000007 2.2791500000000005 1.6714500000000001e-06 6.1654500000000013e-07 7.785750000000001e-07 2.2756500000000002 2.4433500000000005e-06 2.5640500000000004 2.5401500000000001 2.5354500000000004 5.5069500000000011e-13 2.5677000000000004e-06 1.2075500000000002e-07 1.66e-07 2.4766500000000001e-07 4.7450500000000011e-13 4.9192000000000009e-13 9.7511500000000006e-08 8.6481000000000018e-08 4.8444000000000012e-07
decision_type=2 2 2 2 2 2 2 2 2 2 2 2 2 2 2 2 2 2 2 2 2 2 2 2 2 2 2 2 2 2
left_child=2 -2 -1 4 6 8 7 -3 9 11 -10 12 14 -14 16 -15 17 18 -4 -19 21 22 26 -24 -22 -26 27 28 -20 -29
right_child=1 3 5 -5 -6 -7 -8 -9 10 -11 -12 -13 13 15 -16 -17 -18 19 20 -21 24 -23 23 -25 25 -27 -28 29 -30 -31
leaf_value=-0.11378797692563519 -0.093215168569686799 0.087896076516850413 -0.079131467796543759 -0.076677626113049277 -0.09887534157153155 -0.11582856305787209 0.11891703629024852 -0.11881927029133543 -0.0013842091734712111 0.064505805394339685 -0.093924899106681281 -0.076272030609275052 -0.097867930166481737 -0.067021260280897069 0.079081674709502961 0.072234174266063877 -0.047850365309063912 -0.078950289721142305 -0.088483281998385968 0.10451589995257429 0.039800049458562893 -0.10478769652252479 -0.13427286947843883 -0.0053205522109047495 -0.063611591838345971 0.055238860125270219 0.096373363622721836 -0.1130538030501242 0.078702386419640169 0.014897331262294672
leaf_weight=11.073376100510357 76.410436034202576 4.1119861602783256 18.209727201610804 16.441283222287893 5.2899441272020331 5.7601311281323424 11.826192125678061 4.3428382575511932 87.284824036061764 48.511465910822153 14.177253175526856 12.419203244149683 16.944659505039454 7.3689831346273449 29.115342751145363 13.029084723442791 20.568049304187298 3.8052059933543232 5.7148534730076781 22.823244299739599 216.06850584596395 21.439466394484043 12.2741122841835 22.977317608892918 26.869890451431274 18.24978256970644 24.336791634559631 13.403713561594484 41.388551235198975 23.451246194541454
leaf_count=156 1271 20 107 217 30 76 56 20 520 318 79 66 161 70 187 88 118 27 61 146 1325 117 87 123 129 114 170 91 349 129
internal_value=0 -0.646378 0.0999135 -0.126623 0.284974 0.118788 0.617203 -0.182837 0.128999 0.173609 -0.143149 0.133518 0.153464 -0.324313 0.187728 0.219269 0.152008 0.179542 0.143382 0.782986 0.18332 -0.00519906 0.150531 -0.502202 0.302403 -0.155395 0.363003 0.188871 0.584185 -0.31637
internal_weight=0 118.423 737.265 42.0122 25.571 726.191 20.281 8.45482 720.431 618.969 101.462 570.458 558.039 37.3427 520.696 20.3981 491.58 471.012 444.384 26.6285 426.174 164.986 143.547 35.2514 261.188 45.1197 108.295 83.9584 47.1034 36.855
internal_count=6428 1614 4814 343 126 4658 96 40 4582 3983 599 3665 3599 319 3280 158 3093 2975 2802 173 2695 1127 1010 210 1568 243 800 630 410 220
shrinkage=0.1


Tree=24
num_leaves=31
num_cat=0
split_feature=0 81 1 89 23 17 6 13 45 70 45 30 8 26 17 17 0 67 5 58 0 9 62 25 71 0 49 12 55 13
split_gain=49.2202 15.1629 14.6208 8.67543 8.11416 7.39743 7.2521 22.2474 11.7452 11.0693 10.5532 13.9776 8.51637 12.1034 12.6312 9.32746 9.15173 11.3263 8.44966 7.97897 7.25082 7.088 9.62822 7.05991 14.2881 13.3638 11.3811 15.2477 7.63129 7.2973
threshold=1.8342000000000004e-06 2.6336500000000003e-07 1.5486500000000002e-06 2.2732500000000004 9.2730500000000014e-07 2.2741500000000001 8.5550500000000014e-07 4.2559000000000009e-07 8.6481000000000018e-08 1.7417000000000003e-13 1.00625e-07 2.9795500000000002e-07 2.0426500000000005 2.4410500000000002 2.2756500000000002 2.2790500000000002 1.4425000000000002e-06 1.0488500000000002e-07 2.8031500000000004e-06 1.4791500000000001e-07 2.2716500000000005e-06 1.0617000000000001e-06 2.5628500000000005 9.6599500000000027e-13 2.2535500000000002 1.3699500000000001e-06 7.7038500000000005e-08 6.714250000000001e-07 3.9838500000000003e-07 4.1449500000000003e-07
decision_type=2 2 2 2 2 2 2 2 2 2 2 2 2 2 2 2 2 2 2 2 2 2 2 2 2 2 2 2 2 2
left_child=2 4 -1 5 -2 23 8 9 -7 -8 -10 -12 15 -14 -15 16 -9 -18 19 -16 21 -3 -23 25 -25 26 29 -28 -26 -4
right_child=1 20 3 -5 -6 6 7 12 10 -11 11 -13 13 14 18 -17 17 -19 -20 -21 -22 22 -24 24 28 -27 27 -29 -30 -31
leaf_value=-0.11004714031494214 0.12113242161000054 -0.064750253295974211 -0.034260212484891445 -0.11395553950751265 -0.10351284650981439 -0.11787681532800108 -0.068197815346231622 0.021563404861802436 0.09482980072587692 0.11188073270913108 -0.10753920910690165 0.062738521303075126 0.039623767286193726 0.061594518165663463 -0.011351508184483494 -0.13124968167253728 -0.091725078676343469 -0.0010279615174272794 -0.013342835134426693 -0.19742404633593422 -0.10698536123225322 0.11295858769424238 -0.082255211804450015 0.066849591957411261 0.046166900052702999 -0.081150159105487604 -0.1134676870550512 0.029362382194658539 -0.15608194866030381 0.087831515860910495
leaf_weight=10.344674818217753 1.6514973789453495 6.3118605501949849 6.8351023495197323 5.6330266520380965 60.854781523346901 3.9750738479197016 43.650784980505705 163.1059177480638 33.939246825873852 3.7030357867479315 7.2687166556715992 14.314428642392157 214.77255703881383 11.686336301267145 3.5001959651708621 4.9430735334753981 16.985633324831724 72.706262316554785 13.458341829478739 6.7462787628173828 5.5258459635078898 10.026957347989081 3.3776021711528292 23.737162452191118 2.8549657836556417 30.084369331598282 14.364774357527496 15.581391416490076 5.383743904531002 17.250583827495575
leaf_count=156 21 40 51 83 1266 55 297 952 284 23 53 82 1414 76 20 23 115 456 71 34 92 51 21 137 20 201 86 88 35 125
internal_value=0 -0.71161 0.0801151 0.0966978 -0.975774 0.106226 0.149946 0.114392 0.481748 -0.541158 0.600631 0.0539282 0.175512 0.306948 -0.234909 0.0479394 0.0745406 -0.18204 -0.654374 -1.33862 -0.0574725 0.226264 0.637698 -0.125288 0.274682 -0.277332 0.0200885 -0.391513 -0.859965 0.53184
internal_weight=0 87.7485 746.826 736.481 62.5063 730.848 614.756 555.258 59.4975 47.3538 55.5224 21.5831 507.905 250.164 35.3912 257.741 252.798 89.6919 23.7048 10.2465 25.2423 19.7164 13.4046 116.092 31.9759 84.1162 54.0319 29.9462 8.23871 24.0857
internal_count=6428 1491 4937 4781 1287 4698 3955 3481 474 320 419 135 3161 1615 201 1546 1523 571 125 54 204 112 72 743 192 551 350 174 55 176
shrinkage=0.1


Tree=25
num_leaves=31
num_cat=0
split_feature=4 72 40 0 62 71 80 8 61 5 9 36 33 1 8 31 16 1 74 9 63 30 5 63 48 22 48 72 35 58
split_gain=43.0795 15.4945 13.5449 8.54484 8.0295 11.5415 8.62096 7.86959 7.7199 15.967 12.5974 16.8864 14.7702 11.938 9.50046 9.94635 9.47108 23.4918 16.109 17.624 22.4675 18.644 14.8425 14.2389 13.7146 12.4556 12.2322 12.9978 10.7022 14.974
threshold=1.3870000000000002e-06 2.7313000000000001e-07 1.2629500000000003e-07 2.2716500000000005e-06 2.5627500000000007 2.2520500000000001 2.4656500000000006 2.0351500000000002 5.963600000000001e-13 3.2598000000000005e-06 7.6081500000000008e-07 3.1508500000000007e-07 8.8092000000000014e-07 2.4329500000000006e-06 2.0434500000000004 2.6783500000000007e-07 1.7273000000000003e-12 2.1035000000000003e-06 3.6005000000000005e-07 5.8845000000000016e-07 1.16965e-07 2.9648500000000005e-07 2.3562500000000005e-06 1.2515500000000004e-07 1.1828500000000002e-07 4.7749500000000005e-07 1.0825500000000003e-07 1.7456500000000003e-07 2.5414500000000007 1.4007000000000004e-07
decision_type=2 2 2 2 2 2 2 2 2 2 2 2 2 2 2 2 2 2 2 2 2 2 2 2 2 2 2 2 2 2
left_child=2 -2 -1 4 -3 -6 -7 -4 9 10 11 13 -12 16 -11 -16 17 18 19 20 -9 -22 23 -23 -18 -26 -21 -28 29 -19
right_child=1 3 7 -5 5 6 -8 8 -10 14 12 -13 -14 -15 15 -17 24 28 -20 26 21 22 -24 -25 25 -27 27 -29 -30 -31
leaf_value=-0.11440430014613695 -0.090271857537524466 0.060395798091793899 -0.15543647221051757 -0.10580034585018561 -0.12763281192782081 -0.062286374971208841 0.12429216323977171 0.033958380604263753 0.044396304039258677 -0.10329018431506068 0.07819274285504782 -0.1050254749638405 -0.098841042158155631 -0.084818366999965034 -0.13269944389397281 0.047816470584676293 -0.17404111698524996 -0.13551326309805259 -0.072831403210696519 -0.099237469640541073 -0.12227983074418006 0.095799116350955504 -0.046393733272345833 -0.10087122200973118 0.045635916978292349 -0.099436542787005144 0.075808967838038976 0.0062313419902812134 -0.13778429310431176 -0.0008958184184899437
leaf_weight=8.8419425152242166 64.688428655266762 16.236768092960119 2.8586621880531302 7.9141969941556445 7.8345160856843021 4.7622803412377817 5.159479234367609 90.579418461769819 62.365819096565247 19.944260280579329 44.637846875935793 13.127197317779062 5.2690545469522467 13.019606757909058 4.1354320272803298 11.654337517917154 3.0877301283180705 10.790897540748118 19.852628767490387 5.4179275929927817 19.93116507306695 17.556252941489223 42.283978249877691 4.6579952314496031 130.81441203504801 6.1987111419439307 86.566813975572586 38.920379642397165 12.195308759808539 35.27183747664094
leaf_count=156 1248 97 24 157 53 28 31 742 386 230 295 61 31 88 30 79 20 66 99 33 168 111 232 22 822 29 609 219 67 195
internal_value=0 -0.595852 0.0859227 -0.122169 0.0957104 -0.369043 0.347376 0.101434 0.108212 0.0752842 0.113949 0.0703181 0.595019 0.0977036 -0.574116 0.00538308 0.1212 0.0400062 0.144599 0.201248 -0.00633939 -0.37746 -0.116235 0.545603 0.343757 0.390726 0.478775 0.542292 -0.544857 -0.32432
internal_weight=0 106.596 709.98 41.9072 33.993 17.7563 9.92176 701.138 698.279 635.913 600.179 550.272 49.9069 537.145 35.734 15.7898 524.125 384.025 325.767 305.914 175.009 84.4294 64.4982 22.2142 140.101 137.013 130.905 125.487 58.258 46.0627
internal_count=6428 1614 4814 366 209 112 59 4658 4634 4248 3909 3583 326 3522 339 109 3434 2563 2235 2136 1275 533 365 133 871 851 861 828 328 261
shrinkage=0.1


Tree=26
num_leaves=31
num_cat=0
split_feature=0 20 63 9 81 34 27 53 8 26 0 39 77 17 80 89 45 14 25 17 51 5 71 17 53 8 4 81 52 78
split_gain=38.0703 12.8645 11.9624 9.40281 8.90971 22.0191 12.3227 8.34019 8.05182 12.6758 12.4954 14.6709 9.32819 8.56168 13.3363 9.17733 8.43851 8.19358 10.6423 8.16425 11.8195 10.646 8.10933 7.8849 7.71386 7.3435 10.0814 7.27249 7.19586 14.1593
threshold=1.9232500000000002e-06 1.0010000000000002e-06 9.8349500000000003e-08 1.2588500000000002e-06 1.2747500000000002e-07 2.3509000000000001e-13 2.610700000000001e-07 2.5588500000000005 2.0428500000000005 2.4401500000000005 1.4863500000000004e-06 4.279300000000001e-07 1.9173000000000007e-06 2.2753500000000004 2.4645500000000005 2.2646500000000005 9.6702000000000015e-08 1.0299000000000003e-06 4.3487500000000005e-13 2.2760500000000001 4.7354500000000002e-07 3.2933000000000007e-06 2.2533500000000006 2.2760500000000001 2.5576500000000002 2.0461500000000004 1.0380000000000003e-06 1.7948000000000004e-07 9.472150000000002e-14 5.9800000000000014e-07
decision_type=2 2 2 2 2 2 2 2 2 2 2 2 2 2 2 2 2 2 2 2 2 2 2 2 2 2 2 2 2 2
left_child=2 -2 7 -3 6 -6 -4 -1 10 13 17 19 -13 15 23 -10 -11 -7 -19 -12 21 27 25 -15 -16 26 -17 -21 29 -20
right_child=1 3 4 -5 5 8 -8 -9 9 16 11 12 -14 14 24 22 -18 18 28 20 -22 -23 -24 -25 -26 -27 -28 -29 -30 -31
leaf_value=-0.11070041431477279 -0.10127181436467816 0.086824147479871827 0.074460363463504903 -0.087330885976036013 -0.10060548069729439 0.11339608144435204 -0.11359286385331605 0.10193537434292006 0.033614518520009538 -0.15183225454145405 -0.091618796614248446 0.038122437210554277 -0.098120092632275613 0.065590199467849927 -0.058828021884777454 0.056191639135707586 -0.0014477987967059583 -0.13207835231577253 0.0084621039661695197 -0.0015830273807802267 -0.14616192281977555 -0.11952150177027619 -0.17045640699128678 -0.090754717335333634 0.070348300091069446 0.076092313643239567 -0.13717846567746708 0.13386258651857599 0.049242315975541219 -0.10867040840277903
leaf_weight=13.290856532752512 46.961000770330429 7.2444806359708291 33.842480376362801 5.4192691072821617 19.126624811440706 7.4146056547760955 3.8844975158572188 2.1418691724538794 43.127959065139294 3.8737451806664458 36.619594663381577 32.743220552802086 5.9365552812814704 4.8682028949260703 4.8437430262565604 4.3926967605948501 101.46944627910852 5.4042093865573397 209.28507479652762 9.7911346852779477 5.7359908036887637 4.5532801225781432 4.2339240349829188 9.5609396770596486 101.34874996170402 5.7598271071910849 6.9807361364364624 6.661077879369258 39.095137730240822 10.855462379753588
leaf_count=233 1114 39 316 71 167 47 25 24 304 22 420 191 27 35 31 33 635 50 1225 58 38 71 25 55 747 39 42 38 254 52
internal_value=0 -0.771508 0.0592535 0.12297 0.0778895 0.0517835 0.550978 -0.811892 0.0822292 0.207148 -0.0147622 -0.31318 0.17212 0.364737 0.521993 0.0706303 -0.0697783 0.0971669 0.0681183 -0.609439 -0.189379 0.158032 -0.46529 -0.38006 0.644562 -0.159045 -0.624942 0.532554 0.0970723 0.0268612
internal_weight=0 59.6248 736.842 12.6637 721.409 683.682 37.727 15.4327 664.555 290.46 374.095 102.041 38.6798 185.117 120.622 64.4951 105.343 272.054 264.64 63.3611 26.7415 21.0055 21.3672 14.4291 106.192 17.1333 11.3734 16.4522 259.236 220.141
internal_count=6428 1224 5204 110 4947 4606 341 257 4439 1968 2471 843 218 1311 868 443 657 1628 1581 625 205 167 139 90 778 114 75 96 1531 1277
shrinkage=0.1


Tree=27
num_leaves=31
num_cat=0
split_feature=0 27 2 89 89 26 0 17 26 45 16 0 25 63 62 1 48 49 49 27 25 17 8 13 8 89 0 53 25 68
split_gain=33.5151 11.8327 10.9911 7.97826 6.922 8.75606 8.51073 6.75638 6.60733 6.72514 23.0877 18.8117 14.7191 23.3422 14.694 13.8736 14.5541 11.4838 11.0333 11.0875 11.15 10.3059 10.8986 10.3631 9.90614 11.6699 12.228 9.89524 9.69009 10.2326
threshold=1.9232500000000002e-06 5.799400000000001e-07 5.9390000000000004e-07 2.2721500000000003 2.2676500000000002 2.4384500000000005 2.2716500000000005e-06 2.2720500000000006 2.4369500000000004 1.0704000000000001e-07 1.4519000000000001e-12 1.4450000000000001e-06 5.0687000000000014e-13 1.1428000000000001e-07 2.5645500000000001 2.0728500000000004e-06 1.1490500000000002e-07 8.2496500000000013e-08 7.5762000000000014e-08 3.2158500000000008e-07 7.6818500000000002e-13 2.2758500000000006 2.0418500000000006 4.3832500000000006e-07 2.0460500000000006 2.2640500000000006 1.3252000000000002e-06 2.5583500000000003 6.1636500000000017e-13 5.445250000000002e-07
decision_type=2 2 2 2 2 2 2 2 2 2 2 2 2 2 2 2 2 2 2 2 2 2 2 2 2 2 2 2 2 2
left_child=2 -2 -1 7 5 -3 -7 -4 -9 11 14 12 13 -10 21 -14 -17 -15 -12 28 27 22 23 -11 25 -22 -27 -21 -20 -30
right_child=1 4 3 -5 -6 6 -8 8 9 10 18 -13 15 17 -16 16 -18 -19 19 20 24 -23 -24 -25 -26 26 -28 -29 29 -31
leaf_value=-0.095126445962553929 -0.10512403195241381 -0.1430155228792257 -0.091604448462468346 -0.092467651563991157 -0.18394928574236846 0.10323776937866967 -0.10538643302092865 -0.096754085978472057 0.049085634211120784 -0.080414728063656668 -0.085768589228744002 -0.1215193591288356 0.076971471568856253 -0.057812718617112395 0.12573916569387458 -0.15040467088456713 0.033749110693348149 0.080471286172835776 -0.044593408656745118 -0.018122286917776297 0.025523207157743661 -0.098013531380971838 -0.095295910675987847 0.058696525138339332 0.059770001112100984 -0.17636494553375009 -0.011759705951415757 -0.15668035261755939 0.073141168048094105 -0.10778012308404766
leaf_weight=10.707859909161924 39.087653487920761 2.6597159765660789 6.7358724214136592 7.9826204366981974 1.8727917782962311 9.0629477426409704 2.4933759272098532 5.8551977537572375 58.942043364048004 7.7116425633430508 10.99653536826372 8.5458435490727407 79.92047081887722 49.363767746835947 4.6368651092052451 5.6422020494937923 17.929385859519243 6.8371932320296755 9.3962472192943078 19.673885773867372 131.18252349644899 34.017746228724718 13.439253423362969 17.524114895612001 39.341288488358259 4.7236513495445243 101.21471298858523 6.9838746339082709 62.003901660442352 3.2921088635921469
leaf_count=182 1064 34 51 120 23 51 52 47 536 58 64 51 612 329 30 35 113 48 55 122 897 174 80 90 265 22 744 40 419 20
