tree
version=v3
num_class=1
num_tree_per_iteration=1
label_index=0
max_feature_idx=47
objective=binary sigmoid:1
feature_names=Column_0 Column_1 Column_2 Column_3 Column_4 Column_5 Column_6 Column_7 Column_8 Column_9 Column_10 Column_11 Column_12 Column_13 Column_14 Column_15 Column_16 Column_17 Column_18 Column_19 Column_20 Column_21 Column_22 Column_23 Column_24 Column_25 Column_26 Column_27 Column_28 Column_29 Column_30 Column_31 Column_32 Column_33 Column_34 Column_35 Column_36 Column_37 Column_38 Column_39 Column_40 Column_41 Column_42 Column_43 Column_44 Column_45 Column_46 Column_47
feature_infos=[1.5766:50.338000000000001] [1.3447000000000001e-18:6.6860000000000004e-07] [2.0106000000000001e-08:1.2263e-06] [2.7409999999999999e-08:1.1048e-06] [4.0211000000000002e-08:1.6398e-06] [2.4190999999999998:2.4432] [1.5606:57.238] [7.1746000000000001e-19:4.4239999999999999e-07] [1.2533e-08:7.4119000000000003e-07] [2.0721999999999999e-08:7.9477000000000002e-07] [2.5063000000000001e-08:9.7026000000000001e-07] [2.5308999999999999:2.5434000000000001] [1.6061000000000001:43.872999999999998] [2.7238999999999998e-18:1.1310000000000001e-06] [3.9745000000000003e-08:2.4559000000000001e-06] [4.1577999999999997e-08:1.708e-06] [7.9488000000000003e-08:3.2808e-06] [2.2443:2.2797999999999998] [1.6740999999999999:41.170000000000002] [7.4470000000000005e-18:2.7632999999999999e-06] [8.0298999999999997e-08:5.7718000000000004e-06] [5.9669000000000003e-08:2.7792e-06] [1.606e-07:7.5809999999999999e-06] [2.0030999999999999:2.0531999999999999] [1.5589999999999999:56.915999999999997] [5.8552999999999998e-19:3.4469e-07] [8.3347000000000002e-09:4.7324000000000002e-07] [1.6178000000000001e-08:6.1157000000000002e-07] [1.6668999999999999e-08:6.2559000000000003e-07] [2.4538000000000002:2.585] [1.5602:40.357999999999997] [3.7501000000000001e-19:2.6884999999999998e-07] [5.3869999999999997e-09:3.8305999999999999e-07] [1.3283000000000001e-08:6.2063000000000002e-07] [1.0773999999999999e-08:5.0284000000000002e-07] [2.4203999999999999:2.48] [1.5528:43.835000000000001] [4.2579e-19:2.9844999999999998e-07] [6.7675e-09:4.4397000000000002e-07] [1.4973000000000001e-08:6.4667999999999996e-07] [1.3535e-08:5.8330999999999995e-07] [2.5156000000000001:2.5790999999999999] [1.54:31.491] [2.8473999999999999e-19:1.7599e-07] [2.6110000000000002e-09:2.0354999999999999e-07] [8.1714999999999998e-09:4.2199999999999999e-07] [5.2218999999999999e-09:2.6907000000000001e-07] [2.5489000000000002:2.5611000000000002]
tree_sizes=1749 1683 2646 2524 3386 3393 3380 3383 3376 3365 3370 3391 3396 3379 3383 3397 3387 3388 3375 3374 3395 3373 3395 3380 3390 3394 3384 3405 3407 3420 3404 3421 3410 3427 3418 3413 3411 3425 3428 3426 3418 3427 3430 3426 3411 3424 3432 3444 3440 3412 3442 3461 3458 3423 3455 3460 3444 3459 3450 3473 3473 3474 3475 3478 3476 3495 3477 3483 3485 3484 3478 3506 3494 3491 3499 3493 3486 3509 3522 3530 3521 3526 3515 3529 3518 3535 3552 3541 3567 3542 3547 3551 3556 3539 3557 3548 3564 3551 3546 3573

Tree=0
num_leaves=16
num_cat=0
split_feature=30 21 12 36 44 2 0 47 23 1 40 44 0 0 0
split_gain=10013.8 295.869 560.376 176.728 169.59 28.5806 4.62857 3.17553 3.03333 0.459575 0.197699 0.173142 9.09495e-13 9.09495e-13 1.42109e-14
threshold=1.8731500000000001 1.2890000000000003e-06 4.5223000000000004 1.9923500000000003 1.6162500000000002e-07 5.4355500000000011e-07 2.7613000000000008 2.5548500000000005 2.0248500000000003 5.1515500000000009e-07 2.8540500000000003e-07 1.4666500000000002e-07 3.1508500000000006 7.8974500000000001 3.3400500000000002
decision_type=2 2 2 2 2 2 2 2 2 2 2 2 2 2 2
left_child=3 2 -2 12 5 -3 -5 -7 -4 -6 -9 13 -1 -12 -14
right_child=1 4 8 6 9 7 -8 10 -10 -11 11 -13 14 -15 -16
leaf_value=-0.20111186550265034 -0.20111186550265034 -0.04111181305054417 0.19888826562761508 0.19888826562761508 -0.16111185238962383 0.118888239401562 0.078888226288535465 0.17888825907110181 0.118888239401562 -0.20111186550265031 0.19888826562761508 0.18149695557847312 -0.20111186550265028 0.19888826562761508 -0.20111186550265034
leaf_weight=1320.7495276629925 56.999979615211487 4.9999982118606559 90.999967455863953 8.9999967813491804 4.999998211860655 4.9999982118606559 4.9999982118606559 4.9999982118606559 4.9999982118606559 6.7499975860118866 1285.2495403587818 5.7499979436397544 12.999995350837709 6.24999776482582 8.4999969601631147
leaf_count=5283 228 20 364 36 20 20 20 20 20 27 5141 23 52 25 34
internal_value=0 1.80151 0.484896 -1.9619 1.95365 1.98752 1.57266 1.99665 1.95957 -1.82855 1.9997 2.00047 -1.99877 2.00124 -1.99877
internal_weight=0 1477 153 1356.25 1324 1312.25 14 1307.25 96 11.75 1302.25 1297.25 1342.25 1291.5 21.5
internal_count=11333 5908 612 5425 5296 5249 56 5229 384 47 5209 5189 5369 5166 86
shrinkage=1


Tree=1
num_leaves=15
num_cat=0
split_feature=30 21 12 36 25 2 18 5 47 44 21 23 19 39
split_gain=8198.12 242.207 458.688 144.753 139.741 23.5127 4.40978 2.7247 2.65843 0.97384 0.190121 0.00552884 0.00189316 0.00122268
threshold=1.8731500000000001 1.2890000000000003e-06 4.5223000000000004 1.9923500000000003 2.5568000000000008e-07 5.4355500000000011e-07 3.9670500000000004 2.4346500000000004 2.5548500000000005 1.4666500000000002e-07 1.3073500000000001e-06 2.0240500000000003 2.1042000000000005e-06 3.1710000000000005e-07
decision_type=2 2 2 2 2 2 2 2 2 2 2 2 2 2
left_child=3 2 -2 -1 5 -3 -5 11 -7 10 -10 -4 -6 -12
right_child=1 4 7 6 12 8 -8 -9 9 -11 13 -13 -14 -15
leaf_value=-0.18178210107828965 -0.18178210107828965 -0.035904568175951418 0.18196413857799648 0.069822817014892388 -0.18445409528167767 0.10850768129887714 0.18616509327826669 0.10781455458496664 0.16280824940708583 0.14365850316016934 0.18353729331554616 0.18490041587931014 -0.18178210107828963 0.18196413857799648
leaf_weight=1328.7687896192074 56.427506804466248 4.9978879094123831 82.92721688747406 5.2108275890350333 4.9641112089157087 4.9823734164237967 8.6929826736450178 5.2110204696655265 5.1988891810178748 6.6964446604251853 4.9597445875406256 6.9501269459724417 5.6922484934329987 1273.6135250329971
leaf_count=5369 228 20 335 21 20 20 35 21 21 27 20 28 23 5145
internal_value=0 1.63789 0.440823 -1.78423 1.77622 1.80578 1.42563 1.78115 1.81413 1.81694 1.81893 1.82191 -1.83027 1.8197
internal_weight=0 1462.62 151.516 1342.67 1311.11 1300.45 13.9038 95.0884 1295.45 1290.47 1283.77 89.8773 10.6564 1278.57
internal_count=11333 5908 612 5425 5296 5253 56 384 5233 5213 5186 363 43 5165
shrinkage=0.1


Tree=2
num_leaves=24
num_cat=0
split_feature=30 28 12 25 18 22 42 5 44 47 22 44 36 23 19 33 4 4 0 0 0 0 0
split_gain=6833.56 202.296 398.056 124.768 122.528 7.61118 2.60636 2.45156 0.840245 0.844873 0.203249 0.0736759 0.0690897 0.00315848 0.000929227 0.000230681 0.000162669 7.3702e-06 4.54747e-13 4.54747e-13 2.84217e-14 2.84217e-14 1.42109e-14
threshold=1.8731500000000001 3.4384000000000009e-07 4.5223000000000004 2.5568000000000008e-07 3.8968500000000001 3.5240000000000005e-06 1.6806500000000002 2.4346500000000004 1.4666500000000002e-07 2.5549500000000003 3.4683000000000003e-06 7.7529000000000019e-08 1.9127500000000002 2.0240500000000003 2.0840500000000004e-06 2.9558000000000006e-07 7.3075500000000009e-07 4.8373500000000014e-07 2.9570500000000002 7.8974500000000001 3.5625500000000003 3.3124500000000006 3.1207500000000006
decision_type=2 2 2 2 2 2 2 2 2 2 2 2 2 2 2 2 2 2 2 2 2 2 2
left_child=4 2 10 5 12 -3 -6 11 9 -7 20 13 18 17 -5 -11 -17 -4 -1 -18 -2 22 -20
right_child=1 3 7 14 6 8 -8 -9 -10 15 -12 -13 -14 -15 -16 16 19 -19 21 -21 -22 -23 -24
leaf_value=-0.16818852326111794 -0.16818852326111794 0.045407349739055157 0.16832786790835388 -0.1701188687893018 0.16247729455894155 0.13429669202485003 0.071770316894434458 0.098256223653495955 0.13300719162666899 0.16902249133766289 -0.18945121698970444 0.18112431224479905 -0.17985066348177836 0.17074737692134798 -0.16827493493358936 0.16889536581216533 0.16832786790835388 0.1684553296147891 -0.16818852326111794 0.16832786790835388 -0.16818852326111794 -0.16818852326111794 -0.16818852326111794
leaf_weight=1235.8958446830511 42.425915479660034 5.0896935909986487 75.961998626589775 4.8452759236097318 8.9845185130834562 7.3361156880855551 4.8929073661565772 5.1492747068405142 6.8473768532276145 4.831907406449317 4.9315320402383795 4.8815423250198355 5.1000158786773673 5.8207172453403464 6.2688466161489487 5.0717770010232917 1226.7259905189276 4.8246194720268241 32.060492947697639 5.7875808477401725 8.4369718283414823 8.4369718283414823 12.534929573535917
leaf_count=5127 176 21 315 20 37 30 20 21 28 20 20 20 21 24 26 21 5087 20 133 24 35 35 52
internal_value=0 1.51471 0.426051 1.64509 -1.65065 1.67447 1.30496 1.65393 1.67942 1.68133 -1.70068 1.69171 -1.68234 1.68498 -1.69079 1.68333 1.6833 1.68335 -1.68189 1.68328 -1.68189 -1.68189 -1.68189
internal_weight=0 1425.24 152.433 1272.8 1307.91 1261.69 13.8774 96.6382 1256.6 1249.75 55.7944 91.4889 1294.03 86.6073 11.1141 1242.42 1237.59 80.7866 1288.93 1232.51 50.8629 53.0324 44.5954
internal_count=11333 5908 631 5277 5425 5231 57 400 5210 5182 231 379 5368 359 46 5152 5132 335 5347 5111 211 220 185
shrinkage=0.1


Tree=3
num_leaves=23
num_cat=0
split_feature=30 21 12 36 44 28 6 23 47 47 44 21 5 39 18 33 36 23 16 3 22 0
split_gain=5773.3 171.798 323.931 104.032 99.2639 17.1094 3.5924 2.57288 0.769582 0.454713 0.0898661 0.0442648 0.0149028 0.0134938 0.012691 0.000138654 0.000115618 4.53735e-05 3.81393e-05 2.72161e-06 1.78694e-07 4.54747e-13
threshold=1.8731500000000001 1.2890000000000003e-06 4.5223000000000004 1.9923500000000003 1.6162500000000002e-07 3.4384000000000009e-07 2.5479500000000006 2.0248500000000003 2.5549500000000003 2.5571500000000005 1.4666500000000002e-07 1.3073500000000001e-06 2.4340500000000005 3.1027000000000009e-07 3.7609500000000007 2.9558000000000006e-07 1.8995500000000003 2.0237500000000002 1.27025e-06 3.2344500000000007e-07 3.5536500000000007e-06 7.8974500000000001
decision_type=2 2 2 2 2 2 2 2 2 2 2 2 2 2 2 2 2 2 2 2 2 2
left_child=3 2 13 14 5 -3 -5 12 -7 -6 11 -10 17 18 16 -13 -1 19 -2 -4 -17 -22
right_child=1 4 7 6 9 8 -8 -9 10 -11 -12 15 -14 -15 -16 20 -18 -19 -20 -21 21 -23
leaf_value=-0.15763256907504952 -0.15763256907504952 0.0036088758743281187 0.15774230213961932 0.16480906888960015 -0.12149872637570376 0.12539496034424663 0.058699098747673761 0.082674612203182452 0.16695746470264239 -0.16260742129516884 0.14492441431858166 0.15828919697480223 0.16335880102939171 -0.1632028289112665 -0.16282936743686369 0.15772264093648133 -0.15713180155262219 0.15742224070719182 -0.15733076779291555 0.15766321611108144 0.15774230213961932 0.15774230213961932
leaf_weight=1236.0093783736229 43.604759454727173 7.2650965154170981 70.081706076860428 8.085288077592848 4.6881837248802167 7.4074799567461005 5.2703861594200125 4.7847932875156394 5.2377935349941245 6.3153625130653381 5.4585013389587393 4.652653068304061 4.976784721016883 4.7256904244422904 4.7136497646570197 4.6407491564750663 4.627806916832923 4.8659024089574805 4.6320749074220648 4.6394399106502524 1178.6257786899805 5.5694071054458609
leaf_count=5329 188 30 302 34 20 31 22 20 22 27 23 20 21 20 20 20 20 21 20 20 5079 24
internal_value=0 1.41875 0.378562 -1.54673 1.53912 1.56611 1.22936 1.54014 1.57529 -1.45093 1.57726 1.57785 1.5805 -1.58103 -1.5765 1.57744 -1.57631 1.57718 -1.57604 1.57737 1.57742 1.57742
internal_weight=0 1372.17 142.311 1258.71 1229.86 1218.86 13.3557 89.3486 1211.59 11.0035 1204.18 1198.73 84.5638 52.9625 1245.35 1193.49 1240.64 79.587 48.2368 74.7211 1188.84 1184.2
internal_count=11333 5908 612 5425 5296 5249 56 384 5219 47 5188 5165 364 228 5369 5143 5349 343 208 322 5123 5103
shrinkage=0.1


Tree=4
num_leaves=31
num_cat=0
split_feature=30 28 12 43 18 22 5 0 47 44 22 15 36 23 47 33 4 18 5 33 15 36 2 23 9 32 2 0 0 0
split_gain=4929.02 146.965 289.419 91.0017 90.2738 5.85977 2.36348 2.32841 0.764057 0.757265 0.233624 0.125003 0.0880655 0.00633384 0.00137963 8.53409e-05 1.56817e-05 1.20909e-05 4.40008e-06 3.94676e-06 4.07416e-07 1.52181e-08 1.39767e-08 2.81258e-09 5.32054e-11 4.02451e-11 5.74119e-12 4.54747e-13 4.54747e-13 1.42109e-14
threshold=1.8731500000000001 3.4384000000000009e-07 4.5223000000000004 1.1522500000000001e-07 3.8968500000000001 3.5240000000000005e-06 2.4346500000000004 2.7613000000000008 2.5549500000000003 1.4666500000000002e-07 3.4683000000000003e-06 6.8957500000000009e-07 1.9127500000000002 2.0240500000000003 2.5571500000000005 2.9558000000000006e-07 7.3075500000000009e-07 3.6847500000000006 2.4336500000000005 2.8859000000000007e-07 5.5917500000000014e-07 1.8801500000000002 4.6196500000000002e-07 2.0225500000000003 3.7922000000000008e-07 9.5630000000000003e-08 3.0068500000000005e-07 3.3623000000000007 7.3356500000000011 7.8974500000000001
decision_type=2 2 2 2 2 2 2 2 2 2 2 2 2 2 2 2 2 2 2 2 2 2 2 2 2 2 2 2 2 2
left_child=4 2 10 5 12 -3 11 -6 -7 15 19 13 17 18 -5 -10 -17 21 20 22 23 27 -2 25 -18 26 29 -1 -26 -4
right_child=1 3 6 14 7 8 -8 -9 9 -11 -12 -13 -14 -15 -16 16 24 -19 -20 -21 -22 -23 -24 -25 28 -27 -28 -29 -30 -31
leaf_value=-0.14922763891973731 -0.14922763891973731 0.039316913642290757 0.14931595542616663 -0.15192479421838523 0.14571857777901343 0.1164301247431089 0.079202608985235887 0.057938276323072108 0.14975613119715819 0.1144341712598705 -0.1724677582514762 0.1663520122197619 -0.16283809893259016 0.15260981630462855 -0.14959821022730183 0.14949995744862699 0.14931626623314095 -0.14906188591907618 0.14921563892761711 -0.14913305601371138 0.14928549217583006 -0.14923324429475063 -0.14923358474618281 0.14931842707197276 0.14931595542616663 0.14931619951310987 0.14931583629852482 -0.14922763891973731 0.14931595542616663 0.14931595542616663
leaf_weight=1168.0817899107933 37.359163984656334 4.8982829302549353 36.718344837427139 4.7205817401409131 8.4318846613168699 7.1912700086832038 4.9202461987733832 4.7096109539270392 4.4370140731334677 6.2570150196552268 4.7635063081979743 4.7005470544099799 4.7727879136800757 6.30871358513832 5.5397997349500656 4.6509033143520346 5.5298830121755591 4.4161090999841681 4.8629039824008933 4.8601214736700049 4.6441019773483267 4.8635113984346381 4.4213843941688529 5.0875680297613135 1112.3888926953077 7.0782470107078543 4.4238933324813834 4.6422629803419104 12.608106359839438 10.39615787565708
leaf_count=5284 169 21 166 21 37 31 21 20 20 27 20 20 21 28 25 21 25 20 22 22 21 22 20 23 5029 32 20 21 57 47
internal_value=0 1.3421 0.37598 1.45833 -1.46395 1.4846 1.46571 1.1426 1.48924 1.49128 -1.51373 1.50506 -1.49282 1.4957 -1.50669 1.49318 1.49317 -1.49227 1.49308 -1.49218 1.49314 -1.49228 -1.49228 1.49316 1.49316 1.49316 1.49316 -1.49228 1.49316 1.49316
internal_weight=0 1308.77 140.545 1168.22 1199.92 1157.96 89.1407 13.1415 1153.06 1145.87 51.4042 84.2205 1186.78 79.5199 10.2604 1139.61 1135.18 1182 73.2112 46.6407 68.3483 1177.59 41.7805 63.7042 1130.53 58.6166 51.5384 1172.72 1125 47.1145
internal_count=11333 5908 631 5277 5425 5231 400 57 5210 5179 231 379 5368 359 46 5152 5132 5347 331 211 309 5327 189 288 5111 265 233 5305 5086 213
shrinkage=0.1


Tree=5
num_leaves=31
num_cat=0
split_feature=30 21 18 36 44 28 18 5 47 47 6 44 9 18 39 23 36 33 19 14 22 5 18 23 44 33 36 47 3 9
split_gain=4243.38 127.439 240.729 78.2411 73.5652 13.5933 3.23607 2.10444 0.791398 0.44157 0.140949 0.0913438 0.0531877 0.0299377 0.0287079 0.00408636 0.000245712 5.42092e-05 4.64067e-05 1.42632e-05 5.71341e-06 2.3119e-06 2.40152e-09 1.75288e-09 1.19014e-09 7.76481e-11 1.45519e-11 8.37019e-12 1.4424e-12 1.08002e-12
threshold=1.8731500000000001 1.2890000000000003e-06 4.0970000000000004 1.9923500000000003 1.6162500000000002e-07 3.4384000000000009e-07 3.9670500000000004 2.4343500000000007 2.5549500000000003 2.5571500000000005 3.0377000000000005 1.4666500000000002e-07 3.7700000000000005e-07 3.7609500000000007 3.1027000000000009e-07 2.0240500000000003 1.8995500000000003 2.9558000000000006e-07 1.5494500000000003e-06 8.2205000000000014e-07 3.5536500000000007e-06 2.4336500000000005 3.5735500000000004 2.0225500000000003 9.863300000000002e-08 1.6209500000000002e-07 1.8730500000000003 2.5566500000000008 3.7864000000000006e-07 1.7577500000000002e-07
decision_type=2 2 2 2 2 2 2 2 2 2 2 2 2 2 2 2 2 2 2 2 2 2 2 2 2 2 2 2 2 2
left_child=3 2 10 13 5 -3 -5 15 -7 -6 14 12 -10 16 18 19 22 -14 24 21 -19 23 26 25 28 27 -1 -4 -2 -29
right_child=1 4 7 6 9 8 -8 -9 11 -11 -12 -13 17 -15 -16 -17 -18 20 -20 -21 -22 -23 -24 -25 -26 -27 -28 29 -30 -31
leaf_value=-0.14240336233023429 -0.14240336233023429 0.0028376847721777775 0.14247554219670963 0.04490488589049707 -0.10601016081269472 0.10861029680093853 0.14924795145358979 0.077866502609221552 0.15316337967544802 -0.14829775953291319 -0.16229951363054276 0.12906861055972096 0.14283618420799551 -0.15069912419802034 -0.15088882357604977 0.14518205119474323 -0.14163252923127759 0.14258483200531313 -0.14205039862172975 0.14228027607972751 0.14247568556878851 0.14240075547862274 -0.14240570439770286 0.14247770159443843 -0.14240515243299209 0.14247609772290334 -0.14240318853118469 0.14247568498629107 -0.14240329893721712 0.1424757383654574
leaf_weight=1104.8990088105202 26.346948355436329 7.0394162684679022 4.1849307715892783 4.8492606580257398 4.3328201621770841 6.9507080018520346 7.6790505200624466 5.3648648858070365 4.678216263651847 5.7412979006767273 4.2582925856113425 5.0690856575965872 4.1990018486976615 4.364134967327117 4.3990471065044394 5.9849464297294608 4.1505987197160712 4.8176135122776023 4.1672343313693991 4.1769818216562262 1067.3679990470409 4.3910339325666419 4.3912562131881705 4.8127693384885779 4.1821268051862708 4.8126960247755042 5.0184582471847525 43.314090579748154 4.1820527613162986 4.1849388778209677
leaf_count=5284 126 30 20 21 20 31 35 24 21 27 20 23 20 20 20 28 20 23 20 20 5101 21 21 23 20 23 24 207 20 20
internal_value=0 1.27968 0.337948 -1.3966 1.3889 1.41354 1.0886 1.38394 1.42246 -1.3011 -1.4494 1.42461 1.42524 -1.42433 -1.43232 1.42674 -1.42401 1.42478 -1.42366 1.42459 1.42476 1.42471 -1.42403 1.42476 -1.42404 1.42476 -1.42403 1.42476 -1.42403 1.42476
internal_weight=0 1238.96 128.763 1135.35 1110.2 1100.12 12.5283 81.2273 1093.08 10.0741 47.5357 1086.13 1081.06 1122.82 43.2774 75.8624 1118.46 1076.38 38.8784 69.8774 1072.19 65.7005 1114.31 61.3094 34.7111 56.4967 1109.92 51.684 30.529 47.499
internal_count=11333 5908 612 5425 5296 5249 56 386 5219 47 226 5188 5165 5369 206 362 5349 5144 186 334 5124 314 5329 293 166 270 5308 247 146 227
shrinkage=0.1


Tree=6
num_leaves=31
num_cat=0
split_feature=30 28 12 18 43 22 5 0 47 44 22 2 36 23 47 18 0 18 32 38 40 20 24 0 5 6 9 36 19 3
split_gain=3677.77 110.902 218.258 68.9736 68.4942 4.93957 2.08109 2.07667 0.814032 0.706683 0.224204 0.143491 0.0974265 0.00281259 0.00212915 0.00194705 6.14452e-05 3.83909e-05 3.53113e-05 4.39651e-06 3.39569e-06 4.77351e-06 2.77092e-06 2.26339e-06 4.8997e-07 4.71044e-07 1.17453e-07 4.68917e-08 2.18112e-08 8.87644e-09
threshold=1.8731500000000001 3.4384000000000009e-07 4.5223000000000004 3.8968500000000001 1.1522500000000001e-07 3.5240000000000005e-06 2.4346500000000004 2.7613000000000008 2.5549500000000003 1.4666500000000002e-07 3.4683000000000003e-06 4.7102500000000002e-07 1.9127500000000002 2.0240500000000003 2.5571500000000005 3.6436000000000006 3.6415000000000002 3.6847500000000006 1.7939000000000005e-07 2.0289500000000002e-07 2.9529000000000005e-07 2.6478000000000007e-06 2.7941000000000007 4.6775000000000011 2.4332500000000006 2.7823500000000005 3.8177000000000006e-07 1.8801500000000002 1.22505e-06 3.1046000000000004e-07
decision_type=2 2 2 2 2 2 2 2 2 2 2 2 2 2 2 2 2 2 2 2 2 2 2 2 2 2 2 2 2 2
left_child=3 2 10 12 5 -3 11 -5 -7 18 15 13 17 22 -6 16 19 27 -10 25 -20 -22 -4 -24 29 28 -23 -1 -2 -25
right_child=1 4 6 7 14 8 -8 -9 9 -11 -12 -13 -14 -15 -16 -17 -18 -19 20 -21 21 26 23 24 -26 -27 -28 -29 -30 -31
leaf_value=-0.13677522146391818 -0.13677521294546843 0.033402340294077668 0.13675233293997327 0.13359774341691585 -0.13987328653457276 0.1016575764870956 0.069817905466285357 0.048039531061663539 0.13712759477281186 0.101922077377215 -0.16040247689493006 0.15551650949474305 -0.15175977436252597 0.13919927584798092 -0.13682205451752882 -0.13903111938840479 -0.13633951492583093 -0.1364615699943223 0.13676191534082768 -0.13665892046612027 0.13694547800388157 0.13682035813218119 0.13690130726549571 0.13683532870634724 0.13680070167447486 -0.13673927900581015 0.13683526938803112 -0.13678565512865881 -0.1367833040959365 0.13683996512417873
leaf_weight=1042.8594675064087 21.820431649684913 4.6766931712627402 3.9303686171770087 7.7296018004417402 4.2758401185274106 6.6968140155076972 4.7433587461709967 4.4817960858345032 4.1461753994226447 5.830549329519271 4.5150881558656684 4.4562889188528052 4.3563283532857886 5.4453051537275305 4.9166018813848495 4.0172519683837882 3.9097267240285865 3.9159305542707434 6.2894695401191703 3.9257688820362082 3.9399542659521094 5.3106702715158454 5.315687581896781 47.214921236038208 4.3261447548866263 3.9297931790351859 993.87331429123878 4.3253374099731436 3.9320092052221289 4.5250267982482901
leaf_count=5305 111 21 20 37 21 31 21 20 21 27 20 20 21 27 25 20 20 20 32 20 20 27 27 240 22 20 5052 22 20 23
internal_value=0 1.22782 0.341814 -1.34102 1.33517 1.35941 1.3406 1.02196 1.36408 1.36637 -1.39239 1.38112 -1.36836 1.37016 -1.38241 -1.36939 -1.36715 -1.36774 1.36836 -1.36758 1.36835 1.36836 1.36834 1.36839 1.36833 -1.36772 1.36835 -1.36775 -1.36776 1.36836
internal_weight=0 1165.96 126.007 1067.67 1039.96 1030.76 79.9571 12.2114 1026.09 1019.39 46.0501 75.2137 1055.46 70.7575 9.19244 41.535 37.5177 1051.1 1013.56 33.608 1009.41 1003.12 65.3121 61.3818 56.0661 29.6822 999.184 1047.18 25.7524 51.7399
internal_count=11333 5908 631 5425 5277 5231 400 57 5210 5179 231 379 5368 359 46 211 191 5347 5152 171 5131 5099 332 312 285 151 5079 5327 131 263
shrinkage=0.1


Tree=7
num_leaves=31
num_cat=0
split_feature=30 32 18 36 25 6 5 19 22 18 18 1 24 44 9 47 18 28 5 47 23 22 33 36 6 39 22 23 31 18
split_gain=3205.44 97.53 211.073 60.669 60.1622 2.92056 2.60972 1.59532 0.684929 0.151748 0.114312 0.0895389 0.0836024 0.0698879 0.0525733 0.0500125 0.0436755 0.0186136 0.00399907 0.00181072 0.00109798 0.000446533 0.000885079 0.000295414 3.63282e-05 8.40068e-06 2.56892e-06 1.14003e-07 2.18025e-08 9.82777e-09
threshold=1.8731500000000001 1.9455500000000001e-07 4.072350000000001 1.9923500000000003 2.5568000000000008e-07 2.5479500000000006 2.4347500000000006 1.6060500000000003e-06 3.4683000000000003e-06 3.6254500000000003 2.9778000000000007 2.8381000000000005e-07 2.7941000000000007 1.4666500000000002e-07 3.7700000000000005e-07 2.5549500000000003 3.7609500000000007 3.2029000000000002e-07 2.4337500000000003 2.5571500000000005 2.0240500000000003 3.8605000000000006e-06 2.9282500000000008e-07 1.8995500000000003 2.9060500000000005 1.6659000000000004e-07 3.5536500000000007e-06 2.0285500000000005 1.1842500000000002e-07 3.5735500000000004
decision_type=2 2 2 2 2 2 2 2 2 2 2 2 2 2 2 2 2 2 2 2 2 2 2 2 2 2 2 2 2 2
left_child=3 2 8 16 7 -5 11 -3 9 17 -9 12 -4 14 -12 -16 23 24 20 -6 21 25 -23 29 27 -14 -17 -2 -29 -1
right_child=1 4 6 5 19 -7 -8 10 -10 -11 13 -13 18 -15 15 26 -18 -19 -20 -21 -22 22 -24 -25 -26 -27 -28 28 -30 -31
leaf_value=-0.13207409545385448 -0.13205722371971274 0.083746129036398928 0.11711109536463547 0.13999411425756689 -0.1350187724878037 0.037842626696887344 0.052432981347276447 0.11516273945419808 -0.17514252669587824 -0.15375104923358335 0.14326112759381865 0.14680449297503825 0.13212483309278725 0.14416126025290973 0.14161504717947404 0.13220259612385107 -0.14258023281185059 -0.13933541212001962 0.13551252411636372 -0.13211396176155996 0.13378011554064681 0.1340513163023955 0.1321220138103017 -0.13116940659494711 -0.13173842509643707 0.13196826086332808 0.13212455844863366 -0.1320744599170332 -0.13208280733542196 -0.13207915017022753
leaf_weight=976.00061497092247 3.8602789789438274 6.8372856080532065 3.6988386064767829 6.8353903591632825 4.0231970697641355 4.7394677996635437 4.2771272361278525 3.9106165766715995 4.7145343422889701 3.8348278552293769 4.3026915937662116 4.1816014796495429 51.526428356766701 4.9375773072242728 5.5865764617919913 4.2377374321222296 3.970337748527526 3.9181674420833579 4.1968895941972724 4.5989696383476257 4.8909350782632819 3.7695505172014219 6.4405123442411423 3.6225634813308707 3.6573505550622931 3.6709046661853781 921.95092242956161 20.961702540516857 3.6779833287000647 3.8616565167903891
leaf_count=5308 21 36 20 34 21 22 20 21 22 20 21 20 280 24 27 23 20 20 22 25 26 20 35 20 20 20 5010 114 20 21
internal_value=0 1.18443 0.375982 -1.29445 1.29494 0.981669 1.28593 1.31876 -1.39096 -1.34838 1.32224 1.32548 1.31785 1.32295 1.32233 1.32182 -1.32113 -1.32828 1.32514 -1.33469 1.32335 1.32227 1.32834 -1.32071 -1.32035 1.32114 1.32125 -1.32073 -1.32076 -1.32074
internal_weight=0 1091.66 131.278 999.03 960.386 11.5749 86.6528 951.763 44.6248 39.9103 944.926 82.3757 78.1941 941.016 936.078 931.775 987.455 36.0755 74.4952 8.62217 70.2983 65.4074 10.2101 983.485 32.1573 55.1973 926.189 28.5 24.6397 979.862
internal_count=11333 5908 700 5425 5208 56 463 5162 237 215 5126 443 423 5105 5081 5060 5369 195 403 46 381 355 55 5349 175 300 5033 155 134 5329
shrinkage=0.1


Tree=8
num_leaves=31
num_cat=0
split_feature=30 32 12 18 25 23 42 19 22 18 36 44 25 5 21 47 40 12 47 22 38 23 18 18 6 8 30 47 5 18
split_gain=2806.99 85.9792 184.9 54.0737 52.6878 2.43881 1.93048 1.61429 0.549744 0.124014 0.10142 0.0482071 0.0385872 0.0395063 0.0358446 0.0332487 0.0115949 0.00486668 0.00121556 0.000239035 0.000611691 0.000107117 5.91201e-05 4.05209e-05 3.04867e-05 1.1398e-05 6.84556e-06 2.77138e-06 1.83128e-06 1.31484e-06
threshold=1.8731500000000001 1.9455500000000001e-07 4.5223000000000004 3.8968500000000001 2.5568000000000008e-07 2.0255500000000004 1.6806500000000002 1.6060500000000003e-06 3.4683000000000003e-06 2.9778000000000007 1.9127500000000002 1.4666500000000002e-07 1.2207500000000004e-07 2.4341500000000003 1.3073500000000001e-06 2.5549500000000003 2.7732500000000008e-07 4.0208500000000011 2.5571500000000005 3.8605000000000006e-06 2.2222500000000005e-07 2.0233500000000002 3.6847500000000006 3.4959500000000006 3.2953000000000006 3.4470000000000001e-07 2.3017500000000006 2.5589500000000007 2.4335500000000008 4.3995500000000005
decision_type=2 2 2 2 2 2 2 2 2 2 2 2 2 2 2 2 2 2 2 2 2 2 2 2 2 2 2 2 2 2
left_child=3 2 8 10 7 12 -5 -3 16 -9 22 14 13 19 -11 -16 17 23 -6 21 -21 24 -1 26 -4 -17 -2 28 29 -26
right_child=1 4 5 6 18 -7 -8 9 -10 11 -12 -13 -14 -15 15 25 -18 -19 -20 20 -22 -23 -24 -25 27 -27 -28 -29 -30 -31
leaf_value=-0.12810582383084912 -0.12810207659910855 0.078497344962845161 0.12844919035100785 0.12491939893367283 -0.13060437088026533 0.052708522236851067 0.039380775567769706 0.10994308047484763 -0.16520177213836107 0.1374189318808903 -0.14423156398459097 0.13845856137585921 0.13914572216759424 0.13834515933752958 0.13613165010814249 0.12796988584671093 -0.13437112306395144 -0.13193757959959435 -0.12813998688443867 0.12978949247393698 0.12813689754930171 0.12866962201480883 -0.12768781826121292 -0.12771631435241773 0.12821343668888094 0.12814852855661871 -0.12795052827300041 0.12805723424583557 0.12807976971311491 0.12814894026065271
leaf_weight=912.30754280090332 23.460989966988571 6.5787565708160392 3.4484548866748801 6.9883811324834806 3.7569553107023221 4.3888519108295432 4.2386846393346786 3.6977571398019782 4.7322527468204489 4.234542950987815 3.9161016643047324 4.6420549750328055 3.8348860442638388 4.1333487182855597 5.2478675097227088 3.5864775776863089 3.6710977703332892 3.5862419903278342 4.2836477011442184 3.5163763016462308 6.1692164242267609 4.4941750913858405 3.3961335718631736 3.3979469686746588 3.4325050115585318 858.92023254930973 3.414407640695571 3.5927562266588202 3.5945899486541739 39.938149198889732
leaf_count=5327 137 36 20 37 21 22 20 21 23 22 21 24 20 21 27 21 20 20 25 20 36 26 20 20 20 5011 20 21 21 233
internal_value=0 1.14772 0.363092 -1.2551 1.25539 1.25193 0.92625 1.27849 -1.33083 1.28218 -1.28173 1.28295 1.29371 1.28852 1.28241 1.28196 -1.29033 -1.28454 -1.29291 1.28277 1.28737 1.28201 -1.28104 -1.28042 1.28162 1.28148 -1.28083 1.28142 1.28148 1.28154
internal_weight=0 1017.75 122.806 930.847 894.948 80.5433 11.2271 886.908 42.2629 880.329 919.62 876.631 76.1545 72.3196 871.989 867.755 37.5307 33.8596 8.0406 68.1862 9.68559 58.5006 915.704 30.2733 54.0065 862.507 26.8754 50.558 46.9652 43.3707
internal_count=11333 5908 700 5425 5208 460 57 5162 240 5126 5368 5105 438 418 5081 5059 217 197 46 397 56 341 5347 177 315 5032 157 295 274 253
shrinkage=0.1


Tree=9
num_leaves=31
num_cat=0
split_feature=30 21 18 44 18 28 0 47 33 47 12 44 5 36 8 30 9 41 31 32 0 23 18 16 8 18 3 18 18 19
split_gain=2468.08 85.5883 147.263 51.7163 29.1227 8.67735 2.62367 0.973618 0.567918 0.267537 0.170066 0.16172 0.0551425 0.0496516 0.0493428 0.0344064 0.0251275 0.0016826 0.00135051 0.00164374 0.0013317 0.000883699 0.000253947 0.000180895 6.081e-05 4.00951e-05 1.69735e-05 1.73309e-05 1.63103e-05 5.76868e-06
threshold=1.8567500000000001 1.2890000000000003e-06 4.0970000000000004 1.6162500000000002e-07 3.9188000000000005 3.4384000000000009e-07 4.4704000000000006 2.5549500000000003 4.5955500000000009e-07 2.5564500000000003 4.0052500000000011 1.4666500000000002e-07 2.4342500000000005 1.9105500000000004 3.3718500000000009e-07 1.8731500000000001 3.7700000000000005e-07 2.5667500000000003 1.5458500000000003e-07 1.9455500000000001e-07 3.3836500000000007 2.0240500000000003 2.9778000000000007 1.27025e-06 4.5716500000000008e-07 3.6847500000000006 3.1943500000000003e-07 4.3776500000000009 3.4525500000000005 1.6772500000000001e-06
decision_type=2 2 2 2 2 2 2 2 2 2 2 2 2 2 2 2 2 2 2 2 2 2 2 2 2 2 2 2 2 2
left_child=4 2 10 5 13 -3 -4 -7 -5 -8 14 15 21 20 17 -9 -17 23 19 24 25 26 -20 28 -18 -1 27 -11 -2 -24
right_child=1 3 6 8 -6 7 9 11 -10 12 -12 -13 -14 -15 -16 16 18 -19 22 -21 -22 -23 29 -25 -26 -27 -28 -29 -30 -31
leaf_value=-0.12472636213478819 -0.12470927476683646 0.0047574877628231756 0.036613511789269679 -0.13489324739074857 0.09392592553857608 0.083663690707708932 0.096869613765868931 0.1344401880158079 -0.083183384351786294 0.12495365815580049 -0.14931867719653788 0.10482407567266555 0.13696461076457897 -0.13678295551494232 -0.13718742843027995 0.13294733699636346 0.12528274500884495 -0.12698101547130428 0.12564926682064045 0.12709351184515125 -0.1267540222280393 0.1264184566994718 0.1248976024627708 -0.12388851785457877 0.12474942579931221 -0.12436896168353546 0.12453758412620519 0.12475540257250228 -0.12446653155956118 0.12476288214976348
leaf_weight=840.49517713487148 22.401548981666572 6.0977709889411917 3.6395332664251319 5.7529143542051298 6.1323257386684409 5.8027988225221625 3.4022660404443732 3.7362851649522772 3.3669847100973129 4.954302266240119 3.4533078074455252 4.0459329336881629 4.0680097341537467 3.4332522302865973 3.5954371094703665 3.7886497527360907 3.2202741950750333 3.2772316932678214 3.2492640614509574 5.53259652853012 3.2472353577613822 3.4489603936672202 3.1911371350288382 3.2621109783649436 6.3612402230501175 3.1506928652524939 3.1635974049568167 40.082126617431641 3.1582624018192282 797.17716045677662
leaf_count=5288 141 30 21 34 33 31 21 20 20 31 20 23 21 20 20 21 20 20 20 33 20 21 20 21 40 20 20 252 20 5011
internal_value=0 1.10684 0.240766 1.21051 -1.23215 1.23616 1.1902 1.24483 -1.15802 1.24093 -1.28128 1.24768 1.25755 -1.24781 -1.26078 1.24866 1.24822 -1.24834 1.24785 1.25721 -1.24733 1.24872 1.24767 -1.2459 1.24929 -1.24725 1.24761 1.24777 -1.24679 1.24763
internal_weight=0 953.23 101.907 851.323 856.459 842.203 62.7588 836.105 9.1199 59.1193 39.1479 830.303 55.717 850.326 35.6946 826.257 822.52 32.0992 818.732 15.1141 846.893 51.649 803.618 28.8219 9.58151 843.646 48.2 45.0364 25.5598 800.368
internal_count=11333 5952 629 5323 5381 5269 387 5239 54 366 242 5208 345 5348 222 5185 5165 202 5144 93 5328 324 5051 182 60 5308 303 283 161 5031
shrinkage=0.1


Tree=10
num_leaves=31
num_cat=0
split_feature=30 21 12 44 18 2 23 47 33 44 21 36 8 30 18 5 38 47 41 19 32 0 5 18 47 16 9 12 18 18
split_gain=2176.73 75.7973 130.021 45.5912 25.7924 8.40412 2.62541 2.53995 0.564031 0.175458 0.07511 0.0368262 0.0306769 0.023555 0.0209645 0.014473 0.0104873 0.0020425 0.00122496 0.00103331 0.00128304 0.000977518 0.000268293 0.000174015 0.000121182 0.000115235 3.74975e-05 3.61461e-05 2.74884e-05 1.26161e-05
threshold=1.8567500000000001 1.2890000000000003e-06 4.5223000000000004 1.6162500000000002e-07 3.9188000000000005 5.4355500000000011e-07 2.0248500000000003 2.5548500000000005 4.5955500000000009e-07 1.4666500000000002e-07 1.3073500000000001e-06 1.9105500000000004 3.3718500000000009e-07 1.8731500000000001 3.7014500000000004 2.4340500000000005 2.1940000000000005e-07 2.5550500000000005 2.5667500000000003 1.6060500000000003e-06 1.9455500000000001e-07 3.3836500000000007 2.4335500000000008 2.9778000000000007 2.5564500000000003 1.27025e-06 2.0909500000000003e-07 3.7345500000000005 3.6847500000000006 4.3776500000000009
decision_type=2 2 2 2 2 2 2 2 2 2 2 2 2 2 2 2 2 2 2 2 2 2 2 2 2 2 2 2 2 2
left_child=4 2 12 5 11 -3 15 -7 -5 10 -9 21 14 -12 18 22 -15 -18 25 20 -19 28 24 -21 -4 27 29 -2 -1 -26
right_child=1 3 6 8 -6 7 -8 9 -10 -11 13 -13 -14 16 -16 -17 17 19 -20 23 -22 -23 -24 -25 26 -27 -28 -29 -30 -31
leaf_value=-0.12182690862499 -0.12181210345279109 -0.020352025923008839 0.12249870072801422 -0.13111865692221109 0.088510478011316104 0.039883235165541236 0.035969538664258636 0.10726150495355491 -0.078198061486077455 0.1003854528158411 0.13015384463615634 -0.13258247242856494 -0.13276098120314125 0.12697218563397503 -0.13030486265290861 0.12855170353818351 0.12412843285821094 0.12187051646926904 -0.12380768404415848 0.12262070394527214 0.1240552885196205 -0.12363175782146203 0.1227604370211666 0.12185867458290325 0.12202259215737817 -0.12110716685976686 0.12149486370449061 -0.12145782405659118 -0.12151921199869503 0.12184655930043731
leaf_weight=777.67351537942886 20.726764425635348 4.2064590454101554 2.9986179918050757 5.3475255072116834 5.8706095963716498 3.8056674003601065 3.7600271999835959 3.4958997070789328 3.230719193816185 3.814421981573104 3.4862581342458716 3.1998388916254035 3.3561025261878958 4.0789985656738272 3.2949980497360221 3.5528754740953437 4.0472941100597373 6.0368233323097211 3.037424460053443 3.0089053511619559 4.8455335050821304 3.0085755288600913 3.7711750715970984 739.24188189208508 4.5849376916885367 3.0159579813480368 2.9115849435329428 3.3445571511983863 2.9142568707466117 36.345506921410561
leaf_count=5288 141 20 20 34 33 20 20 21 20 23 20 20 20 25 20 21 26 41 20 20 31 20 25 5022 31 21 20 23 20 247
internal_value=0 1.07942 0.234087 1.18092 -1.20318 1.20614 1.16773 1.21378 -1.11188 1.2178 1.21886 -1.21876 -1.23647 1.21953 -1.22732 1.22382 1.21915 1.21888 -1.21903 1.21876 1.22843 -1.21833 1.21949 1.21862 1.21884 -1.2169 1.21842 -1.21763 -1.21826 1.21866
internal_weight=0 883.347 94.7005 788.646 792.667 780.068 57.9247 775.862 8.57824 772.056 768.242 786.796 36.7758 764.746 33.4197 54.1647 761.259 757.18 30.1247 753.133 10.8824 783.596 50.6118 742.251 46.8406 27.0873 43.842 24.0713 780.588 40.9304
internal_count=11333 5952 629 5323 5381 5269 384 5249 54 5229 5206 5348 245 5185 225 364 5165 5140 205 5114 72 5328 343 5042 318 185 298 164 5308 278
shrinkage=0.1


Tree=11
num_leaves=31
num_cat=0
split_feature=30 32 12 43 12 23 19 20 18 44 25 30 47 21 10 18 5 18 20 25 42 41 15 23 44 27 36 6 47 14
split_gain=1925.96 75.1771 141.392 49.4073 3.3134 2.44309 2.08214 0.619202 0.122632 0.0522976 0.0514916 0.0373274 0.0264815 0.0187493 0.0159406 0.0154688 0.0128313 0.0110482 0.00959197 0.00500662 0.0020116 0.000880276 0.000270144 0.000225875 0.000187018 0.000686672 0.000102743 5.40018e-05 6.04903e-05 3.73934e-05
threshold=1.8452000000000002 1.9455500000000001e-07 4.5223000000000004 1.1918000000000001e-07 3.9773500000000004 2.0255500000000004 1.6060500000000003e-06 2.6478000000000007e-06 2.9778000000000007 1.4666500000000002e-07 1.2207500000000004e-07 1.8731500000000001 2.5549500000000003 1.3073500000000001e-06 4.4017500000000004e-07 3.6610500000000004 2.4341500000000003 3.6847500000000006 3.4370500000000004e-06 2.2431500000000003e-07 1.7685500000000001 2.5667500000000003 9.7405500000000015e-07 2.0233500000000002 5.5532500000000004e-08 3.6628500000000005e-07 1.8914000000000002 3.3995500000000001 2.5565500000000005 9.3661500000000016e-07
decision_type=2 2 2 2 2 2 2 2 2 2 2 2 2 2 2 2 2 2 2 2 2 2 2 2 2 2 2 2 2 2
left_child=4 2 7 6 17 10 -3 14 -8 11 16 19 -13 -14 15 21 23 20 22 -10 26 29 -5 24 27 -26 -1 -4 -29 -2
right_child=1 3 5 18 -6 -7 8 -9 9 -11 -12 12 13 -15 -16 -17 -18 -19 -20 -21 -22 -23 -24 -25 25 -27 -28 28 -30 -31
leaf_value=-0.11932318037901653 -0.11926949649199721 0.05881154608140398 0.11974788811503803 -0.11918771911453425 -0.017813045126289027 0.040028106526820213 0.099331637186251071 -0.16304654004521224 0.12406481392612544 0.13107780610680006 0.13271462388872965 0.12709160414357967 0.12669466334341939 0.1193497980748278 -0.12755288201779494 -0.12686363659688835 0.12593402991830654 -0.12555549214821526 -0.12688473557030455 0.12960443863043886 -0.12201013050645991 -0.12109072437787555 -0.1205866151567911 0.12032800165956148 0.12120885797077517 0.11932830843841094 -0.11871470380651138 0.11983279721269238 0.11934637910408374 -0.11888290502495867
leaf_weight=713.0484477430582 23.433002755045898 5.7014419436454764 4.541286274790763 2.6988881528377515 3.2278483510017386 4.0070680081844321 3.0059080123901358 3.8456997275352469 3.059305176138877 3.9291107505559912 3.3367614895105353 4.4904155284166327 3.4932574331760398 683.55486276745796 3.1726617664098731 3.0780664086341849 3.3602964580059043 2.8631671518087378 3.0567708015441895 3.4957066625356674 2.7922115027904502 2.8093494325876227 2.8258679360151291 3.631025716662406 2.8465631753206235 6.1081942617893219 2.7858413755893698 2.7621212452650061 34.363511562347412 2.8010979592800131
leaf_count=5254 173 37 33 20 20 22 21 20 20 24 20 27 22 5032 21 20 21 20 20 20 20 20 20 26 20 45 21 20 253 21
internal_value=0 1.04626 0.251973 1.1612 -1.18904 1.15664 1.19 -1.24943 1.19487 1.19573 1.20637 1.19508 1.19437 1.19387 -1.20791 -1.20123 1.19938 -1.19356 -1.2239 1.27019 -1.19331 -1.19408 -1.19903 1.19566 1.19511 1.19926 -1.19321 1.19422 1.19383 -1.19228
internal_weight=0 823.408 104.097 719.312 724.718 64.9568 710.73 39.1399 705.029 702.023 60.9498 698.094 691.539 687.048 35.2942 32.1215 57.613 721.49 8.58153 6.55501 718.627 29.0435 5.52476 54.2527 50.6217 8.95476 715.834 41.6669 37.1256 26.2341
internal_count=11333 5998 735 5263 5335 460 5203 275 5166 5145 438 5121 5081 5054 255 234 418 5315 60 40 5295 214 40 397 371 65 5275 306 273 194
shrinkage=0.1


Tree=12
num_leaves=31
num_cat=0
split_feature=30 32 12 43 36 5 19 20 18 1 44 18 30 47 21 10 18 20 25 23 33 15 21 1 12 47 12 18 26 36
split_gain=1707.94 67.0172 124.896 43.8096 3.37984 2.47182 2.15028 0.459195 0.138063 0.0610952 0.0384834 0.0318256 0.0259477 0.0183751 0.0133161 0.0118126 0.0111158 0.0070177 0.00338894 0.00238531 0.000654963 0.000188401 0.000139533 0.000370925 7.19362e-05 5.40309e-05 3.28333e-05 2.39212e-05 1.2531e-05 8.33823e-06
threshold=1.8452000000000002 1.9455500000000001e-07 4.5223000000000004 1.1918000000000001e-07 1.9213500000000001 2.4346500000000004 1.6060500000000003e-06 2.6478000000000007e-06 2.9778000000000007 2.8381000000000005e-07 1.4666500000000002e-07 3.7383000000000002 1.8731500000000001 2.5549500000000003 1.3073500000000001e-06 4.4017500000000004e-07 3.6610500000000004 3.4370500000000004e-06 2.2431500000000003e-07 2.0240500000000003 2.9108000000000009e-07 9.7405500000000015e-07 1.6835000000000003e-06 2.5329000000000007e-07 4.7180500000000007 2.5564500000000003 3.7682000000000007 3.4594500000000004 2.2183500000000003e-07 1.8801500000000002
decision_type=2 2 2 2 2 2 2 2 2 2 2 2 2 2 2 2 2 2 2 2 2 2 2 2 2 2 2 2 2 2
left_child=4 2 7 6 11 9 -3 15 -8 19 12 26 18 -14 -15 16 20 21 -10 22 27 -5 24 -24 -4 -26 29 28 -2 -1
right_child=1 3 5 17 -6 -7 8 -9 10 -11 -12 -13 13 14 -16 -17 -18 -19 -20 -21 -22 -23 23 -25 25 -27 -28 -29 -30 -31
leaf_value=-0.117149580415185 -0.11712539767917381 0.054655200392262321 0.11767640757019041 -0.11703252584514395 -0.01650585596838405 0.036224114703742448 0.095236899722926385 -0.15596079842274974 0.12128418100866237 0.13131137211529215 0.12761324632421583 -0.12786703277028968 0.12387113985603178 0.12360442805544157 0.11717290131033309 -0.12450841588961258 -0.12379575455357975 -0.12386739662989432 0.12601860351774322 0.11994878096805056 -0.11873720777179458 -0.11824969650416656 0.11866281857521287 0.11714811119569456 0.11764435708396231 0.11716811203922083 -0.11750099188566017 -0.11676898081382525 -0.11688607499763076 -0.11697025872882326
leaf_weight=656.16657343506813 19.224254012107863 5.5307118594646445 3.4418119862675658 2.4847057834267607 3.350534386932849 3.9228865504264823 2.8308018743991843 3.6295320242643347 2.8283530026674262 3.4044281616806975 3.6467209905385962 2.7827463373541823 4.1632474958896628 3.2357580810785285 629.4039359241724 2.9373059868812552 2.8505956456065169 2.8297682702541351 3.2483691424131393 3.6709393113851538 2.5926700308918944 2.604872889816761 2.6098975241184226 4.2483075857162476 2.5497022718191138 36.265015088021755 2.6587817668914786 2.4576719701290122 2.4688223078846923 2.6033232584595671
leaf_count=5251 154 37 27 20 22 22 21 20 20 20 24 20 27 22 5032 21 20 20 20 27 20 20 20 34 20 290 21 20 20 21
internal_value=0 1.02593 0.246298 1.13917 -1.1669 1.12969 1.16744 -1.22224 1.17273 1.18327 1.1737 -1.17195 1.17311 1.17249 1.17206 -1.1846 -1.1786 -1.19875 1.23815 1.1749 -1.17227 -1.17655 1.17306 1.17725 1.17238 1.17199 -1.1715 -1.17065 -1.17098 -1.17149
internal_weight=0 759.081 96.2738 662.807 667.562 60.113 654.888 36.1609 649.357 56.1901 646.526 664.211 642.88 636.803 632.64 32.5313 29.594 7.91935 6.07672 52.7857 26.7434 5.08958 49.1147 6.85821 42.2565 38.8147 661.429 24.1507 21.6931 658.77
internal_count=11333 5998 735 5263 5335 460 5203 275 5166 438 5145 5313 5121 5081 5054 255 234 60 40 418 214 40 391 54 337 310 5293 194 174 5272
shrinkage=0.1


Tree=13
num_leaves=31
num_cat=0
split_feature=30 21 18 44 28 12 5 47 28 44 12 20 10 30 9 18 25 23 19 32 12 29 18 16 12 47 32 18 5 7
split_gain=1517.81 59.8973 95.8891 37.4604 6.30443 3.42119 2.1732 1.12373 0.633981 0.418537 0.230937 0.053673 0.0361196 0.0182159 0.00947765 0.00634473 0.00231785 0.00224969 0.00221049 0.00340076 0.0019935 0.000507425 0.000345816 7.38094e-05 5.18949e-05 3.89499e-05 3.217e-05 1.06314e-05 5.29673e-06 3.72652e-06
threshold=1.8452000000000002 1.2890000000000003e-06 4.0970000000000004 1.6162500000000002e-07 3.4384000000000009e-07 3.9773500000000004 2.4343500000000007 2.5549500000000003 4.9828500000000007e-07 1.4666500000000002e-07 4.0052500000000011 3.3882500000000006e-06 4.4647000000000005e-07 1.8731500000000001 3.7700000000000005e-07 3.6847500000000006 2.2431500000000003e-07 2.0240500000000003 1.6060500000000003e-06 1.9455500000000001e-07 3.7682000000000007 2.5843500000000001 2.9778000000000007 1.27025e-06 4.7180500000000007 2.5564500000000003 1.9705500000000004e-07 3.4594500000000004 2.4333500000000003 1.5000000000000002e-07
decision_type=2 2 2 2 2 2 2 2 2 2 2 2 2 2 2 2 2 2 2 2 2 2 2 2 2 2 2 2 2 2
left_child=5 2 10 4 -3 15 17 -6 11 13 12 -5 21 16 -15 20 -9 24 19 29 -1 23 -20 27 -4 -26 -24 -2 -27 -16
right_child=1 3 6 8 7 -7 -8 9 -10 -11 -12 -13 -14 14 18 -17 -18 -19 22 -21 -22 -23 26 -25 25 28 -28 -29 -30 -31
leaf_value=-0.11525359172418981 -0.11523961603388473 0.0047022548964161266 0.11571490105575565 -0.11541533375671487 0.066294638496287292 -0.011242656124649947 0.039555251441405238 0.11887496848183586 -0.06649893156167612 0.079006776110563531 -0.14729829228722 -0.13588998648024991 -0.12729392936846118 0.12107923675081199 0.11539103627738363 -0.12038224558103497 0.12294800278307921 0.11796276968584805 0.11647223657013701 0.11896951028588819 -0.1181405836887085 -0.11667733784773898 0.11558957801033785 -0.11467336850266759 0.11568604849223361 0.11527539750104224 0.11527465182264814 -0.11500975314131229 0.11512098820568627 0.11523654041337208
leaf_weight=605.73727306723595 17.786689043045062 5.2442760467529288 3.1643503904342642 2.3112707138061515 4.7357858568429938 3.1769342124462119 4.1333023458719245 2.608386978507041 2.6332889869809151 3.1787313073873511 2.6611885577440253 2.8703892379999161 2.7817979976534835 2.8587776869535437 2.6567632630467397 2.4326106235384932 3.0088458955287933 3.5356006622314444 2.4284979701042166 4.1547637134790421 2.4012819081544867 2.3873779848217955 3.2620258405804625 2.8937879726290694 2.3441068083047858 30.576399713754654 575.77753188461065 2.2687579169869414 2.3956321179866782 3.786184161901474
leaf_count=5275 155 30 27 20 31 20 25 20 20 24 20 20 20 21 23 20 20 28 20 31 20 20 28 26 20 266 5009 20 21 33
internal_value=0 1.00802 0.175649 1.11105 1.13876 -1.14747 1.08742 1.14817 -1.06453 1.15197 -1.19142 -1.26757 -1.16477 1.15389 1.15335 -1.15285 1.21057 1.15549 1.15308 1.16739 -1.15265 -1.1529 1.15281 -1.15145 1.15327 1.15292 1.15276 -1.15214 1.15264 1.153
internal_weight=0 698.445 76.929 621.516 613.701 613.748 46.1494 608.456 7.81495 603.721 30.7796 5.18166 28.1184 600.542 594.925 610.571 5.61723 42.0161 592.066 10.5977 608.139 25.3366 581.468 22.9492 38.4805 35.3161 579.04 20.0554 32.972 6.44295
internal_count=11333 5998 648 5350 5290 5335 387 5260 60 5229 261 40 241 5205 5165 5315 40 362 5144 87 5295 221 5057 201 334 307 5037 175 287 56
shrinkage=0.1


Tree=14
num_leaves=31
num_cat=0
split_feature=30 32 30 43 36 19 17 27 36 18 12 18 23 44 18 47 30 14 9 5 43 20 25 44 40 12 12 12 18 47
split_gain=1350.89 54.3589 100.662 35.066 3.46342 2.21569 1.77465 0.381234 0.369527 0.239896 0.194519 0.149714 0.0465258 0.0366446 0.0232045 0.0134637 0.0129845 0.0122634 0.00688468 0.00495771 0.0046764 0.00343087 0.00159956 0.000214448 0.000498963 0.000172203 8.64528e-05 2.70377e-05 2.23651e-05 1.85428e-05
threshold=1.8452000000000002 1.9455500000000001e-07 2.5417500000000004 1.1918000000000001e-07 1.9213500000000001 1.6060500000000003e-06 2.2651500000000007 3.2363000000000005e-07 2.3739500000000002 3.6679000000000004 4.6688000000000009 2.9778000000000007 2.0248500000000003 1.4666500000000002e-07 3.7383000000000002 2.5549500000000003 1.8731500000000001 1.0012000000000003e-06 3.7700000000000005e-07 2.4339500000000007 4.8414500000000006e-08 3.4370500000000004e-06 2.2431500000000003e-07 5.5532500000000004e-08 2.8847000000000004e-07 3.2401000000000004 3.7682000000000007 4.805200000000001 3.4594500000000004 2.5565500000000005
decision_type=2 2 2 2 2 2 2 2 2 2 2 2 2 2 2 2 2 2 2 2 2 2 2 2 2 2 2 2 2 2
left_child=4 2 7 5 14 -3 10 8 9 17 -4 -7 19 15 26 -13 22 28 -18 20 23 25 -17 27 -25 -5 -1 -12 -2 -29
right_child=1 3 6 21 -6 11 -8 -9 -10 -11 12 13 -14 -15 -16 16 18 -19 -20 -21 -22 -23 -24 24 -26 -27 -28 29 -30 -31
leaf_value=-0.11359262135809732 -0.11356060244939151 0.04684278753707756 0.084677991384942308 -0.11485029498033253 -0.01050092864950241 0.089074013481403133 0.028668301948639494 -0.15230159132582985 -0.075786242425765968 -0.14333880306363209 0.11398651314111193 0.11975153037651637 0.12599881228544005 0.12441291115372494 -0.12343852952220741 0.11677698238786556 0.11873561102533586 -0.12017257593128426 0.11361154752775889 0.11859474538440506 0.11834527729234892 -0.11893656136066288 0.12030104560609219 0.11547600795729916 0.11357754723979646 -0.11359060885868932 -0.1142103338280745 0.1139035970026598 -0.11322636608155348 0.11360502485433183
leaf_weight=555.36352933198214 17.137668542563933 5.0053973123431197 2.1828627958893767 2.2421845123171797 3.2750119045376769 2.4619218558073035 2.5752846151590338 2.9956339821219435 2.2373958453536025 3.2982681393623343 2.2581113651394835 3.6836539506912223 3.6886477172374716 3.2279067113995543 2.4052051380276671 2.4003817439079276 2.6351510882377616 3.234334520995616 530.74939459562302 2.5213925763964644 2.3570828065276137 2.4235404059290886 2.7793197184801102 2.2579288706183425 3.5785234421491623 2.1031396016478539 2.2750014737248412 2.2501919493079212 2.2668006271123877 27.512734666466713
leaf_count=5272 163 37 20 20 22 21 20 20 21 22 21 27 24 24 20 20 21 26 5033 20 20 20 20 20 34 20 21 21 22 261
internal_value=0 0.991433 0.232875 1.10304 -1.13038 1.13074 1.09566 -1.18385 -1.14779 -1.18143 1.13852 1.13679 1.15223 1.1379 -1.13637 1.13726 1.13685 -1.14472 1.13637 1.14293 1.14024 -1.15922 1.18668 1.13755 1.14312 -1.14241 -1.13595 1.13653 -1.13522 1.13628
internal_weight=0 642.065 82.3529 559.712 563.319 552.943 51.1828 31.1701 28.1745 25.9371 48.6075 547.938 46.4246 545.476 560.044 542.248 538.564 22.6388 533.385 42.736 40.2146 6.76886 5.1797 37.8575 5.83645 4.34532 557.639 32.021 19.4045 29.7629
internal_count=11333 5998 735 5263 5335 5203 461 274 254 233 441 5166 421 5145 5313 5121 5094 211 5054 397 377 60 40 357 54 40 5293 303 185 282
shrinkage=0.1


Tree=15
num_leaves=31
num_cat=0
split_feature=30 32 12 45 40 12 23 12 20 36 25 5 31 47 30 6 36 37 18 25 38 46 35 44 8 2 17 19 18 6
split_gain=1204.49 48.9047 89.3798 31.6694 3.73365 3.4989 2.50925 1.37037 0.315227 0.286557 0.0231329 0.0113328 0.0104215 0.00954472 0.00923775 0.00920799 0.0037688 0.00709481 0.00277672 0.00111251 0.000927485 0.000751711 0.000717251 9.92746e-05 0.000502501 8.77413e-05 7.22784e-05 3.1911e-05 3.05719e-05 2.97302e-05
threshold=1.8452000000000002 1.9455500000000001e-07 4.5223000000000004 3.1685500000000007e-07 4.3322500000000004e-07 3.9773500000000004 2.0255500000000004 2.7105500000000005 2.6478000000000007e-06 2.0119500000000001 1.2207500000000004e-07 2.4341500000000003 1.5806500000000003e-07 2.5549500000000003 1.8731500000000001 2.9793500000000006 1.8507500000000003 1.6280500000000001e-07 3.5735500000000004 2.2431500000000003e-07 2.1021000000000003e-07 1.9347000000000002e-07 2.4683500000000005 5.5532500000000004e-08 4.2107500000000008e-07 5.479200000000001e-07 2.2633500000000004 1.5855000000000001e-06 3.6108000000000007 1.9908500000000002
decision_type=2 2 2 2 2 2 2 2 2 2 2 2 2 2 2 2 2 2 2 2 2 2 2 2 2 2 2 2 2 2
left_child=5 2 8 7 9 16 10 -3 15 -5 11 23 22 -14 19 18 28 -18 20 -15 27 25 -9 26 -25 -16 -4 -2 -1 -27
right_child=1 3 6 4 -6 -7 -8 12 -10 -11 -12 -13 13 14 21 -17 17 -19 -20 -21 -22 -23 -24 24 -26 29 -28 -29 -30 -31
leaf_value=-0.11213350190567489 -0.11214954979785344 0.039346312080337599 0.11221745033955025 -0.11318199252087252 0.015136871924045073 -0.005984663323354583 0.024916283416755843 0.11537872652554977 -0.1467422904147169 -0.15876745593500061 0.12247806112137119 0.11903540411729574 0.11752960063319338 0.11494202185747811 0.11277338883743489 -0.1187573761052708 -0.11896427462390767 -0.11225842689528175 -0.11613220473328985 0.11800624749789108 -0.11432331838416665 0.11384473634001312 0.11762271425078641 0.11397040931902912 0.11212099289154072 0.11253039851827183 0.11282405129332268 -0.11171388731662227 -0.11172931856514974 0.11215102874633354
leaf_weight=504.10218916833401 16.417704701423663 2.5885808169841757 29.578408062458042 3.1206133589148504 2.4301683679223061 3.1223657801747313 3.461266115307807 2.7472830414772025 3.1856303662061682 2.4708219692111015 2.6092747300863257 2.6987890005111685 3.3928689658641806 2.2048436701297751 2.2879333049058905 2.8159227073192588 2.3370685130357733 4.8559033051133156 2.1247625574469557 2.5612117350101471 2.1011658981442443 2.6489302068948737 2.9580799415707588 2.0951245427131644 4.9172573015093803 2.074622154235839 2.1039994657039633 1.8730967789888371 1.8783678412437428 481.66799466311932
leaf_count=5224 170 22 305 31 20 20 22 24 20 20 20 21 27 20 23 25 21 50 20 20 20 25 24 20 51 21 21 20 20 4986
internal_value=0 0.977016 0.228269 1.08788 -0.883487 -1.11522 1.06897 1.11919 -1.17094 -1.33326 1.13346 1.1277 1.12293 1.12244 1.12207 -1.13366 -1.12164 -1.14437 -1.12692 1.16589 -1.12334 1.12165 1.16542 1.12333 1.12674 1.12156 1.12258 -1.12105 -1.12132 1.12153
internal_weight=0 589.136 75.9824 513.154 8.0216 516.296 47.4641 505.132 28.5183 5.59144 44.0029 41.3936 502.544 496.838 493.446 25.3327 513.174 7.19297 22.5167 4.76606 20.392 488.679 5.70536 38.6948 7.01238 486.031 31.6824 18.2908 505.981 483.743
internal_count=11333 5998 735 5263 71 5335 460 5192 275 51 438 418 5170 5122 5095 255 5315 71 230 40 210 5055 48 397 71 5030 326 190 5244 5007
shrinkage=0.1


Tree=16
num_leaves=31
num_cat=0
split_feature=30 32 18 45 21 18 12 12 6 47 6 23 20 36 31 47 30 5 37 25 40 46 35 12 44 13 2 18 5 12
split_gain=1075.58 43.9395 80.0441 28.3884 3.70044 3.53535 2.76141 1.4215 0.419987 0.402223 0.243447 0.0373387 0.0115946 0.0114997 0.00745406 0.00678336 0.00658261 0.0064314 0.00264393 0.00077907 0.000688337 0.000537275 0.000516301 0.000279158 0.000113547 0.000258323 6.33687e-05 4.20986e-05 2.68588e-05 2.13832e-05
threshold=1.8452000000000002 1.9455500000000001e-07 4.072350000000001 3.1685500000000007e-07 1.7452500000000001e-06 3.8205000000000005 4.6285500000000006 2.7105500000000005 2.9604500000000002 2.5558500000000004 2.5802500000000004 2.0248500000000003 2.5935500000000004e-06 1.8969000000000003 1.5806500000000003e-07 2.5549500000000003 1.8731500000000001 2.4341500000000003 9.6320500000000005e-08 2.2431500000000003e-07 2.7732500000000008e-07 1.9347000000000002e-07 2.4683500000000005 3.8053500000000002 5.7373000000000007e-08 4.8812000000000006e-07 5.479200000000001e-07 3.4594500000000004 2.4335500000000008 2.8056500000000004
decision_type=2 2 2 2 2 2 2 2 2 2 2 2 2 2 2 2 2 2 2 2 2 2 2 2 2 2 2 2 2 2
left_child=5 2 8 7 10 13 -4 -3 12 -8 -5 17 20 23 22 -16 19 18 24 -17 27 26 -9 -1 28 -26 -18 -2 -11 -28
right_child=1 3 6 4 -6 -7 9 14 -10 11 -12 -13 -14 -15 15 16 21 -19 -20 -21 -22 -23 -24 -25 25 -27 29 -29 -30 -31
leaf_value=-0.11084591560768615 -0.11083947761102531 0.036048190628758352 -0.0025281675802070261 -0.11215993411493613 0.020741595910925708 -0.004368659502389436 0.067391967510442338 0.11370646252463378 -0.14653961534762847 0.11087768884837051 -0.15556551580584144 0.12274392043695795 -0.11828549887809814 -0.11826973278155668 0.11559159347844671 0.11333099581015314 0.11141474856121257 0.11662572252416642 0.11472939535662022 0.11600695328856384 -0.11272913259577202 0.11235789557277316 0.11569324649070167 -0.11203628438714706 0.11233832743547632 0.11082962153480187 0.11119822995877855 -0.1103864280895922 0.11125848198003595 0.11086191696133503
leaf_weight=465.37317059189081 14.817326284945024 2.5452465340495101 2.2914831191301337 2.9649493694305411 2.3117275759577751 3.1368940547108641 2.0836629197001448 2.5205227881669989 4.148233786225318 25.390859283506874 2.2902645543217659 3.2458425089716902 2.4507481828331938 2.098777934908866 3.1188141703605643 2.0219267457723609 2.0941567644476882 2.3372785225510588 2.0017547979950896 2.3553615659475327 2.0176986977457991 2.426939219236373 2.7189207971096039 1.9784698486328114 1.8986766338348378 2.8212074786424637 1.8986802622675885 2.3805774450302115 1.9980462789535514 440.63887587189674
leaf_count=5272 168 22 20 31 20 22 20 24 33 287 20 23 21 20 27 20 23 20 20 20 21 25 24 21 20 32 21 28 22 4986
internal_value=0 0.964276 0.224442 1.0743 -0.846955 -1.10177 1.04356 1.10575 -1.17389 1.10218 -1.31076 1.12466 -1.11808 -1.10884 1.10987 1.10944 1.10912 1.11551 1.11203 1.14771 -1.10982 1.10874 1.14737 -1.10851 1.10984 1.11437 1.10866 -1.10777 1.10905 1.10863
internal_weight=0 539.79 69.8834 469.906 7.56694 472.587 44.0688 462.339 25.8146 41.7773 5.25521 39.6937 21.6664 469.45 459.794 454.555 451.436 36.4478 34.1105 4.37729 19.2156 447.059 5.23944 467.352 32.1088 4.71988 444.632 17.1979 27.3889 442.538
internal_count=11333 5998 735 5263 71 5335 464 5192 271 444 51 424 238 5313 5170 5122 5095 401 381 40 217 5055 48 5293 361 52 5030 196 309 5007
shrinkage=0.1


Tree=17
num_leaves=31
num_cat=0
split_feature=30 32 18 36 25 0 5 19 6 18 18 44 1 20 47 21 18 23 44 12 12 21 45 47 18 36 18 17 36 23
split_gain=961.744 32.7419 66.4386 21.9529 19.4702 2.27431 2.17912 1.91028 0.324041 0.182587 0.0319948 0.0303903 0.0253191 0.0085549 0.00490406 0.0026435 0.00108215 0.000648318 0.00057928 0.000337625 0.000103498 7.19403e-05 0.000190956 3.91165e-05 3.68171e-05 2.64515e-05 1.87671e-05 1.00441e-05 7.93514e-06 5.93264e-06
threshold=1.8731500000000001 1.9455500000000001e-07 4.072350000000001 1.9923500000000003 2.5568000000000008e-07 2.7613000000000008 2.4343500000000007 1.6060500000000003e-06 2.9604500000000002 2.9778000000000007 3.7609500000000007 1.4666500000000002e-07 2.8381000000000005e-07 2.5935500000000004e-06 2.5549500000000003 1.3073500000000001e-06 3.2576000000000005 2.0240500000000003 1.0988500000000002e-07 3.8255500000000002 4.7180500000000007 1.2221000000000003e-06 1.7132500000000003e-07 2.5564500000000003 3.4594500000000004 1.8940500000000002 3.0326500000000007 2.2627500000000005 2.2401000000000004 2.0282500000000003
decision_type=2 2 2 2 2 2 2 2 2 2 2 2 2 2 2 2 2 2 2 2 2 2 2 2 2 2 2 2 2 2
left_child=3 2 8 10 7 -5 12 -3 13 -9 19 14 17 18 -11 -16 -6 20 24 25 -4 23 -23 -22 28 29 -17 -25 -2 -1
right_child=1 4 6 5 16 -7 -8 9 -10 11 -12 -13 -14 -15 15 26 -18 -19 -20 -21 21 22 -24 27 -26 -27 -28 -29 -30 -31
leaf_value=-0.10979183710549152 -0.10966693837994571 0.041270276717835404 0.11052769622955486 0.11825207588266227 -0.11321923071556028 -0.0005460775573370558 0.029189653506128316 0.080572195316346587 -0.14379375745224951 0.11389423755160243 -0.12180570583958453 0.12044682839427448 0.12021069222775718 -0.116561928786012 0.11324367713753968 0.11005777188546817 -0.10994327732958853 0.11157464591911535 -0.11155359385538305 -0.11106575757384303 0.11023127993193081 0.11102653106692986 0.10970705536738859 0.10971310197061986 -0.10922016087614145 -0.11010002305908069 0.10972039619629442 0.10996375813242013 -0.109904694504944 -0.10970747754206921
leaf_weight=8.5054077729582769 9.8032820224762016 4.121400646865367 2.3220390975475338 4.1175479218363753 1.9264056086540213 2.647770382463932 3.5976034551858893 2.1427941024303427 3.5731496214866629 2.8619123920798293 2.2003637701272956 2.6829016357660285 2.6173118874430648 2.1809240579605094 2.1424361318349829 1.6555470004677761 2.1158797219395638 2.4456436038017264 1.7830650284886349 1.846729204058646 1.6832779422402442 1.7342670261859883 2.9839785024523735 21.302013784646991 1.8499927818775166 1.7383873313665379 404.68724599480629 1.728359282016753 1.6383530944585789 419.56707246601582
leaf_count=105 122 36 27 36 20 20 27 21 31 27 20 24 20 20 22 20 26 27 20 21 20 20 37 264 24 21 5012 21 20 5202
internal_value=0 0.970511 0.286997 -1.06991 1.06916 0.717576 1.03473 1.09017 -1.16384 1.09688 -1.09778 1.09838 1.10731 -1.10708 1.09769 1.0974 -1.11504 1.10006 -1.09861 -1.09717 1.09885 1.09834 1.10192 1.09766 -1.09634 -1.09711 1.09722 1.09732 -1.09701 -1.09709
internal_weight=0 485.58 61.2433 440.623 424.337 6.76532 40.4145 420.294 20.8288 416.173 433.858 414.03 36.8169 17.2556 411.347 408.485 4.04229 34.1996 15.0747 431.658 31.7539 29.4319 4.71825 24.7137 13.2916 429.811 406.343 23.0304 11.4416 428.072
internal_count=11333 5908 700 5425 5208 56 463 5162 237 5126 5369 5105 436 206 5081 5054 46 416 186 5349 389 362 57 305 166 5328 5032 285 142 5307
shrinkage=0.1


Tree=18
num_leaves=31
num_cat=0
split_feature=30 32 30 45 21 36 23 12 17 6 6 18 35 7 5 31 18 30 47 44 25 46 35 12 21 13 16 2 17 12
split_gain=861.114 35.7454 64.029 23.6427 3.21734 3.17077 1.66031 1.51467 0.280893 0.274408 0.235636 0.0153702 0.0137478 0.00854558 0.00627313 0.00564411 0.00556961 0.00507847 0.00352753 0.00189517 0.00101839 0.000248779 0.000204913 7.60064e-05 4.56288e-05 0.000115814 3.47757e-05 3.12605e-05 2.21078e-05 2.2663e-05
threshold=1.8452000000000002 1.9455500000000001e-07 2.5417500000000004 3.1685500000000007e-07 1.7452500000000001e-06 1.9213500000000001 2.0255500000000004 2.7105500000000005 2.2635500000000004 2.9604500000000002 2.5802500000000004 3.7383000000000002 2.4642500000000003 1.5907500000000001e-07 2.4341500000000003 1.5806500000000003e-07 3.6254500000000003 1.8731500000000001 2.5549500000000003 1.1329500000000002e-07 2.2431500000000003e-07 1.9347000000000002e-07 2.4683500000000005 3.7682000000000007 1.6835000000000003e-06 5.0660500000000008e-07 1.27025e-06 5.479200000000001e-07 2.2633500000000004 4.7764000000000006
decision_type=2 2 2 2 2 2 2 2 2 2 2 2 2 2 2 2 2 2 2 2 2 2 2 2 2 2 2 2 2 2
left_child=5 2 8 7 10 11 12 -3 -2 16 -5 23 -4 14 24 22 19 20 -19 26 -17 27 -9 -1 28 -26 -10 -20 29 -14
right_child=1 3 6 4 -6 -7 -8 15 9 -11 -12 -13 13 -15 -16 17 -18 18 21 -21 -22 -23 -24 -25 25 -27 -28 -29 -30 -31
leaf_value=-0.1086990754879595 -0.074109624451965089 0.028748209759248002 0.10040497550020505 -0.10972235074826216 0.018680339786600046 -0.0041744868162675239 0.02962089304899005 0.11162871412291347 -0.10874110782867548 -0.1408071199210329 -0.15582488760661262 -0.11787117457304985 0.10909553163340342 0.11594961557193073 0.11453300698687226 0.11059118939579765 -0.11487394664899037 0.11240229083044198 0.10913767385359741 -0.11204625005990967 0.1138886460210476 0.10982809767131869 0.11296919841137293 -0.10938479580495551 0.10983272297912686 0.10868515620382715 -0.10822524610150748 0.10871360053799251 0.10916907260241478 0.10875335719861486
leaf_weight=388.14612080901861 1.8402548283338571 2.3766913041472426 1.6825771778821934 2.4763411059975615 2.1394797787070274 2.9212918356060973 2.8407019823789588 2.2084295079112044 11.881536722183233 3.4079681038856497 2.0072955563664436 1.8367633819580067 2.1351565420627727 2.034889116883277 2.0943584293127051 1.6846770644187921 1.8807490319013584 2.6221714317798606 1.7464832365512837 1.917686104774474 2.1092492341995239 2.0210342779755583 2.3579527884721756 1.6231870502233494 1.5789116173982614 1.9851430580019946 1.4682927578687657 369.13343401998281 1.6069033741950978 20.713241785764694
leaf_count=5272 21 22 21 31 20 22 24 24 161 29 20 20 28 20 20 20 20 27 23 22 20 25 24 21 20 27 21 5007 21 280
internal_value=0 0.942166 0.216865 1.05121 -0.822166 -1.07971 1.03051 1.08333 -1.11539 -1.1489 -1.30362 -1.08745 1.09217 1.09678 1.09254 1.08826 -1.09739 1.08784 1.08747 -1.09107 1.12424 1.08722 1.12321 -1.08702 1.08859 1.09194 -1.08684 1.08716 1.08811 1.08785
internal_weight=0 451.952 59.0684 392.883 6.62312 394.527 36.6719 386.26 22.3965 20.5562 4.48364 391.606 33.8312 32.1486 30.1137 383.883 17.1483 379.317 375.523 15.2675 3.79393 372.901 4.56638 389.769 28.0194 3.56405 13.3498 370.88 24.4553 22.8484
internal_count=11333 5998 735 5263 71 5335 461 5192 274 253 51 5313 437 416 396 5170 224 5122 5082 204 40 5055 48 5293 376 47 182 5030 329 308
shrinkage=0.1


Tree=19
num_leaves=31
num_cat=0
split_feature=30 21 36 45 32 0 18 40 17 5 1 18 3 46 18 36 8 5 31 30 47 12 25 23 26 47 12 12 2 47
split_gain=771.349 32.4706 49.295 20.2784 3.63868 8.88832 3.23053 3.12075 1.99321 0.356335 0.177691 0.0791883 0.0554474 0.0242641 0.0217529 0.011416 0.0109744 0.00755849 0.00372407 0.00363701 0.00252373 0.00133519 0.000725261 0.000456857 0.000187209 0.000118044 9.85567e-05 6.39846e-05 2.28127e-05 2.16797e-05
threshold=1.8452000000000002 1.2890000000000003e-06 2.5956500000000005 3.1685500000000007e-07 1.9455500000000001e-07 4.2216000000000014 3.8205000000000005 4.3322500000000004e-07 2.2650500000000005 2.4342500000000005 5.0474500000000009e-07 3.6679000000000004 4.830200000000001e-07 1.9347000000000002e-07 4.3240500000000006 1.8969000000000003 4.2107500000000008e-07 2.4340500000000005 1.5806500000000003e-07 1.8731500000000001 2.5549500000000003 2.7195500000000004 2.2431500000000003e-07 2.0240500000000003 2.3558500000000003e-07 2.5576500000000002 3.8053500000000002 4.7180500000000007 5.479200000000001e-07 2.5564500000000003
decision_type=2 2 2 2 2 2 2 2 2 2 2 2 2 2 2 2 2 2 2 2 2 2 2 2 2 2 2 2 2 2
left_child=6 2 9 4 5 -3 15 10 14 -2 -5 12 24 18 -4 26 -7 23 25 22 -21 -22 -20 27 -11 -6 -1 -16 -23 -29
right_child=1 3 8 7 13 16 -8 -9 -10 11 -12 -13 -14 -15 17 -17 -18 -19 19 20 21 28 -24 -25 -26 -27 -28 29 -30 -31
leaf_value=-0.10780309803362847 -0.060701287778661434 -0.10766094224866285 0.095905550434370934 -0.15241481418970618 0.11028319897085259 0.11671237846632261 -0.00091034785913802422 0.021376664644848688 0.0034194265516344548 -0.10775615667567121 -0.11011200382102454 -0.12987566516481516 -0.1264692139860277 0.097053793901825947 0.10848144928115409 -0.11593841283654285 0.10783145859063159 0.11448598443461909 0.1094883262504663 0.11108674852057375 0.11049472608662431 0.10819480968927707 0.11239790751929227 0.10964446656140003 -0.10893846709684446 0.11137890079707891 -0.10861412859923095 0.1082232331122869 0.10781553041854085 0.10781462311447683
leaf_weight=353.9801718890667 1.423732172697785 2.7145205140113813 1.4405489712953627 1.8517490401864045 1.6633047536015499 2.2815601527690887 2.847585290670394 2.0780712217092514 1.9690761566162098 12.008431661874058 2.1410112790763378 2.3317199200391761 1.8225066363811482 2.0659965574741355 1.7261964827776051 1.734793048352002 3.5665465742349625 1.9734321981668459 1.5389266982674592 2.3992946594953528 1.8728925585746754 1.5933497995138157 1.9325399771332741 1.6177486404776562 1.5073667801916588 2.4048288688063622 1.5047131925821293 1.403552465140822 336.36006897687912 17.344651579856873
leaf_count=5272 21 20 21 20 20 20 22 20 20 180 28 22 20 27 24 20 53 20 20 27 22 23 20 21 21 27 21 20 5003 258
internal_value=0 0.932435 0.145896 1.03239 1.06292 0.418825 -1.07 -0.780062 1.00358 -1.08828 -1.29731 -1.12706 -1.10096 1.07859 1.07842 -1.07846 1.11296 1.08556 1.07923 1.07888 1.07855 1.07832 1.11108 1.08027 -1.07888 1.10931 -1.07807 1.07899 1.07817 1.07845
internal_weight=0 413.034 46.569 366.465 360.394 8.56263 360.067 6.07083 27.4752 19.0938 3.99276 17.67 15.3383 351.831 25.5061 357.22 5.84811 24.0656 349.765 345.697 342.226 339.826 3.47147 22.0921 13.5158 4.06813 355.485 20.4744 337.953 18.7482
internal_count=11333 5998 648 5350 5282 93 5335 68 384 264 48 243 221 5189 364 5313 73 343 5162 5115 5075 5048 40 323 201 47 5293 302 5026 278
shrinkage=0.1


Tree=20
num_leaves=31
num_cat=0
split_feature=30 32 12 45 18 32 5 12 19 20 36 7 18 31 47 32 30 23 18 46 35 30 30 12 44 27 12 17 2 47
split_gain=691.628 26.8698 49.6619 16.7677 11.1008 3.04132 2.17506 1.17443 0.151107 0.0798008 0.0129315 0.012876 0.00708411 0.00299318 0.00181209 0.00139754 0.00131108 0.000448527 0.000348688 0.000160653 0.000112734 7.20761e-05 4.57942e-05 3.6827e-05 3.48381e-05 0.000137456 2.2607e-05 2.21951e-05 1.66006e-05 1.5018e-05
threshold=1.8567500000000001 1.9455500000000001e-07 4.5223000000000004 3.1685500000000007e-07 3.9188000000000005 2.8500000000000008e-07 2.4346500000000004 2.7105500000000005 2.0293500000000007e-06 2.6478000000000007e-06 1.9105500000000004 1.7768500000000005e-07 3.7014500000000004 1.5806500000000003e-07 2.5549500000000003 1.7669500000000003e-07 1.8731500000000001 2.0240500000000003 3.7098000000000009 1.9347000000000002e-07 2.4683500000000005 1.8452000000000002 2.2583000000000006 4.7180500000000007 5.5532500000000004e-08 3.6628500000000005e-07 3.7682000000000007 2.2627500000000005 5.479200000000001e-07 2.5565500000000005
decision_type=2 2 2 2 2 2 2 2 2 2 2 2 2 2 2 2 2 2 2 2 2 2 2 2 2 2 2 2 2 2
left_child=4 2 9 7 10 8 11 -3 -5 12 18 17 15 20 -15 22 -16 23 21 28 -9 26 -2 -4 27 -26 -1 29 -18 -25
right_child=1 3 6 5 -6 -7 -8 13 -10 -11 -12 -13 -14 14 16 -17 19 -19 -20 -21 -22 -23 -24 24 25 -27 -28 -29 -30 -31
leaf_value=-0.10700594244174311 -0.10697146657680973 0.03159887315665643 0.10760686802080466 -0.15056982035796165 0.065548270528921745 0.027144677698013778 0.016659987451455981 0.10931298961969393 -0.10834901906299708 -0.1281180217873035 -0.1155850334657843 0.1152497194135803 -0.11435682231591181 0.10992353454929603 0.10991377214673188 -0.11007559262773695 0.10735601733046339 0.10878351252972292 -0.10861061893144958 0.10799362603979064 0.11040025023258944 -0.1077283844129453 -0.10747569813259128 0.10737296626090553 0.10822048075117273 0.10699510975585627 -0.10742852820846101 0.10746469206453013 0.1070171399939925 0.10701662296898502
leaf_weight=322.20448454096913 9.4897435046732443 2.0741068422794333 1.7696947716176641 1.6699765995144837 3.7685436382889739 1.9676046073436737 2.8774927780032149 1.8435893021523946 1.7215316928923128 2.3258865475654593 1.7712424658238877 2.1979546323418608 1.676189076155423 2.1927670463919631 1.5780900567769993 1.7786235846579064 1.4524107947945584 1.8479000590741623 1.3679263070225705 1.6996781080961216 1.9755461253225799 1.3933180198073376 2.2230962067842475 1.2783680409193134 1.3576815463602532 2.8103779070079327 1.2709346897900093 1.3485347628593434 306.76522801816463 15.804169181734322
leaf_count=5266 156 21 27 20 33 20 22 24 25 20 20 20 20 27 20 25 23 26 20 25 24 22 35 20 20 46 20 21 5007 258
internal_value=0 0.932715 0.240707 1.03661 -1.05103 -0.71759 0.99508 1.06603 -1.29139 -1.1087 -1.07064 1.07898 -1.08226 1.07093 1.07059 -1.07464 1.07039 1.07281 -1.07017 1.07024 1.09875 -1.07011 -1.07067 1.07168 1.07133 1.07394 -1.07008 1.07074 1.07019 1.07043
internal_weight=0 373.726 48.7857 324.941 331.776 5.35911 31.2922 319.581 3.39151 17.4935 328.008 28.4147 15.1677 317.507 313.688 13.4915 311.495 26.2167 326.237 309.917 3.81914 324.869 11.7128 24.3688 22.5991 4.16806 323.475 18.4311 308.218 17.0825
internal_count=11333 5952 716 5236 5381 65 460 5171 45 256 5348 438 236 5150 5102 216 5075 418 5328 5055 48 5308 191 392 365 66 5286 299 5030 278
shrinkage=0.1


Tree=21
num_leaves=31
num_cat=0
split_feature=30 21 23 43 12 36 32 0 19 35 20 21 18 8 44 18 5 9 30 47 12 20 21 25 23 1 41 12 17 14
split_gain=620.881 26.7348 40.271 16.8744 3.16204 3.05623 3.04466 7.00517 1.23163 0.330046 0.214934 0.129966 0.054064 0.0481527 0.0246415 0.0171772 0.00721435 0.00567744 0.00224529 0.00130408 0.00122653 0.000778219 0.00075318 0.000386916 0.000267568 6.38118e-05 5.69362e-05 2.939e-05 1.50135e-05 1.13372e-05
threshold=1.8452000000000002 1.2890000000000003e-06 2.0267500000000003 1.1918000000000001e-07 4.5978000000000003 1.9213500000000001 1.9455500000000001e-07 4.2216000000000014 1.6060500000000003e-06 2.4671500000000006 1.1853000000000001e-06 6.8850000000000006e-07 3.5802 3.3718500000000009e-07 1.4666500000000002e-07 3.7383000000000002 2.4341500000000003 4.6754000000000007e-07 1.8731500000000001 2.5549500000000003 2.7195500000000004 3.4370500000000004e-06 1.3073500000000001e-06 2.2431500000000003e-07 2.0240500000000003 1.6425500000000001e-07 2.5662500000000006 3.7682000000000007 2.2627500000000005 9.3661500000000016e-07
decision_type=2 2 2 2 2 2 2 2 2 2 2 2 2 2 2 2 2 2 2 2 2 2 2 2 2 2 2 2 2 2
left_child=5 2 4 6 -2 15 7 -3 -8 10 -4 -12 13 26 18 27 24 -9 23 -20 -21 -5 -22 -10 25 28 29 -1 -6 -13
right_child=1 3 9 21 16 -7 8 17 14 -11 11 12 -14 -15 -16 -17 -18 -19 19 20 22 -23 -24 -25 -26 -27 -28 -29 -30 -31
leaf_value=-0.10629459196065932 -0.044593211677366851 -0.099487278214346553 -0.15076176304127381 -0.10738770626179495 0.10634184678778676 0.00086170798830136465 0.042427708548722444 0.11331231250479262 0.10783541615392947 -0.059237866996119527 -0.07761701233140271 -0.10633064281822323 -0.1281005303643292 -0.12509584105366864 0.11720012825945691 -0.1169109284122333 0.11290710633794457 0.10633633168552994 0.10889248766237816 0.10904931923930827 0.10855168976119914 -0.11030496973726614 0.1063033691411738 0.11014086145266172 0.10774475382872913 0.10710131375233414 -0.10701092881294694 -0.10678437197182107 0.10670481428475176 -0.10597724218389033
leaf_weight=293.70961393788457 1.4663434140384222 2.4014945924282065 1.3610544838011254 2.216175120323896 15.752952098846448 2.6828836351633063 3.0355703681707373 1.9237890839576721 1.3048832416534417 1.2427040040493 1.1977309882640828 6.3734012171626073 1.8074639849364746 1.634532831609248 2.1192361786961547 1.5325725004076947 1.9473681598901738 2.9643209502100945 2.001921795308589 1.6504848077893246 1.4979405999183644 1.5567850954830644 280.56909153982997 1.6464904546737669 1.6617772616446007 1.2761876210570324 1.2453341521322725 1.2303042225539673 1.2284499183297146 1.0585282333195207
leaf_count=5272 23 20 20 37 281 22 35 20 20 20 20 114 20 20 24 20 21 53 27 22 22 20 5030 20 26 21 21 21 21 20
internal_value=0 0.915767 0.138986 1.01578 0.97565 -1.0539 1.04211 0.403706 1.05795 -1.08721 -1.1291 -1.09042 -1.12147 -1.09351 1.06456 -1.06352 1.07098 1.09082 1.06378 1.06349 1.06331 -1.08591 1.06315 1.09122 1.0653 1.06419 -1.06385 -1.06297 1.06368 -1.0628
internal_weight=0 344.142 39.2538 304.888 23.3331 299.155 301.115 7.2896 293.826 15.9207 14.678 13.317 12.1193 10.3118 290.79 296.472 21.8667 4.88811 288.671 285.719 283.718 3.77296 282.067 2.95137 19.9194 18.2576 8.67726 294.94 16.9814 7.43193
internal_count=11333 5998 648 5350 393 5335 5293 93 5200 255 235 215 195 175 5165 5313 370 73 5141 5101 5074 57 5052 40 349 323 155 5293 302 134
shrinkage=0.1


Tree=22
num_leaves=31
num_cat=0
split_feature=30 21 23 31 44 30 18 35 36 12 28 41 14 18 9 18 20 5 13 30 31 44 47 25 44 32 9 25 36 17
split_gain=557.484 24.232 23.6391 18.7582 15.2562 3.09595 2.58824 1.29941 1.26539 0.906622 0.476389 0.388614 0.269539 0.201238 0.183501 0.0568763 0.0115223 0.00302573 0.00219697 0.00159198 0.00163341 0.000938769 0.000900305 0.000693113 0.000554476 0.000466729 0.000360109 0.000278317 0.000131683 0.000108028
threshold=1.8452000000000002 1.3402500000000002e-06 2.0255500000000004 1.5664500000000001e-07 1.6162500000000002e-07 1.8327500000000001 3.3285500000000003 2.4649500000000004 2.4781500000000007 4.6285500000000006 4.9828500000000007e-07 2.5662500000000006 1.0488500000000003e-06 3.7383000000000002 3.8177000000000006e-07 3.6537000000000006 3.3882500000000006e-06 2.4340500000000005 4.0285500000000007e-07 1.8731500000000001 1.5909500000000004e-07 1.4666500000000002e-07 2.5549500000000003 1.1899500000000001e-07 1.0988500000000002e-07 1.9241500000000002e-07 3.7700000000000005e-07 2.2431500000000003e-07 1.8801500000000002 2.2670500000000007
decision_type=2 2 2 2 2 2 2 2 2 2 2 2 2 2 2 2 2 2 2 2 2 2 2 2 2 2 2 2 2 2
left_child=5 2 9 8 11 13 -7 -5 12 -2 16 14 15 28 -3 24 -6 18 -11 27 23 22 -22 25 -4 -21 -9 -16 -1 -28
right_child=1 4 3 7 10 6 -8 26 -10 17 -12 -13 -14 -15 19 -17 -18 -19 -20 20 21 -23 -24 -25 -26 -27 29 -29 -30 -31
leaf_value=-0.10566161660459523 0.018379518143676381 0.070832236468022752 -0.1056831510810336 0.0047182295235865205 -0.10538427306864864 -0.11181296647070103 0.062705198973033782 0.10782127011273844 -0.030397548612681916 0.10574403985956025 -0.044929122400563737 0.056506904632240909 -0.14999768720309628 -0.1414555114763279 0.10703817082999004 -0.12548608401402167 -0.11926363901520064 0.11045480349417452 0.10984418082030385 0.10596950334890685 0.10807031099689027 0.10825889722261979 0.10566968954921425 0.10916389216808807 -0.10759193394902207 0.10821479690145955 0.10676536281969902 0.10908556177579128 -0.10667030394361543 0.10565819046814927
leaf_weight=266.11707040667534 1.2426763661205793 1.5126722641289223 9.247389625757938 1.5854684822261322 0.95561013370752301 1.4710185714066022 2.0123585164546967 1.2564310543239114 2.0824325494468203 16.512449722737081 1.6338116675615308 1.6249553970992554 1.7964466586709011 1.5804129876196373 1.1890516728162759 1.7317624762654293 1.5989373214542864 1.7238699197769154 1.4191704615950573 2.7716191075742236 1.5720536075532425 1.4247294068336476 249.73840441182256 1.608286991715431 1.8216258846223343 1.3901556245982645 1.1568014472723005 1.5034802854061124 1.3005739003419865 3.6998994164168835
leaf_count=5248 20 22 182 20 20 24 20 20 24 322 20 25 20 20 20 20 20 22 20 53 23 21 4919 22 30 20 20 20 23 73
internal_value=0 0.908486 0.231743 -0.437267 1.02259 -1.04664 -0.109932 0.853898 -1.03321 1.01216 -0.871002 1.0526 -1.13724 -1.05877 1.05561 -1.08634 -1.14072 1.06453 1.06069 1.05762 1.05737 1.05699 1.05685 1.07401 -1.05997 1.06719 1.06312 1.08181 -1.05667 1.05922
internal_weight=0 313.8 45.2764 24.3783 268.524 272.481 3.48338 7.6986 16.6797 20.8982 4.18836 264.335 14.5972 268.998 262.71 12.8008 2.55455 19.6555 17.9316 261.198 258.505 252.735 251.31 5.77006 11.069 4.16177 6.11313 2.69253 267.418 4.8567
internal_count=11333 5998 793 409 5205 5335 44 133 276 384 60 5145 252 5291 5120 232 40 364 342 5098 5058 4963 4942 95 212 73 113 40 5271 93
shrinkage=0.1


Tree=23
num_leaves=31
num_cat=0
split_feature=30 21 23 13 44 12 6 36 0 34 32 35 4 18 21 5 36 36 37 19 30 47 26 45 9 25 39 31 5 12
split_gain=500.733 22.1126 21.0909 16.6472 13.7391 2.96313 1.47445 1.30003 0.951113 0.485856 0.451718 0.741755 0.195553 0.0427966 0.00857967 0.00213763 0.00180767 0.00179454 0.0024501 0.00160712 0.00119575 0.000670653 0.000499835 0.000363305 0.000307538 0.000200799 0.000186592 0.000168642 9.60236e-05 7.2737e-05
threshold=1.8452000000000002 1.3402500000000002e-06 2.0255500000000004 7.4472000000000007e-07 1.6162500000000002e-07 3.9773500000000004 2.1573000000000007 2.4781500000000007 4.4704000000000006 3.7241000000000004e-07 1.9241500000000002e-07 2.4662500000000005 7.261450000000001e-07 3.6610500000000004 1.63955e-06 2.4340500000000005 5.5797500000000015 1.8507500000000003 1.6280500000000001e-07 9.8659500000000029e-07 1.8731500000000001 2.5549500000000003 2.6927500000000001e-07 2.2327000000000004e-07 3.7700000000000005e-07 2.2431500000000003e-07 3.2609500000000006e-07 1.6024500000000002e-07 2.4310500000000004 4.7764000000000006
decision_type=2 2 2 2 2 2 2 2 2 2 2 2 2 2 2 2 2 2 2 2 2 2 2 2 2 2 2 2 2 2
left_child=5 2 8 7 10 17 22 12 -2 14 11 -3 13 23 -6 19 20 -1 -19 29 25 -22 24 -4 -5 -12 -13 -23 -18 -10
right_child=1 4 3 6 9 -7 -8 -9 15 -11 16 26 -14 -15 -16 -17 28 18 -20 -21 21 27 -24 -25 -26 -27 -28 -29 -30 -31
leaf_value=-0.10509328641896483 0.014736821695226946 0.01965651961563827 -0.10511966636450901 0.10703137445610517 -0.10507599892582598 0.0049073753358515135 -0.011091064004634258 -0.027341097446404745 0.10597402990019721 -0.041167429041977517 0.10632676841652966 0.10682382077662003 -0.14530749862955558 -0.12285072428545235 -0.1175413292984737 0.1093747026243392 0.10775973562164705 -0.11083490249669213 -0.10543053923766793 0.10887838314102403 0.10716324268610994 0.10632834528398612 0.10783338471792499 -0.10660046020842735 0.1051286321144409 0.10814845917680956 0.10509182671379998 0.10510547754102312 0.10664119502610377 0.10515915595392229
leaf_weight=241.82245173305273 1.223861221224072 1.6423815637826908 8.0969977453351039 1.1448270231485356 0.89120595157146432 2.471995171159505 1.3186870813369749 2.0836429372429839 1.1896176114678443 1.5892887786030767 1.0827291049063199 1.0756345279514792 1.5787050463259209 1.6353468224406231 1.4513756074011324 1.5744366571307171 2.470631074160337 1.2875860966742032 2.4071317724883556 1.3080001436173905 1.6043631136417378 1.1333496086299408 1.3242158330976961 2.0830969139933577 3.2923563160002232 1.3715896345674989 1.4749310314655302 227.63269750401378 1.1133517883718012 13.831605624407528
leaf_count=5244 22 20 175 20 20 20 20 24 23 20 20 20 20 20 20 22 38 21 50 20 26 22 20 39 71 20 32 4927 20 297
internal_value=0 0.901003 0.227797 -0.427195 1.01576 -1.0403 0.842959 -1.00821 1.00026 -0.838451 1.04606 0.72071 -1.12252 -1.07835 -1.12799 1.05856 1.05184 -1.05127 -1.07314 1.05516 1.05149 1.05126 1.06128 -1.05423 1.0562 1.07345 1.05822 1.05112 1.07412 1.05224
internal_weight=0 286.219 41.6854 22.5579 244.534 247.989 7.08009 15.4778 19.1275 3.93187 240.602 4.19295 13.3941 11.8154 2.34258 17.9037 236.409 245.517 3.69472 16.3292 232.825 230.37 5.7614 10.1801 4.43718 2.45432 2.55057 228.766 3.58398 15.0212
internal_count=11333 5998 793 409 5205 5335 131 278 384 60 5145 72 254 234 40 362 5073 5315 71 340 5015 4975 111 214 91 40 52 4949 58 320
shrinkage=0.1


Tree=24
num_leaves=31
num_cat=0
split_feature=30 16 36 45 20 32 0 17 18 21 5 1 47 18 30 5 28 44 31 12 47 12 23 30 12 36 46 44 18 19
split_gain=450.157 22.9003 30.5656 15.3317 2.58736 2.36272 6.13881 1.76592 0.176383 0.152751 0.125964 0.12558 0.0293758 0.0281242 0.0259282 0.00526565 0.00288305 0.00141026 0.00115838 0.00060108 0.000518879 0.000506098 0.000403398 0.000362939 0.000124375 9.7336e-05 3.90879e-05 2.34862e-05 1.81036e-05 1.03491e-05
threshold=1.8327500000000001 1.3965500000000002e-06 2.5956500000000005 3.1685500000000007e-07 3.5498000000000007e-06 1.9241500000000002e-07 4.1385500000000013 2.2650500000000005 3.7383000000000002 1.3073500000000001e-06 2.4347500000000006 5.0474500000000009e-07 2.5564500000000003 3.6679000000000004 1.8567500000000001 2.4340500000000005 3.4971000000000003e-07 1.1329500000000002e-07 1.5458500000000003e-07 2.7195500000000004 2.5549500000000003 3.7682000000000007 2.0240500000000003 1.8731500000000001 4.7180500000000007 1.8801500000000002 1.9347000000000002e-07 1.0765000000000001e-07 3.5388500000000005 1.7093000000000003e-06
decision_type=2 2 2 2 2 2 2 2 2 2 2 2 2 2 2 2 2 2 2 2 2 2 2 2 2 2 2 2 2 2
left_child=8 2 10 5 11 6 -3 12 25 -7 -2 -5 -4 17 -11 22 -8 21 -16 -20 -21 27 24 -22 -14 28 29 -12 -1 -25
right_child=1 3 7 4 -6 9 16 -9 -10 14 13 -13 15 -15 18 -17 -18 -19 19 20 23 -23 -24 26 -26 -27 -28 -29 -30 -31
leaf_value=-0.10458451618219274 -0.079682615454535144 -0.12192770165171798 0.087390059281490129 -0.14549427381998634 0.03127797569227117 0.070758933159381046 0.11025401914887108 -0.0055155820704987099 -0.14053435362100039 0.11476504152691497 -0.10459868102857786 -0.10657939641829822 0.10561371119760206 -0.11898784725173572 0.10689637849722058 0.11126308643860179 0.10473375384038718 -0.10824709119426142 0.10688450411792259 0.1064598647323669 0.10642729097915288 -0.10705882663495601 0.10655115357307016 0.10478945917910892 0.1045929924833597 -0.10553400632107764 0.10517634722022118 -0.10514458038076549 -0.10501595103040358 0.10459204784176435
leaf_weight=219.04205404594541 1.885090790688994 1.6683806236833323 0.95508310198784485 1.4041733257472508 1.6063377186655996 1.328154683113097 1.5802519693970682 1.6054111570119847 1.3737645335495461 2.567272286862134 6.6342903934419137 2.0253552161157131 1.3348683193325985 1.8094198368489731 2.2844521068036547 1.4213853962719429 2.3575302772223949 1.5236958600580681 1.1788874715566624 1.5224038213491429 1.0898863188922394 0.9991638623178003 1.2995799034833897 2.6899166405200949 11.293709125369785 1.0894109643995751 1.161217801272868 0.8943551257252691 0.976935725659131 207.98732236027718
leaf_count=5226 35 22 21 20 20 23 20 20 20 30 158 38 27 24 39 20 55 26 20 27 20 21 25 62 269 23 25 20 22 4955
internal_value=0 0.882617 0.0846805 0.991283 -0.734565 1.0295 0.388359 0.945533 -1.04813 1.0457 -1.03695 -1.22513 1.04406 -1.07511 1.04774 1.05465 1.06949 -1.05445 1.04656 1.04633 1.0462 -1.04944 1.04874 1.04607 1.04701 -1.04591 1.04598 -1.04664 -1.04586 1.04595
internal_weight=0 264.108 31.6561 232.452 5.03587 227.416 5.60616 17.91 222.482 221.81 13.746 3.42953 16.3046 11.8609 220.481 15.3495 3.93778 10.0515 217.914 215.63 214.451 8.52781 13.9282 212.928 12.6286 221.108 211.838 7.52865 220.019 210.677
internal_count=11333 6042 666 5376 78 5298 97 382 5291 5201 284 58 362 249 5178 341 75 225 5148 5109 5089 199 321 5062 296 5271 5042 178 5248 5017
shrinkage=0.1


Tree=25
num_leaves=31
num_cat=0
split_feature=30 16 18 45 20 32 0 5 21 18 42 1 30 12 43 28 31 12 23 12 47 30 44 12 36 46 30 17 12 24
split_gain=404.981 20.7941 27.4213 13.8794 2.36331 2.1476 5.49292 1.67775 0.174884 0.146918 0.124175 0.101338 0.0190704 0.0180028 0.0156425 0.00209515 0.000845976 0.000592748 0.000571418 0.000438522 0.000378513 0.000265342 0.000200259 7.52659e-05 7.15642e-05 2.8567e-05 2.04775e-05 1.69485e-05 1.33621e-05 1.11941e-05
threshold=1.8327500000000001 1.3965500000000002e-06 4.0970000000000004 3.1685500000000007e-07 3.5498000000000007e-06 1.9241500000000002e-07 4.1385500000000013 2.4343500000000007 1.3073500000000001e-06 3.7383000000000002 1.6410500000000001 5.0474500000000009e-07 1.8567500000000001 4.0052500000000011 9.8090500000000014e-08 3.4971000000000003e-07 1.5458500000000003e-07 3.7265500000000005 2.0240500000000003 2.7195500000000004 2.5549500000000003 1.8731500000000001 1.0988500000000002e-07 4.7180500000000007 1.8801500000000002 1.9347000000000002e-07 2.8290000000000002 2.2627500000000005 3.7682000000000007 2.4358500000000007
decision_type=2 2 2 2 2 2 2 2 2 2 2 2 2 2 2 2 2 2 2 2 2 2 2 2 2 2 2 2 2 2
left_child=9 2 10 5 11 6 -3 18 -7 24 -2 -5 -10 14 17 -8 -14 22 23 -18 -21 -22 29 -4 28 -23 -25 -28 -1 -12
right_child=1 3 7 4 -6 8 15 -9 12 -11 13 -13 16 -15 -16 -17 19 -19 -20 20 21 25 -24 26 -26 -27 27 -29 -30 -31
leaf_value=-0.10412933890148768 -0.06750827365433075 -0.11983700395094239 0.10505209774260603 -0.14240768719048705 0.028168944516206485 0.06700938906127879 0.10919277960254103 0.013700722492396936 0.11325078429323412 -0.13836871721711502 -0.10414505585708572 -0.10592155281255169 0.10619988319341356 -0.11906396082779198 -0.11645328762723933 0.10426340573788398 0.10618817925017117 -0.10679146150999688 0.10642442846345071 0.10580826810092428 0.10578092296042758 0.10413827392001346 -0.10565773901706527 0.10469282061591934 -0.10498302882764249 0.10465991255739469 0.10415107231544272 0.10461140160567722 -0.10453672400064529 -0.10449563756547897
leaf_weight=199.09933202341199 0.82902203500271099 1.5346006006002415 1.2139663286507154 1.296687385067343 1.6053289324045179 1.2655612155795086 1.4430561251938345 2.3698973655700675 2.3524309210479251 1.2615100145339955 5.5695952363312227 1.8434176538139579 2.0799215137958518 1.2205238491296757 1.3035440929234017 2.1423137560486794 1.0733388848602761 1.2067089993506668 1.4066445156931866 1.3855777792632569 0.99188803136348624 191.42129332199693 1.1019612811505792 0.86684476211666961 0.99064913764595874 1.0556333363056172 10.0213184133172 0.86919295415282316 0.80839340761303813 1.0888198539614675
leaf_count=5228 20 22 27 20 20 23 20 25 30 20 146 38 39 20 20 55 20 25 28 27 20 5017 24 21 23 25 262 21 20 27
internal_value=0 0.876609 0.0835637 0.985607 -0.7053 1.02442 0.384835 0.916601 1.04066 -1.04349 -1.04886 -1.20988 1.043 -1.07582 -1.06218 1.06247 1.04194 -1.0473 1.0451 1.04172 1.04161 1.0415 -1.04409 1.04302 -1.04135 1.04141 1.04225 1.04188 -1.04131 -1.04202
internal_weight=0 240.559 29.068 211.491 4.74543 206.746 5.11997 16.7479 201.626 202.16 12.3202 3.14011 200.36 11.4912 10.2706 3.58537 198.008 8.96709 14.378 195.928 194.854 193.469 7.76038 12.9713 200.898 192.477 11.7574 10.8905 199.908 6.65842
internal_count=11333 6042 666 5376 78 5298 97 384 5201 5291 282 58 5178 262 242 75 5148 222 359 5109 5089 5062 197 331 5271 5042 304 283 5248 173
shrinkage=0.1


Tree=26
num_leaves=31
num_cat=0
split_feature=30 21 23 45 13 6 35 12 43 12 27 17 47 2 18 5 19 11 15 18 30 6 5 13 0 26 36 32 21 30
split_gain=364.488 18.9133 16.5766 12.6008 12.5336 1.21839 1.15105 0.981796 0.485273 0.495543 0.467845 0.335367 0.240523 0.137468 0.121333 0.0458049 0.0366888 0.126622 0.0253237 0.0197561 0.0141035 0.00294563 0.00168419 0.000739602 0.000297511 0.000278251 0.000253591 0.000211518 0.000200834 0.00019164
threshold=1.8327500000000001 1.3402500000000002e-06 2.0255500000000004 3.4631500000000007e-07 7.4472000000000007e-07 2.1573000000000007 2.4672500000000004 4.6285500000000006 1.1219000000000001e-07 3.9293500000000003 3.3671500000000003e-07 2.2638500000000001 2.5547500000000007 5.3055500000000008e-07 3.7383000000000002 2.4347500000000006 1.6060500000000003e-06 2.5376500000000006 1.5410000000000004e-06 3.6610500000000004 1.8567500000000001 2.6924000000000006 2.4340500000000005 4.0285500000000007e-07 3.4639000000000002 2.6927500000000001e-07 5.5797500000000015 1.9455500000000001e-07 1.3073500000000001e-06 1.8731500000000001
decision_type=2 2 2 2 2 2 2 2 2 2 2 2 2 2 2 2 2 2 2 2 2 2 2 2 2 2 2 2 2 2
left_child=14 2 7 8 6 25 11 -2 10 -10 -3 -4 -13 15 -1 -14 17 27 20 24 -18 -5 23 -9 -17 28 29 -12 -6 -22
right_child=1 3 4 21 5 -7 -8 22 9 -11 16 12 13 -15 -16 19 18 -19 -20 -21 26 -23 -24 -25 -26 -27 -28 -29 -30 -31
leaf_value=-0.10372625183136396 0.003549435338273451 0.042277510831030665 -0.06109712547713806 -0.10530402076604446 0.1054238323561936 -0.011603478695886389 -0.0028835693838678103 0.10380531183856936 -0.003860535345321753 0.10445648247226919 0.10375595068667215 -0.16317058970877571 -0.081091908775018484 -0.14051085081573986 -0.13618664757585539 -0.10391747640257434 0.1119018451695359 0.062074366752871125 0.11853232748029306 -0.11746048177083442 0.10520269692682144 -0.11178191728284137 0.10781280321432124 0.10660849196654694 -0.1057449329502904 0.10610454285721233 0.10543891296541459 0.10549707656454427 0.10373814788789631 0.10374139590192669
leaf_weight=182.46048071235418 1.0387139245867718 1.246689237654208 1.3946238737553383 1.6650372296571725 1.0027585364878171 1.1307466141879556 1.1605583932250727 11.327305667102335 0.85756034404039261 0.83227734640240669 1.4636706002056596 0.88503427989780803 0.7761405110359173 1.1921239532530297 1.158830216154455 5.2777775544673204 2.152911737561225 0.93481017276644673 1.1839754171669472 1.3715815898030994 0.90217845886945613 1.2135880123823879 1.3071917071938504 1.0265290178358544 1.0717689953744409 1.0407622158527372 0.89266603067517181 1.3333208374679086 2.3945285454392433 170.96011367440224
leaf_count=5271 21 20 26 38 22 20 21 322 20 21 42 20 20 20 20 149 30 20 20 20 20 21 22 20 26 20 20 27 69 4925
internal_value=0 0.870941 0.178157 0.99558 -0.446496 0.810638 -0.979698 0.972732 1.02828 0.494877 1.03326 -1.0719 -1.13269 -1.08711 -1.03931 -1.04249 1.03749 0.939369 1.03957 -1.06577 1.03858 -1.08035 1.04399 1.04038 -1.04226 1.04674 1.03758 1.04586 1.04236 1.03749
internal_weight=0 219.037 33.3981 185.639 18.6984 5.5688 13.1296 14.6997 182.76 1.68984 181.07 11.9691 10.5744 9.68939 183.619 8.49727 179.824 3.7318 176.092 7.72113 174.908 2.87863 13.661 12.3538 6.34955 4.43805 172.755 2.79699 3.39729 171.862
internal_count=11333 6042 818 5224 433 131 302 385 5165 41 5124 281 255 235 5291 215 5104 89 5015 195 4995 59 364 342 175 111 4965 69 91 4945
shrinkage=0.1


Tree=27
num_leaves=31
num_cat=0
split_feature=30 21 36 31 43 17 35 32 44 19 11 2 18 47 15 12 30 23 6 21 12 5 47 38 30 46 9 12 19 34
split_gain=328.014 17.3128 14.868 12.0592 11.3647 1.56909 1.07886 0.51514 0.703604 0.305128 0.224939 0.107183 0.0993192 0.0303722 0.0194036 0.0160264 0.0103836 0.00502166 0.000712178 0.000377204 0.000430953 0.000262169 0.000210193 0.000173798 0.000141115 0.000119336 0.00010578 9.63995e-05 6.11218e-05 5.93063e-05
threshold=1.8327500000000001 1.3402500000000002e-06 2.5956500000000005 1.5664500000000001e-07 1.1918000000000001e-07 2.2650500000000005 2.4649500000000004 1.9241500000000002e-07 8.9331500000000008e-08 1.6060500000000003e-06 2.5386500000000005 5.3055500000000008e-07 3.7383000000000002 2.5563500000000006 1.5410000000000004e-06 4.0208500000000011 1.8567500000000001 2.0244500000000003 2.6924000000000006 9.7945500000000014e-07 3.4042500000000007 2.4337500000000003 2.5551500000000007 3.1912000000000001e-07 1.8731500000000001 1.9347000000000002e-07 3.7700000000000005e-07 4.7180500000000007 1.9823500000000002e-06 2.7342500000000005e-07
decision_type=2 2 2 2 2 2 2 2 2 2 2 2 2 2 2 2 2 2 2 2 2 2 2 2 2 2 2 2 2 2
left_child=12 2 3 10 7 13 -5 8 -3 -9 -2 15 -1 -4 16 19 -11 21 23 -12 -21 27 28 -6 -24 -26 -8 -15 -18 -28
right_child=1 4 5 6 18 -7 26 9 -10 14 11 -13 -14 17 -16 -17 22 -19 -20 20 -22 -23 24 -25 25 -27 29 -29 -30 -31
leaf_value=-0.10335913921335725 -0.053977853117761203 0.10370658372582064 0.084135760855406957 -0.0030028148567291116 -0.10334568152490292 -0.0062162744689180432 0.10494928474261896 0.062826421305815464 0.0083811555862616429 0.11069823917552649 -0.10346897104140269 -0.13586691786383495 -0.1339978383319429 0.10440766995001477 0.11689430877192278 -0.11634575416384273 0.10492269564408818 0.11008395300034279 -0.10808114730284135 -0.10360692414378843 -0.10616231687752796 0.10519352743631122 0.1046848354617252 -0.10545359082722648 0.10336302485065521 0.10452720178362784 0.1033925886121186 0.10336214722614204 0.10381634371683211 0.10433902274164289
leaf_weight=165.65357307344675 0.78521637991071358 1.7819144465029233 0.7922416515648355 1.2375872209668148 0.61548143811523859 1.4620816186070431 0.82864939793944381 1.8592943996191014 1.3693191967904565 1.9681312255561338 5.2749794423580152 1.341292643919586 1.0648176819086064 0.98036592639982412 1.0855514835566271 1.2029256783425806 1.0705683454871171 1.3548456504940976 0.97366982698440541 1.2722163870930674 1.3713191412389276 0.96683848835527963 0.82015698961913475 1.0731534548103807 154.366580106318 0.88556094467639823 2.1880788262933497 8.7782363053411228 0.93589137494564034 0.9493635781109333
leaf_count=5271 20 53 20 21 20 20 20 36 20 30 164 21 20 25 20 20 25 22 21 39 31 23 20 23 4906 23 69 279 27 24
internal_value=0 0.864688 0.175041 -0.473649 0.990463 0.919533 0.785092 1.02331 0.622844 1.03105 -1.05598 -1.09473 -1.03555 1.03104 1.0357 -1.05591 1.0348 1.04347 -1.05927 -1.03958 -1.04933 1.03623 1.0339 -1.04685 1.03377 1.0337 1.03944 1.03467 1.04407 1.03679
internal_weight=0 199.592 30.7862 16.4516 168.805 14.3346 5.20368 166.143 3.15123 162.992 11.2479 10.4627 166.718 12.8725 161.132 9.12144 160.047 12.0803 2.6623 7.91851 2.64354 10.7254 158.079 1.68863 156.072 155.252 3.96609 9.7586 2.00646 3.13744
internal_count=11333 6042 818 429 5224 389 134 5160 73 5087 295 275 5291 369 5051 254 5031 349 64 234 70 327 5001 43 4949 4929 113 304 52 93
shrinkage=0.1


Tree=28
num_leaves=31
num_cat=0
split_feature=30 16 12 45 47 39 32 0 21 42 18 13 33 5 30 18 28 31 23 12 12 47 30 12 44 36 24 17 19 46
split_gain=295.317 15.8358 20.2461 10.7618 2.03504 1.84157 1.78192 4.317 0.169495 0.131332 0.0805802 0.0555687 0.0116723 0.0104067 0.00760374 0.00327339 0.00119944 0.000438654 0.000337867 0.000266471 0.00019043 0.000149052 0.000103973 5.40387e-05 4.68498e-05 2.90995e-05 2.23854e-05 1.67505e-05 1.27406e-05 9.98707e-06
threshold=1.8327500000000001 1.3965500000000002e-06 4.5223000000000004 3.1685500000000007e-07 2.5568500000000003 4.8009500000000004e-07 1.9241500000000002e-07 4.1385500000000013 1.3073500000000001e-06 1.6410500000000001 3.7383000000000002 8.8139000000000009e-07 2.9993500000000005e-07 2.4342500000000005 1.8567500000000001 3.7541000000000007 3.4971000000000003e-07 1.5458500000000003e-07 2.0240500000000003 2.7195500000000004 3.8053500000000002 2.5549500000000003 1.8731500000000001 4.7180500000000007 1.0988500000000002e-07 1.8801500000000002 2.5224500000000005 2.2627500000000005 1.7093000000000003e-06 1.9347000000000002e-07
decision_type=2 2 2 2 2 2 2 2 2 2 2 2 2 2 2 2 2 2 2 2 2 2 2 2 2 2 2 2 2 2
left_child=10 2 9 6 -4 11 7 -3 -8 -2 25 -5 15 18 -10 20 -9 -16 23 -19 24 -21 -23 -6 26 -1 -11 -25 -24 -30
right_child=1 3 4 5 13 -7 8 16 14 12 -12 -13 -14 -15 17 -17 -18 19 -20 21 -22 22 28 27 -26 -27 -28 -29 29 -31
leaf_value=-0.10302618668289878 -0.059864559981619374 -0.1169257027425523 -0.012015297854213987 -0.13447493444176675 0.10389750541290613 0.026666930172999072 0.062062364235450029 0.10737721551961038 0.10962277344682014 -0.10308974333596362 -0.13181761547032167 -0.10464458917608568 -0.11557197640362243 0.11236218244992811 0.10471345546757152 -0.1093544875763512 0.10320083312524415 0.10482804849501702 0.10518616128869318 0.10424250425283771 -0.10502904271042349 0.10422055918780466 0.10329442735832495 0.10305254711346422 -0.10397292384079915 -0.10365319509622616 -0.10370320154947071 0.10357335831366424 0.10303094229082251 0.10338829070150593
leaf_weight=149.60110021755099 0.67602925188839691 1.2720387019217003 1.7273764442652453 1.133347552269697 0.94435738958418003 1.3497432079166172 1.0103792715817679 1.1858357489109042 1.7974159121513356 4.6057907249778491 0.9786185659468164 1.3908030297607181 1.03318758867681 1.4835268706083287 1.6247727163135994 1.0916866511106489 1.6369263958185909 0.84873567521572013 0.93022587336599905 1.0424093790352333 0.69212102144956578 0.74524598754942306 1.8877334557473648 7.2206524834036827 0.83996629714965809 0.74386204406618972 0.68304862082004536 0.6752956099808215 141.46469369530678 0.78643372096121211
leaf_count=5248 20 22 36 20 27 21 23 20 30 159 20 37 20 21 39 20 55 20 24 27 20 20 62 252 25 23 21 21 4955 25
internal_value=0 0.858914 0.0756619 0.970137 0.890464 -0.676202 1.0112 0.360286 1.02883 -1.02364 -1.03215 -1.18038 -1.05576 1.04558 1.03158 -1.0427 1.04955 1.03079 1.03373 1.03061 -1.03457 1.03051 1.03042 1.03183 -1.03279 -1.03029 -1.03169 1.03097 1.03036 1.03033
internal_weight=0 181.78 22.6033 159.177 12.9814 3.87389 155.303 4.0948 151.208 9.62183 151.324 2.52415 8.9458 11.2541 150.197 7.91261 2.82276 148.4 9.77053 146.775 6.82093 145.927 144.884 8.84031 6.12881 150.345 5.28884 7.89595 144.139 142.251
internal_count=11333 6042 666 5376 381 78 5298 97 5201 285 5291 57 265 345 5178 245 75 5148 324 5109 225 5089 5062 300 205 5271 180 273 5042 4980
shrinkage=0.1


Tree=29
num_leaves=31
num_cat=0
split_feature=30 21 23 31 45 18 36 0 24 43 17 38 14 19 2 15 18 0 36 22 5 1 35 36 31 32 21 30 44 30
split_gain=266.067 11.9308 10.8974 8.95531 7.02736 4.83654 0.918878 0.75599 0.751262 0.458752 0.431241 0.371859 0.0695013 0.0510979 0.142093 0.0148476 0.0102254 0.00527932 0.00168282 0.000900179 0.000781162 0.000370249 0.000205904 0.000140046 0.000139886 9.44287e-05 9.31216e-05 7.65069e-05 6.45768e-05 3.64797e-05
threshold=1.8567500000000001 1.3402500000000002e-06 2.0255500000000004 1.5664500000000001e-07 3.4631500000000007e-07 3.9188000000000005 2.4781500000000007 4.4704000000000006 1.8946000000000003 1.1219000000000001e-07 2.2674500000000006 2.1679500000000003e-07 1.0488500000000003e-06 1.6060500000000003e-06 9.3960500000000011e-07 1.5410000000000004e-06 3.6436000000000006 2.6044500000000004 1.9105500000000004 4.5634500000000003e-06 2.4340500000000005 1.9837500000000003e-07 2.4652500000000006 5.5797500000000015 1.6024500000000002e-07 1.9455500000000001e-07 1.3073500000000001e-06 1.8731500000000001 1.0988500000000002e-07 1.8452000000000002
decision_type=2 2 2 2 2 2 2 2 2 2 2 2 2 2 2 2 2 2 2 2 2 2 2 2 2 2 2 2 2 2
left_child=5 2 7 6 9 18 12 -2 17 11 -11 -3 16 14 -13 23 28 22 29 -6 21 -9 -5 24 -15 -16 -24 -26 -4 -1
right_child=1 4 3 8 19 -7 -8 20 -10 10 -12 13 -14 15 25 -17 -18 -19 -20 -21 -22 -23 26 -25 27 -27 -28 -29 -30 -31
leaf_value=-0.10273204069264391 0.003828803772722269 0.045306691727545131 -0.10280371547195544 0.1051344873405396 -0.10345747246970803 0.049457861260250612 -0.02649064301014499 0.10287952050700062 0.00040122163748807594 0.10332624877518222 -0.0096796505521628707 0.052737405170768636 -0.13136482021030724 0.10400929347818177 0.1028447424434243 0.11533985712945079 -0.11391911809463634 0.093083468798876245 -0.10706870047436055 -0.10816333998150128 0.10599469537122651 0.10510113003077189 0.104140690811033 0.10418491129986696 0.10380394106515115 0.1042694575975238 0.10274947356655416 0.10273797607359632 -0.1037515626422124 -0.10350520920413556
leaf_weight=137.281195146963 0.82343803532421844 1.1437459252774704 4.3853868879377824 0.85651959478855122 0.72460576333105453 2.1191611252725115 1.6542674731463192 8.5900696162134373 0.92074237950146176 0.6389994341880072 0.71615052968263626 0.77294384874403421 1.1622396456077693 0.87924673594534286 0.83191712014377106 0.94505300000309844 1.0161681920289991 0.54261448234319676 0.90208686143159755 0.92590287700295459 1.0140711050480593 0.82194759137928564 0.7829431034624581 0.68596813082694907 0.67689485289156337 1.0553761050105093 1.2481017187237737 127.11827567964792 0.8596949130296706 0.61296806298196216
leaf_count=5306 22 25 166 20 25 33 24 320 21 21 20 20 20 27 31 20 20 21 20 20 22 20 22 20 20 27 48 4903 27 22
internal_value=0 0.874783 0.234695 -0.373517 0.989987 -1.00474 -0.938877 0.960724 0.806049 1.01498 0.436065 1.02083 -1.08907 1.02571 0.88851 1.02851 -1.04738 1.02134 -1.02764 -1.06097 1.03358 1.03074 1.03834 1.0276 1.02752 1.03641 1.03286 1.02744 -1.02959 -1.02735
internal_weight=0 161.793 24.6782 13.4287 137.115 140.915 9.07776 11.2495 4.35092 135.465 1.35515 134.109 7.42349 132.966 2.66024 130.305 6.26125 3.43018 138.796 1.65051 10.4261 9.41202 2.88756 129.36 128.674 1.88729 2.03104 127.795 5.24508 137.894
internal_count=11333 5952 773 389 5179 5381 257 384 132 5134 41 5093 233 5068 78 4990 213 111 5348 45 362 340 90 4970 4950 58 70 4923 193 5328
shrinkage=0.1


Tree=30
num_leaves=31
num_cat=0
split_feature=30 16 12 45 47 24 47 21 6 4 42 18 19 33 23 30 18 5 31 13 12 12 32 30 12 18 35 19 36 42
