tree
version=v3
num_class=1
num_tree_per_iteration=1
label_index=0
max_feature_idx=69
objective=binary sigmoid:1
feature_names=Column_0 Column_1 Column_2 Column_3 Column_4 Column_5 Column_6 Column_7 Column_8 Column_9 Column_10 Column_11 Column_12 Column_13 Column_14 Column_15 Column_16 Column_17 Column_18 Column_19 Column_20 Column_21 Column_22 Column_23 Column_24 Column_25 Column_26 Column_27 Column_28 Column_29 Column_30 Column_31 Column_32 Column_33 Column_34 Column_35 Column_36 Column_37 Column_38 Column_39 Column_40 Column_41 Column_42 Column_43 Column_44 Column_45 Column_46 Column_47 Column_48 Column_49 Column_50 Column_51 Column_52 Column_53 Column_54 Column_55 Column_56 Column_57 Column_58 Column_59 Column_60 Column_61 Column_62 Column_63 Column_64 Column_65 Column_66 Column_67 Column_68 Column_69
feature_infos=[3.1329000000000002e-08:2.5863000000000001e-06] [3.7291000000000002e-07:4.0625999999999999e-06] [2.7291000000000003e-07:2.9789e-06] [2.7987999999999999e-07:3.0645000000000001e-06] [1.7520999999999999e-07:2.1498000000000002e-06] [2.2065999999999999e-13:2.9145e-11] [4.6974000000000002e-07:5.3985000000000001e-06] [3.4424999999999998e-07:3.963e-06] [2.4719000000000002:2.5518999999999998] [7.7098000000000004:8.3271999999999995] [1.5034000000000001e-08:1.3398000000000001e-06] [1.8103e-07:2.277e-06] [1.8491000000000001e-07:2.3443999999999999e-06] [1.3503000000000001e-07:1.7805999999999999e-06] [7.1389000000000005e-08:1.2436e-06] [5.1803e-14:1.3036999999999999e-11] [2.276e-07:3.6106000000000002e-06] [2.3326000000000001e-07:3.6973000000000002e-06] [2.5718999999999999:2.585] [6.8647:8.3597000000000001] [8.6256999999999993e-09:8.6705000000000002e-07] [1.1066e-07:1.6336999999999999e-06] [1.4210999999999999e-07:2.1046000000000001e-06] [8.3030999999999998e-08:1.3096999999999999e-06] [3.3419999999999998e-08:9.1263000000000004e-07] [1.9393999999999999e-14:7.5404000000000005e-12] [1.3925999999999999e-07:2.7458999999999998e-06] [1.7891999999999999e-07:3.5395000000000002e-06] [2.2406000000000001:2.4258999999999999] [7.1985999999999999:8.3012999999999995] [6.6437000000000001e-09:7.0834999999999996e-07] [7.7562000000000003e-08:1.0953999999999999e-06] [1.1719000000000001e-07:1.6374e-06] [5.8012999999999998e-08:8.5448999999999997e-07] [2.8384999999999999e-08:6.1717999999999997e-07] [9.5064e-15:3.2779e-12] [9.7498000000000004e-08:1.8105000000000001e-06] [1.4735000000000001e-07:2.7269999999999999e-06] [2.1469:2.3896000000000002] [6.6059000000000001:8.2297999999999991] [5.0065e-09:4.6647999999999998e-07] [5.6874999999999998e-08:7.4878000000000001e-07] [9.6693000000000004e-08:1.2772e-06] [4.2925000000000002e-08:5.6382999999999999e-07] [2.2673000000000001e-08:3.9214000000000002e-07] [5.1228999999999997e-15:1.3963e-12] [7.1573000000000002e-08:1.1816e-06] [1.2148e-07:2.0009000000000002e-06] [2.5758999999999999:2.585] [7.5715000000000003:8.3659999999999997] [4.6353999999999999e-09:3.5526999999999998e-07] [4.7507000000000003e-08:5.6047999999999995e-07] [8.7600000000000004e-08:1.0298000000000001e-06] [3.5692e-08:4.2257e-07] [1.8559999999999999e-08:3.0219999999999999e-07] [3.5132e-15:5.3311999999999995e-13] [5.9270000000000001e-08:7.3014000000000005e-07] [1.0937000000000001e-07:1.3391e-06] [2.5063:2.5686] [7.3048999999999999:8.4453999999999994] [4.9734999999999998e-09:2.4960000000000001e-07] [4.3108999999999999e-08:4.0741000000000002e-07] [8.3725000000000004e-08:7.9123000000000002e-07] [3.2421999999999997e-08:3.0716000000000001e-07] [1.9440000000000001e-08:2.1605000000000001e-07] [2.9110000000000002e-15:2.9064000000000001e-13] [5.3951999999999999e-08:5.3909999999999995e-07] [1.0485e-07:1.0471000000000001e-06] [2.1844999999999999:2.2444999999999999] [8.0555000000000003:8.3734999999999999]
tree_sizes=3315 3316 3317 3329 3327 3324 3313 3326 3323 3331 3325 3328 3337 3355 3324 3350 3351 3334 3330 3350 3332 3348 3339 3318 3352 3357 3334 3357 3367 3366 3347 3358 3357 3373 3349 3363 3368 3377 3381 3379 3364 3408 3386 3406 3371 3391 3392 3416 3394 3401 3409 3414 3408 3406 3390 3417 3450 3423 3436 3430 3421 3468 3470 3452 3480 3494 3450 3491 3484 3478 3479 3472 3468 3472 3478 3490 3497 3469 3487 3497 3516 3497 3509 3518 3509 3530 3542 3527 3533 3499 3560 3538 3561 3549 3533 3533 3545 3550 3563 3538

Tree=0
num_leaves=31
num_cat=0
split_feature=1 58 8 13 1 18 0 58 20 58 19 22 58 28 9 3 8 9 18 54 0 19 69 29 69 4 38 48 49 68
split_gain=9903.53 942.122 449.339 86.2023 50.9256 89.7779 45.4277 44.9783 9.96934 5.10058 4.63509 4.5556 1.9473 5.74643 3.11191 1.19331 0.609915 1.08001 0.501248 0.354589 0.419052 0.179393 0.180815 0.165697 0.0617978 0.731578 0.181489 0.115161 0.0126312 0.186534
threshold=2.6971000000000004e-06 2.5207500000000005 2.4978000000000002 9.6823500000000023e-07 2.6445000000000003e-06 2.5842500000000004 2.2712000000000004e-06 2.5241500000000001 4.8245000000000004e-07 2.5210500000000002 8.2452500000000022 9.3260500000000011e-07 2.5220500000000006 2.4180500000000005 8.2470500000000015 1.9872000000000006e-06 2.4838500000000008 8.2300500000000021 2.5834500000000005 8.8381500000000016e-08 1.9896500000000005e-06 8.2809500000000025 8.3268500000000021 8.2231500000000022 8.3087500000000016 1.4077500000000004e-06 2.3593500000000005 2.5776500000000007 8.2713500000000018 2.2188500000000002
decision_type=2 2 2 2 2 2 2 2 2 2 2 2 2 2 2 2 2 2 2 2 2 2 2 2 2 2 2 2 2 2
left_child=4 10 3 -3 15 -6 9 -8 -7 -5 -2 -11 13 14 16 -1 17 -13 -14 20 -20 22 23 24 27 -26 -27 -21 29 -29
right_child=1 2 -4 6 5 8 7 -9 -10 11 -12 12 18 -15 -16 -17 -18 -19 19 21 -22 -23 -24 -25 25 26 -28 28 -30 -31
leaf_value=-0.2060833734407202 -0.1060822349790442 -0.17531379237558914 -0.2060833734407202 0.1161425171580136 -0.2060833734407202 0.19392118040598388 -0.20608337344072025 0.19392118040598383 0.013919131174967009 0.11392026963664303 -0.2060833734407202 0.19392118040598388 0.16725421014953692 0.073919814251972624 0.12905557707949131 -0.1660829180560498 0.19392118040598388 0.13392049732897821 0.15392072502131349 0.18215634058696314 0.19392118040598383 0.17487334450852177 0.17487334450852177 0.17652967806482281 0.15392072502131343 0.17487334450852177 0.19392118040598388 0.17392095271364866 0.19392118040598388 0.19392118040598388
leaf_weight=1335.2347988635302 4.9999430775642386 6.4999260008335105 29.499664157629013 8.9998975396156293 22.249746695160866 7.9999089241027814 5.7499345391988737 5.4999373853206635 4.9999430775642395 7.4999146163463584 63.499277085065842 7.4999146163463575 7.4999146163463584 4.9999430775642386 9.2498946934938413 7.4999146163463584 69.249211624264717 4.9999430775642395 4.9999430775642377 8.4999032318592054 5.4999373853206635 5.2499402314424506 5.2499402314424506 5.7499345391988745 4.9999430775642386 5.2499402314424506 105.99879324436188 4.9999430775642386 1120.4872436821461 69.249211624264717
leaf_count=5341 20 26 118 36 89 32 23 22 20 30 254 30 30 20 37 30 277 20 20 34 22 21 21 23 20 21 424 20 4482 277
internal_value=0 1.70716 1.87133 1.94815 -1.95988 -0.773394 1.96414 -0.0376881 1.31446 1.9795 -1.92027 1.98413 1.98816 1.85053 1.90788 -1.99103 1.97008 1.76678 1.99792 1.99935 1.8163 2.00079 2.00152 2.00225 2.00299 1.98097 1.99779 2.00512 2.00594 1.99331
internal_weight=0 1581.98 1513.48 1483.98 1377.98 35.2496 1477.48 11.2499 12.9999 1466.23 68.4992 1457.23 1449.73 95.9989 90.999 1342.73 81.7491 12.4999 1353.73 1346.23 10.4999 1335.73 1330.48 1325.23 1319.48 116.249 111.249 1203.24 1194.74 74.2492
internal_count=11840 6328 6054 5936 5512 141 5910 45 52 5865 274 5829 5799 384 364 5371 327 50 5415 5385 42 5343 5322 5301 5278 465 445 4813 4779 297
shrinkage=1


Tree=1
num_leaves=31
num_cat=0
split_feature=1 58 8 13 1 18 0 58 20 22 41 58 58 28 9 3 8 68 18 54 38 19 69 39 11 19 5 49 19 69
split_gain=8107.74 770.75 367.598 71.3635 41.8833 73.4905 37.0874 36.8254 8.22175 4.99159 4.52373 4.31903 1.62717 4.7817 2.61469 1.01154 0.514825 1.16819 0.422561 0.298154 0.47553 0.151175 0.152374 0.145585 0.096021 0.0584716 0.60967 0.227944 0.555366 0.0564342
threshold=2.6971000000000004e-06 2.5207500000000005 2.4978000000000002 9.6156500000000013e-07 2.6445000000000003e-06 2.5842500000000004 2.2712000000000004e-06 2.5241500000000001 4.8245000000000004e-07 9.3260500000000011e-07 3.0293500000000006e-07 2.5210500000000002 2.5220500000000006 2.4180500000000005 8.2470500000000015 1.9872000000000006e-06 2.4838500000000008 2.2264500000000003 2.5834500000000005 8.8381500000000016e-08 2.3560500000000002 8.2809500000000025 8.3268500000000021 8.1447500000000019 1.3016000000000002e-06 8.2661500000000014 1.2804000000000001e-11 8.2752500000000015 8.2703500000000023 8.3223500000000019
decision_type=2 2 2 2 2 2 2 2 2 2 2 2 2 2 2 2 2 2 2 2 2 2 2 2 2 2 2 2 2 2
left_child=4 10 3 -3 15 -6 9 -8 -7 -5 -2 -11 13 14 16 -1 17 -13 -14 20 -20 22 23 24 -21 29 -27 28 -28 -26
right_child=1 2 -4 6 5 8 7 -9 -10 11 -12 12 18 -15 -16 -17 -18 -19 19 21 -22 -23 -24 -25 25 26 27 -29 -30 -31
leaf_value=-0.18137652153546771 -0.082660286814385434 -0.18391935785546271 -0.18137652153546771 0.09956536300107055 -0.18137652153546771 0.1823722805448775 -0.18137652153546777 0.18237228054487742 0.018609014101532966 0.11099447371144494 -0.18188566333093678 0.18526482874094571 0.15774485852606046 0.072710617483169565 0.12275718093134075 -0.14442113012250832 0.18237228054487747 0.12261832449675181 0.18512451779792835 0.16841313005061562 0.14234629827117454 0.16476272468712408 0.16476272468712408 0.16689920262928437 0.18240336789607262 0.14891219109851603 0.14216495892229805 0.18242532803976338 0.1826904453340982 0.17665257972453682
leaf_weight=1321.1726334095001 4.9569541215896598 5.4579550623893729 29.188985347747803 7.7238081693649283 22.015421152114868 7.9252581596374494 5.6893784999847394 5.4486149847507477 4.999757707118988 8.969717860221861 62.859533190727234 7.4506374001502973 7.4477925896644583 4.9931761622428885 9.2115912437438947 7.448517680168151 68.603015944361687 4.9569406807422638 5.4641090333461744 5.2022243142127982 4.9550079107284546 5.2100664675235739 5.2100664675235739 6.4396703392267218 1083.3199419528246 5.9450776875019065 4.9541750699281684 179.8149149864912 10.653318062424658 17.337363004684448
leaf_count=5341 20 22 118 31 89 32 23 22 20 36 254 30 30 20 37 30 277 20 22 21 20 21 21 26 4374 24 20 726 43 70
internal_value=0 1.55117 1.70029 1.77005 -1.78327 -0.702536 1.78349 -0.0343359 1.19024 1.79742 -1.74633 1.8017 1.80602 1.6797 1.73242 -1.81169 1.78982 1.60237 1.81498 1.81631 1.64781 1.81763 1.8183 1.81898 1.81972 1.82026 1.80459 1.81419 1.69827 1.82313
internal_weight=0 1567.46 1499.65 1470.46 1363.56 34.9404 1465 11.138 12.925 1453.86 67.8165 1446.14 1437.17 95.2154 90.2222 1328.62 81.0106 12.4076 1341.95 1334.51 10.4191 1324.09 1318.88 1313.67 1307.23 1302.02 201.367 195.422 15.6075 1100.66
internal_count=11840 6328 6054 5936 5512 141 5914 45 52 5869 274 5838 5802 384 364 5371 327 50 5418 5388 42 5346 5325 5304 5278 5257 813 789 63 4444
shrinkage=0.1


Tree=2
num_leaves=31
num_cat=0
split_feature=1 58 8 13 1 18 0 58 20 29 19 58 48 49 69 38 12 27 3 18 54 49 19 29 69 69 4 38 48 28
split_gain=6757.03 641.844 306.144 59.5633 35.2426 61.1867 30.8944 30.7018 7.00088 4.38849 4.34761 2.73062 6.17622 2.13938 6.4639 1.42098 1.57291 1.12723 0.919719 0.390537 0.27826 0.439838 0.253347 0.14795 0.142186 0.0524324 0.651872 0.162554 0.103268 0.0414731
threshold=2.6971000000000004e-06 2.5207500000000005 2.4978000000000002 9.6823500000000023e-07 2.6445000000000003e-06 2.5842500000000004 2.2712000000000004e-06 2.5241500000000001 4.8245000000000004e-07 8.1723500000000016 8.2842500000000019 2.5220500000000006 2.5786500000000001 8.2952500000000011 8.283450000000002 2.3644500000000002 1.3832500000000001e-06 1.1679500000000002e-06 1.9872000000000006e-06 2.5834500000000005 8.8381500000000016e-08 8.2845500000000012 8.2762500000000028 8.2231500000000022 8.3268500000000021 8.3087500000000016 1.4077500000000004e-06 2.3593500000000005 2.5776500000000007 2.4172500000000006
decision_type=2 2 2 2 2 2 2 2 2 2 2 2 2 2 2 2 2 2 2 2 2 2 2 2 2 2 2 2 2 2
left_child=4 9 3 -3 18 -6 10 -8 -7 -2 11 12 13 15 -15 22 -17 -13 -1 -19 21 -21 29 24 25 28 -27 -28 -22 -5
right_child=1 2 -4 6 5 8 7 -9 -10 -11 -12 17 -14 14 -16 16 -18 19 -20 20 23 -23 -24 -25 -26 26 27 -29 -30 -31
leaf_value=-0.16787788780429738 -0.069920688010584015 -0.14260477555350062 -0.16787788780429738 0.17140180516346276 -0.16787788780429738 0.16864007878962697 -0.16787788780429741 0.16864007878962695 0.016751900206876866 -0.16860993178324091 0.074094588281011939 0.12009013775976717 0.069262151071481232 0.16864007878962695 0.028951986375364613 0.16976656675999854 0.089199218883267081 0.14487574980412798 -0.13233583947291336 0.1713981673582653 0.1573618528724198 0.12982340299580311 0.14840735176563327 0.15192813739918345 0.15160071891087615 0.13045309068589292 0.15043920926448839 0.1687528787831391 0.16860652211853641 0.18076456658429763
leaf_weight=1286.3641001582146 4.8634528070688239 6.3259390145540229 28.419952034950256 55.352857157588005 21.435387551784515 7.7233581542968732 5.5394821763038617 5.3098087310791016 4.998677670955658 61.278543561697006 5.1050270646810523 4.9434599280357352 8.545873895287512 10.378262519836424 4.8657590746879569 4.8379951119422895 4.8547481149435043 7.3053891956806174 7.3220917582511893 5.3468402922153455 8.2251085489988309 4.8555371463298798 4.831822305917739 5.5692776739597312 5.101463556289672 4.8627553433179846 5.0875891596078864 102.36517272889614 1159.1323533058167 5.1732248067855826
leaf_count=5341 20 26 118 228 89 32 23 22 20 254 21 20 35 43 20 20 20 30 30 22 34 20 20 23 21 20 21 424 4802 21
internal_value=0 1.43345 1.57127 1.63568 -1.6503 -0.647684 1.64925 -0.0318085 1.08961 -1.61353 1.66212 1.66545 1.50517 1.58207 1.24053 1.65144 1.29413 1.67752 -1.67677 1.67932 1.68062 1.51612 1.70443 1.68192 1.68262 1.68329 1.66265 1.67886 1.68527 1.72202
internal_weight=0 1528.48 1462.34 1433.92 1327.84 34.1574 1427.59 10.8493 12.722 66.142 1416.74 1411.64 98.8405 90.2947 15.244 75.0506 9.69274 1312.79 1293.69 1307.85 1300.55 10.2024 65.3579 1290.34 1284.77 1279.67 112.316 107.453 1167.36 60.5261
internal_count=11840 6328 6054 5936 5512 141 5910 45 52 274 5865 5844 407 372 63 309 40 5437 5371 5417 5387 42 269 5345 5322 5301 465 445 4836 249
shrinkage=0.1


Tree=3
num_leaves=31
num_cat=0
split_feature=1 58 8 13 1 18 0 58 63 58 49 69 21 49 3 58 8 28 18 54 38 29 19 69 15 19 59 49 28 69
split_gain=5707.15 541.639 258.388 51.0188 30.177 51.5964 26.0077 25.9473 6.23785 4.31518 14.4035 4.30705 2.96075 1.59059 0.878097 0.682566 3.91201 0.785645 0.371825 0.264849 0.461272 0.137481 0.138465 0.136648 0.0608695 0.0547345 0.562305 0.176054 0.181021 0.0529181
threshold=2.6971000000000004e-06 2.5207500000000005 2.4978000000000002 9.6156500000000013e-07 2.6445000000000003e-06 2.5842500000000004 2.2712000000000004e-06 2.5241500000000001 1.1701500000000001e-07 2.5214500000000002 8.2898500000000013 8.2875500000000013 7.2201500000000013e-07 8.2837500000000013 1.9872000000000006e-06 2.5220500000000006 2.4838500000000008 2.4167500000000004 2.5834500000000005 8.8381500000000016e-08 2.3560500000000002 8.2231500000000022 8.2809500000000025 8.3268500000000021 2.6872000000000005e-12 8.2661500000000014 8.301750000000002 8.2713500000000018 2.4174500000000005 8.3223500000000019
decision_type=2 2 2 2 2 2 2 2 2 2 2 2 2 2 2 2 2 2 2 2 2 2 2 2 2 2 2 2 2 2
left_child=4 11 3 -3 14 -6 9 -8 -7 10 13 -2 -11 -5 -1 16 -14 -18 -17 20 -20 22 23 24 -21 29 27 -27 -29 -26
right_child=1 2 -4 6 5 8 7 -9 -10 12 -12 -13 15 -15 -16 18 17 -19 19 21 -22 -23 -24 -25 25 26 -28 28 -30 -31
leaf_value=-0.15738783629686456 -0.059187947670085256 -0.16054169186693346 -0.15738783629686456 0.10536627302496347 -0.15738783629686456 0.16055682513930458 -0.15738783629686459 0.15798803311146603 0.016930436729967437 0.083646618145003238 -0.040673659824987003 -0.15823791766657935 0.083703883785981578 0.16083196510233405 -0.12222767152588172 0.13434222347321864 0.16049558645923254 0.12563631065161066 0.16155172943258844 0.14626683195877394 0.11830704982308884 0.14148551836304854 0.14078091988335822 0.14096688707018265 0.15804339687222527 0.13840668875166984 0.12669454664634305 0.15817586925049706 0.13910215093993158 0.15233867686371735
leaf_weight=1237.3714740127325 4.7427104711532584 5.1677507758140555 27.337546139955521 6.8699857741594341 20.618996664881706 7.2370291501283628 5.3285047560930234 5.1110799014568329 5.1942344158887863 5.5804573446512213 4.7892095893621436 59.043003007769585 8.5690338760614377 20.896729707717896 7.1439917385578147 7.1008028090000144 50.887400582432747 7.406295269727706 5.1876729279756528 4.7021403461694709 4.7023892998695374 5.3913602530956259 4.9402676671743384 4.9455921649932852 1018.2586772143841 4.896571919322013 6.2858752161264411 172.98503428697586 5.1230957806110373 16.524439081549644
leaf_count=5341 20 22 118 29 89 31 23 22 21 23 20 254 36 89 30 30 217 31 22 20 20 23 21 21 4382 21 27 744 22 71
internal_value=0 1.34149 1.47052 1.53076 -1.54681 -0.603712 1.54254 -0.0298406 1.00544 1.55455 1.19485 -1.50873 1.56333 1.47109 -1.57186 1.56639 1.46793 1.56067 1.57161 1.5729 1.4099 1.5742 1.57489 1.57556 1.57623 1.57666 1.56103 1.57113 1.57627 1.57952
internal_weight=0 1472.77 1408.99 1381.65 1277.57 33.0503 1376.48 10.4396 12.4313 1366.04 32.5559 63.7857 1333.49 27.7667 1244.52 1327.91 66.8627 58.2937 1261.04 1253.94 9.89006 1244.05 1238.66 1233.72 1228.78 1224.07 189.291 183.005 178.108 1034.78
internal_count=11840 6328 6054 5936 5512 141 5914 45 52 5869 138 274 5731 118 5371 5708 284 248 5424 5394 42 5352 5329 5308 5287 5267 814 787 766 4453
shrinkage=0.1


Tree=4
num_leaves=31
num_cat=0
split_feature=1 58 8 13 6 42 0 58 18 38 58 49 21 9 6 59 28 8 19 68 54 44 38 19 65 5 5 62 39 58
split_gain=4870.67 461.816 220.353 43.5184 26.4042 49.9832 22.1759 22.1621 4.58591 4.35663 4.08754 12.4404 1.8298 1.53618 0.997824 1.64797 0.717364 0.702873 0.603269 0.602177 0.262688 0.46966 0.198613 0.194693 3.08405 0.426138 0.205312 0.200182 0.155059 0.0812577
threshold=2.6971000000000004e-06 2.5207500000000005 2.4978000000000002 9.6823500000000023e-07 3.3801000000000005e-06 5.154200000000001e-07 2.2712000000000004e-06 2.5241500000000001 2.5843500000000001 2.3599500000000004 2.5214500000000002 8.2898500000000013 7.2201500000000013e-07 8.2403500000000012 3.3532000000000008e-06 8.2786500000000025 2.4205500000000004 2.4806500000000002 8.283850000000001 2.2362500000000005 8.8381500000000016e-08 1.1518500000000001e-07 2.3655500000000003 8.2661500000000014 6.532250000000001e-14 1.2804000000000001e-11 1.7738000000000001e-11 3.666050000000001e-07 8.1435500000000012 2.5215500000000004
decision_type=2 2 2 2 2 2 2 2 2 2 2 2 2 2 2 2 2 2 2 2 2 2 2 2 2 2 2 2 2 2
left_child=4 9 3 -3 14 8 10 -8 -6 -2 11 13 -12 22 -1 -16 17 -14 19 20 21 -19 -5 28 25 -25 27 -27 29 -22
right_child=1 2 -4 6 5 -7 7 -9 -10 -11 12 -13 16 -15 15 -17 -18 18 -20 -21 23 -23 -24 24 -26 26 -28 -29 -30 -31
leaf_value=-0.14909504879429999 -0.048699552406209809 -0.12545597149632259 -0.14903059869668295 0.15372180429930352 0.040733313771342886 -0.15239010367149763 -0.14903059869668298 0.14951366553428572 0.16677240827940143 -0.15000661694537837 0.088988546476472349 -0.036318833679785889 0.10888255819597076 0.084711360789898257 -0.1523270407564194 -0.072258088497337225 0.10913423359330035 0.15331589146146715 0.11225431146972019 0.11314919382745088 0.13889954781129393 0.10883035880747223 0.13018908844771579 0.1239722316790223 0.064206969642167683 0.14982738944156881 0.12754203363307545 0.12886248217230176 0.13335772537598264 0.14955395551511319
leaf_weight=1175.7548745274544 4.5905068814754477 5.9371113777160636 26.049435913562775 17.693153247237216 5.3522429615259188 19.868281975388527 5.0774324238300306 4.8728828430175781 6.2669038474559784 56.389661714434624 5.2487601339817038 4.8250746279954901 4.5076662600040427 4.4726989716291419 6.0203373283147794 4.4858778268098831 4.6940220892429343 4.9898724257945997 4.5901100337505332 4.780321091413497 7.2085558027029029 4.5258115977048874 4.4982308894395819 7.1894330978393546 4.508332982659339 178.88422265648842 4.4445004910230628 4.6734607964754096 6.0004478096961966 1025.3424472808838
leaf_count=5325 20 26 118 78 24 89 23 22 27 254 22 20 20 20 27 20 21 22 20 21 32 20 20 32 20 806 20 21 27 4623
internal_value=0 1.2678 1.38984 1.44672 -1.46422 -0.560404 1.45893 -0.0282707 1.08714 -1.4238 1.47029 1.11438 1.4791 1.38176 -1.48821 -1.1814 1.48155 1.483 1.48441 1.48574 1.48709 1.32158 1.48952 1.48837 1.45977 1.47866 1.48779 1.49294 1.49386 1.4948
internal_weight=0 1405.99 1345.01 1318.96 1217.75 31.4874 1313.03 9.95032 11.6191 60.9802 1303.08 31.4892 1271.59 26.6641 1186.26 10.5062 1266.34 1261.65 1257.14 1252.55 1247.77 9.51568 22.1914 1238.25 199.7 195.192 188.002 183.558 1038.55 1032.55
internal_count=11840 6328 6054 5936 5512 140 5910 45 51 274 5865 138 5727 118 5372 47 5705 5684 5664 5644 5623 42 98 5581 899 879 847 827 4682 4655
shrinkage=0.1


Tree=5
num_leaves=31
num_cat=0
split_feature=1 58 8 13 0 58 6 51 23 68 58 58 9 39 28 49 19 18 54 38 39 69 19 1 11 68 5 0 69 1
split_gain=4191.15 411.404 209.123 43.2228 19.0165 19.089 8.83842 27.3358 5.63177 4.36279 4.10386 1.63002 4.66388 8.0353 2.35615 0.43747 1.19451 0.416918 0.276375 0.473364 0.152279 0.152855 0.140275 0.137279 0.0553201 0.0570881 0.831396 0.213619 0.08312 0.141638
threshold=2.6809000000000005e-06 2.5207500000000005 2.4978000000000002 9.6156500000000013e-07 2.2712000000000004e-06 2.5241500000000001 3.3532000000000008e-06 2.1017500000000004e-07 5.4059500000000014e-07 2.2253500000000002 2.5210500000000002 2.5220500000000006 8.2462500000000016 8.1385500000000022 2.4176500000000005 8.2952500000000011 8.2517500000000013 2.5834500000000005 8.8381500000000016e-08 2.3560500000000002 8.1447500000000019 8.3268500000000021 8.2809500000000025 2.7101500000000002e-06 1.3016000000000002e-06 2.2317500000000003 1.2804000000000001e-11 2.1375500000000004e-06 8.3223500000000019 2.9326500000000002e-06
decision_type=2 2 2 2 2 2 2 2 2 2 2 2 2 2 2 2 2 2 2 2 2 2 2 2 2 2 2 2 2 2
left_child=6 9 3 -3 8 -6 -1 -8 -5 -2 -10 12 14 -14 15 -12 -17 -13 19 -19 21 22 23 -20 -25 28 -27 -28 -26 -30
right_child=1 2 -4 4 5 -7 7 -9 10 -11 11 17 13 -15 -16 16 -18 18 20 -21 -22 -23 -24 24 25 26 27 -29 29 -31
leaf_value=-0.14229728878491746 -0.040346751150088719 -0.14545293075195584 -0.14268449670612329 0.029446109574122411 -0.1422419518293476 0.14263754036678283 0.069557257588699642 -0.14541546427142391 0.069709294481103912 -0.14327129831584737 0.1451790552604407 0.11666741450876383 -0.032803603551893178 0.14929847871698701 0.07283809359976022 0.14373479626182542 0.082221097837058943 0.1464113425589319 0.15621902471279481 0.10075444113343 0.12553861998268259 0.1238823054401918 0.12477382846473926 0.13104090593093246 0.14265005514061085 0.096716275265159496 0.14284768145514498 0.12037263741466041 0.11952061199135999 0.14318925963713591
leaf_weight=1112.0055519342422 4.4466688036918631 5.3684263080358496 27.179007112979889 4.5925709903240195 4.8019367009401304 4.6104902923107147 8.1081322133541125 21.869922071695328 8.1606559157371503 55.783736079931259 53.803019464015961 6.5372391492128363 4.6418009698390943 5.0694506466388702 5.4855966717004767 10.996533811092375 4.4279397428035727 4.7619567811489087 7.102887123823165 4.3408049941062927 5.5023415088653556 4.5296007543802252 4.5535678118467322 4.3682245314121237 982.12069518864155 4.2368963807821265 100.3608962148428 4.4150482714176169 4.2145442068576795 6.3193306624889374
leaf_count=5325 20 25 130 20 23 22 37 103 36 265 252 30 20 23 24 52 20 22 32 20 26 21 21 20 4682 20 478 21 20 30
internal_value=0 1.19751 1.31746 1.37688 1.38904 -0.0269939 -1.40853 -0.87272 1.39978 -1.35673 1.40389 1.40859 1.2745 0.62257 1.35924 1.40923 1.26076 1.41849 1.41994 1.24639 1.42134 1.42215 1.4229 1.42361 1.42272 1.42317 1.40144 1.41901 1.42555 1.3372
internal_weight=0 1342.73 1282.5 1255.32 1249.95 9.41243 1141.98 29.9781 1240.54 60.2304 1235.95 1227.79 84.4243 9.71125 74.7131 69.2275 15.4245 1143.36 1136.83 9.10276 1127.72 1122.22 1117.69 1113.14 1106.04 1101.67 109.013 104.776 992.655 10.5339
internal_count=11840 6375 6090 5960 5935 45 5465 140 5890 285 5870 5834 391 43 348 324 72 5443 5413 42 5371 5345 5324 5303 5271 5251 519 499 4732 50
shrinkage=0.1


Tree=6
num_leaves=31
num_cat=0
split_feature=1 58 8 13 1 6 51 58 28 38 28 25 8 58 48 9 28 8 18 19 54 0 69 39 1 19 59 69 28 10
split_gain=3630.46 357.233 180.528 40.47 25.8642 8.1939 23.7204 6.8943 10.4934 3.52434 2.17026 1.51811 1.02858 1.01826 2.71465 1.01812 0.450392 0.432928 0.424432 0.40363 0.290833 0.516728 0.156528 0.154783 0.0868787 0.0805228 0.749841 0.19381 0.219135 0.085344
threshold=2.6809000000000005e-06 2.5205500000000005 2.4978000000000002 9.6156500000000013e-07 3.6570000000000003e-06 3.3532000000000008e-06 2.1017500000000004e-07 2.5212500000000007 2.4152500000000003 2.3648500000000001 2.4205500000000004 8.2282000000000002e-13 2.4805500000000005 2.5218500000000001 2.5785500000000003 8.2470500000000015 2.4145500000000006 2.4834500000000004 2.5834500000000005 8.2809500000000025 8.8381500000000016e-08 1.9896500000000005e-06 8.327650000000002 8.1447500000000019 2.7101500000000002e-06 8.2661500000000014 8.301750000000002 8.2413500000000024 2.4174500000000005 8.5952500000000015e-07
decision_type=2 2 2 2 2 2 2 2 2 2 2 2 2 2 2 2 2 2 2 2 2 2 2 2 2 2 2 2 2 2
left_child=5 -2 3 -3 7 -1 -7 8 9 16 11 -9 -13 14 15 17 -5 -14 -15 20 21 -20 23 24 -22 29 27 -27 -29 -26
right_child=1 2 -4 4 -6 6 -8 10 -10 -11 -12 12 13 18 -16 -17 -18 -19 19 -21 22 -23 -24 -25 25 26 -28 28 -30 -31
leaf_value=-0.1366892472329985 -0.13780617051128605 -0.13954572005209273 -0.13702901964480052 0.12810818054686676 -0.12311675930132088 0.063082609130541353 -0.13935494044320618 0.081308461690982145 -0.055110288141377174 0.043439222496828425 0.067030893813969025 0.087002308178401655 0.11070667145581024 0.11006475955605033 0.051043983946761975 0.086459418972298155 0.17045160356762945 0.13953500530592813 0.092445958496674197 0.11191870066674581 0.14782377076370623 0.14133521337220867 0.11889140221663924 0.11940318091782649 0.12262752678806391 0.1148371908334983 0.1025999805658705 0.13723034938132581 0.11402032805532475 0.1370272569164844
leaf_weight=1045.2970179766417 53.62634764611721 5.4787503331899634 25.554242223501205 4.9805561304092425 3.9338397383689871 8.0494217872619647 20.604046046733856 5.2437488138675681 4.7212123423814765 4.5568764805793753 4.7181038707494727 4.4039534479379645 6.2344249188899985 6.2513952106237403 4.953056573867797 4.9237967580556861 5.0681873857975006 31.679705277085304 4.1190086603164655 6.8055367320775977 6.9294645190238944 4.5500019043684006 5.0269198715686789 5.2211719751358023 4.1350025683641425 4.2135543972253791 7.0326510071754447 145.86649329960346 4.184499740600585 890.6251906901598
leaf_count=5325 270 27 130 24 20 37 103 23 22 22 23 21 30 30 24 23 23 157 20 33 33 22 25 26 20 21 35 738 21 4512
internal_value=0 1.14763 1.25944 1.31611 1.32869 -1.35243 -0.824856 1.33725 0.744918 1.16385 1.34715 1.34992 1.35237 1.35423 1.21135 1.29239 1.49465 1.34795 1.36047 1.36196 1.36349 1.18106 1.36496 1.36579 1.36663 1.3659 1.34533 1.35989 1.36583 1.36961
internal_weight=0 1265.04 1211.41 1185.86 1180.38 1073.95 28.6535 1176.44 19.3268 14.6056 1157.12 1152.4 1147.16 1142.75 47.791 42.8379 10.0487 37.9141 1094.96 1088.71 1081.9 8.66901 1073.23 1068.21 1062.99 1056.06 161.297 154.265 150.051 894.76
internal_count=11840 6375 6105 5975 5948 5465 140 5928 91 69 5837 5814 5791 5770 234 210 47 187 5536 5506 5473 42 5431 5406 5380 5347 815 780 759 4532
shrinkage=0.1


Tree=7
num_leaves=31
num_cat=0
split_feature=1 58 8 13 1 6 51 19 23 8 58 49 9 28 68 30 54 68 68 4 8 48 34 39 69 0 58 8 69 59
split_gain=3161.58 310.72 157.012 35.1899 22.4881 7.66953 20.7295 6.88834 5.40572 4.80249 2.01685 8.77818 1.69916 1.13926 0.597582 0.318028 0.295291 0.519073 0.254266 1.08292 1.00361 0.355579 0.610602 0.227777 0.160647 0.190607 0.115637 0.0685591 0.0634577 0.188028
threshold=2.6809000000000005e-06 2.5205500000000005 2.4978000000000002 9.6156500000000013e-07 3.6570000000000003e-06 3.3532000000000008e-06 2.1017500000000004e-07 8.2847500000000025 5.4059500000000014e-07 2.4804500000000007 2.5214500000000002 8.2894500000000022 8.2401500000000016 2.4205500000000004 2.2362500000000005 3.2098500000000004e-07 8.8381500000000016e-08 2.2268500000000002 2.2307500000000005 1.3584500000000003e-06 2.4825500000000003 2.5776500000000007 2.6657500000000007e-07 8.143950000000002 8.3268500000000021 2.1537500000000003e-06 2.5215500000000004 2.4832500000000004 8.3223500000000019 8.3159500000000026
decision_type=2 2 2 2 2 2 2 2 2 2 2 2 2 2 2 2 2 2 2 2 2 2 2 2 2 2 2 2 2 2
left_child=5 -2 3 -3 7 -1 -7 8 -5 -10 11 12 15 14 16 -11 17 -12 23 -20 -21 22 -22 26 25 -23 -18 -17 -28 -30
right_child=1 2 -4 4 -6 6 -8 -9 9 10 13 -13 -14 -15 -16 27 18 -19 19 20 21 24 -24 -25 -26 -27 28 -29 29 -31
leaf_value=-0.13200366102410518 -0.13294794706066879 -0.1343980838611647 -0.13230448123679414 0.019185430930942257 -0.11726383201727841 0.057252002255921912 -0.13430722557981223 0.00023072585886724377 0.026315288210809917 0.16431312272756096 0.086042151303003023 -0.025736718862706599 0.067841356107749079 0.079831281729110359 0.09353259285463493 0.12183773337815669 0.11816809459712004 0.1363228995016994 0.082299882209494302 0.087087020167162507 0.13268847283029703 0.13309323409914056 0.080489924533037077 0.10752103581766459 0.11377089018677417 0.11298814723671669 0.13230724933557922 0.13722040216951539 0.10638998198312995 0.13361794479003056
leaf_weight=977.64060369133949 50.203453540802002 5.1372992545366278 23.904935702681541 4.4446550309658042 3.7279032021760932 7.9856870919466045 19.307289451360703 4.1540969610214225 4.4755140393972388 4.2220441102981665 3.930965304374693 4.4184619337320319 3.9167864620685569 4.3653572201728812 4.2347507774829856 3.8869548290967932 5.9067493528127661 4.2980994135141373 5.0801621675491324 5.4753120839595786 5.5687602758407575 139.53797401487827 3.7501415610313416 3.7828635573387137 4.7749903649091712 4.8804131895303717 855.34220203757286 11.380213961005209 3.7366397082805616 7.8949240446090698
leaf_count=5325 270 27 130 20 20 37 103 20 22 20 20 20 20 22 21 20 31 22 27 29 30 749 20 20 25 26 4624 58 20 42
internal_value=0 1.10513 1.2127 1.26719 1.27931 -1.30544 -0.782587 1.28759 1.29245 1.29692 1.30116 1.03539 1.27943 1.30812 1.31022 1.40022 1.31173 1.12304 1.31322 1.27771 1.29179 1.30633 1.11683 1.32006 1.31817 1.32414 1.32112 1.33304 1.32207 1.24871
internal_weight=0 1186.43 1136.23 1112.32 1107.19 1004.93 27.293 1103.46 1099.3 1094.86 1090.38 27.8245 23.406 1062.56 1058.19 19.4892 1053.96 8.22906 1045.73 169.068 163.988 158.512 9.3189 876.663 149.193 144.418 872.881 15.2672 866.974 11.6316
internal_count=11840 6375 6105 5975 5948 5465 140 5928 5908 5888 5866 138 118 5728 5706 98 5685 42 5643 906 879 850 50 4737 800 775 4717 78 4686 62
shrinkage=0.1


Tree=8
num_leaves=31
num_cat=0
split_feature=1 58 8 13 0 58 6 45 23 58 50 58 28 9 55 48 9 18 54 0 4 29 69 19 12 19 59 48 49 69
split_gain=2765.81 271.588 137.588 28.4092 13.6456 13.7838 7.24018 18.4867 5.14138 4.31482 3.83354 1.84049 4.76276 3.57012 0.690122 0.541347 0.979985 0.500752 0.324275 0.545784 0.285374 0.18898 0.18256 0.165525 0.092252 0.072731 0.66494 0.222562 0.2359 0.0653683
threshold=2.6809000000000005e-06 2.5207500000000005 2.4978000000000002 9.6156500000000013e-07 2.2712000000000004e-06 2.5241500000000001 3.3532000000000008e-06 1.3281500000000003e-13 5.4059500000000014e-07 2.5210500000000002 1.3510500000000004e-07 2.5220500000000006 2.4180500000000005 8.2470500000000015 1.0031000000000002e-13 2.5785500000000003 8.2372500000000013 2.5834500000000005 8.8381500000000016e-08 1.9896500000000005e-06 1.6323500000000003e-06 8.2231500000000022 8.3268500000000021 8.2809500000000025 1.3228500000000002e-06 8.2661500000000014 8.301750000000002 2.5777500000000004 8.2713500000000018 8.3223500000000019
decision_type=2 2 2 2 2 2 2 2 2 2 2 2 2 2 2 2 2 2 2 2 2 2 2 2 2 2 2 2 2 2
left_child=6 10 3 -3 8 -6 -1 -8 -5 -10 -2 12 13 15 -9 20 -17 -13 19 -19 -11 22 23 24 -20 29 27 -27 -29 -26
right_child=1 2 -4 4 5 -7 7 14 9 11 -12 17 -14 -15 -16 16 -18 18 21 -21 -22 -23 -24 -25 25 26 -28 28 -30 -31
leaf_value=-0.12804753169924252 -0.027301792584165305 -0.12988789642478576 -0.12831563453354114 0.017376716628035416 -0.13198532396706647 0.13000213399760283 0.078699443151561993 -0.083526936887153735 0.049038347447020465 0.13120858554610329 -0.12905472337982568 0.097416251320918856 0.008051934716349211 0.053130148224626916 -0.13026647507571459 0.13269936689443049 0.063989805383173337 0.07944501650145383 0.1122736774105349 0.13242898230358366 0.10227376910248634 0.10618980454278387 0.10593525651143135 0.10718539474729785 0.1284093366281584 0.10386249457166315 0.089413479868462556 0.10299051400810362 0.12854028152245511 0.12109077720465738
leaf_weight=910.51211966574192 4.0268661528825751 4.4262228459119788 22.267432525753975 4.4180275201797476 4.1674949377775174 3.8759122937917709 6.0439584404230144 3.9394208937883404 7.3298255503177634 47.941450580954552 45.978993356227875 5.6035361588001242 4.2585894912481299 7.7331043630838385 15.947401314973829 4.6095022112131101 3.7764455080032349 3.7270029187202445 3.7892362773418418 4.0642289370298386 3.6694676876068106 4.1156997233629218 3.8498916923999777 3.8948278129100791 757.53840781748295 3.9948308169841757 4.8442606776952735 3.7184728085994712 128.27305136620998 12.404227048158644
leaf_count=5325 20 25 130 20 23 22 29 20 36 267 265 30 20 38 91 25 20 20 20 22 21 23 21 21 4401 23 27 21 743 71
internal_value=0 1.06869 1.1763 1.22916 1.24 -0.0574027 -1.26564 -0.744599 1.2502 1.25487 -1.20861 1.2604 1.1063 1.1708 -1.21008 1.25322 1.01757 1.27221 1.274 1.07084 1.29151 1.2757 1.27666 1.27757 1.27844 1.27909 1.2582 1.27117 1.2782 1.28291
internal_weight=0 1108.3 1058.29 1036.02 1031.6 8.04341 936.443 25.9308 1023.55 1019.14 50.0059 1011.81 71.9886 67.73 19.8868 59.9969 8.38595 939.818 934.214 7.79123 51.6109 926.423 922.307 918.457 914.562 910.773 140.831 135.986 131.992 769.943
internal_count=11840 6375 6090 5960 5935 45 5465 140 5890 5870 285 5834 391 371 111 333 45 5443 5413 42 288 5371 5348 5327 5306 5286 814 787 764 4472
shrinkage=0.1


Tree=9
num_leaves=31
num_cat=0
split_feature=1 58 8 13 1 58 38 8 6 18 63 28 25 58 19 29 50 49 18 54 38 28 19 69 29 11 12 69 4 38
split_gain=2429.06 239.173 120.338 27.1393 17.1736 6.94458 9.44907 16.0769 6.88363 17.5224 9.75368 2.22469 1.5136 1.18019 2.47621 6.89031 4.00626 0.803002 0.517742 0.341887 0.59352 0.275417 2.35726 0.206326 0.201345 0.127416 0.101647 0.0803318 1.00576 0.262373
threshold=2.6809000000000005e-06 2.5205500000000005 2.4978000000000002 9.6156500000000013e-07 3.6570000000000003e-06 2.5212500000000007 2.3615500000000007 2.4863500000000003 3.3532000000000008e-06 2.5842500000000004 1.1673500000000001e-07 2.4205500000000004 8.2282000000000002e-13 2.5220500000000006 8.2517500000000013 8.1899500000000014 1.5339500000000003e-07 8.2859500000000015 2.5834500000000005 8.8381500000000016e-08 2.3560500000000002 2.4187500000000006 8.2608500000000014 8.327650000000002 8.2231500000000022 1.3326500000000001e-06 1.3228500000000002e-06 8.3087500000000016 1.4077500000000004e-06 2.3593500000000005
decision_type=2 2 2 2 2 2 2 2 2 2 2 2 2 2 2 2 2 2 2 2 2 2 2 2 2 2 2 2 2 2
left_child=8 -2 3 -3 5 6 17 -8 -1 25 -11 12 -7 14 -14 -16 -17 -5 -15 20 -20 23 -23 24 26 -10 -21 -28 -29 -30
right_child=1 2 -4 4 -6 11 7 -9 9 10 -12 -13 13 18 15 16 -18 -19 19 21 -22 22 -24 -25 -26 -27 27 28 29 -31
leaf_value=-0.12467781603183339 -0.12554384428488374 -0.12667061799124885 -0.12491798079695922 0.089133283954216436 -0.1085465008611791 0.06696362061302473 -0.15735195739978866 0.12961427046304319 -0.14575755703782839 0.15250872208346403 -0.067478629339169469 0.049458315404191329 0.12865797136033846 0.092487513960800627 -0.036129139687933944 0.12879601746767452 0.033135229915473574 0.14859485233207864 0.12938525634349438 0.10774411314764271 0.072540384015179898 0.12492852755704645 0.035435427659392067 0.1007843084401558 0.10165414815222507 -0.12520211844816143 0.1248688301335204 0.068034562153642383 0.097015556843387807 0.12532368108046957
leaf_weight=844.97549133002758 43.576797515153885 4.4779257625341407 20.667949706315994 3.7469636946916598 3.2742082029581061 4.9090130478143683 4.1727465689182273 3.6687368899583817 3.9730695039033952 4.3042323440313321 3.790227085351944 4.2063719183206549 31.105581119656563 5.3264860510826102 3.8724909126758602 19.394040063023571 5.6543527841567984 5.7661852389574051 3.8554618805646887 3.6118965297937384 3.5079788416624069 24.435739949345592 3.3463158011436454 3.7237416803836814 3.8816120177507392 12.512824952602385 746.99487192928791 3.3687563538551322 3.4405956119298926 67.672382786870003
leaf_count=5325 270 27 130 20 20 23 20 21 20 22 20 23 183 30 21 113 30 30 22 20 20 153 20 22 23 78 4673 20 21 420
internal_value=0 1.03731 1.13843 1.18944 1.20086 1.20866 0.581825 -0.230912 -1.2316 -0.709942 0.494997 1.2202 1.22346 1.22637 1.09074 0.880099 1.07202 1.25175 1.23569 1.2376 1.02304 1.23944 1.14149 1.24271 1.24376 -1.30156 1.24483 1.24557 1.21425 1.23954
internal_weight=0 1031.66 988.082 967.414 962.937 959.662 17.3546 7.84148 869.556 24.5804 8.09446 942.308 938.101 933.192 60.0265 28.9209 25.0484 9.51315 873.166 867.839 7.36344 860.476 27.7821 832.694 828.97 16.4859 825.089 821.477 74.4817 71.113
internal_count=11840 6375 6105 5975 5948 5928 91 41 5465 140 42 5837 5814 5791 347 164 143 50 5444 5414 42 5372 173 5199 5177 98 5154 5134 461 441
shrinkage=0.1


Tree=10
num_leaves=31
num_cat=0
split_feature=1 58 8 13 1 58 9 6 18 63 38 58 28 9 26 8 49 18 54 49 0 69 29 19 16 58 15 54 19 59
split_gain=2140.58 210.468 105.883 23.8746 15.1078 6.59063 8.16346 6.41263 15.4582 8.42153 4.42683 2.22084 5.79184 2.55397 1.92493 0.592886 1.36777 0.544005 0.367424 0.613595 0.274772 0.208768 0.207361 0.200884 0.148288 0.108163 0.0926612 0.0885296 0.0852143 0.736998
threshold=2.6809000000000005e-06 2.5205500000000005 2.4978000000000002 9.6156500000000013e-07 3.6570000000000003e-06 2.5212500000000007 8.2376500000000021 3.3532000000000008e-06 2.5842500000000004 1.1673500000000001e-07 2.3615500000000007 2.5220500000000006 2.4180500000000005 8.2470500000000015 9.0689500000000013e-07 2.4838500000000008 8.2894500000000022 2.5834500000000005 8.8381500000000016e-08 8.2845500000000012 2.2712000000000004e-06 8.3268500000000021 8.2231500000000022 8.2809500000000025 1.7002500000000002e-06 2.5209500000000005 2.6872000000000005e-12 1.1620000000000001e-07 8.2661500000000014 8.301750000000002
decision_type=2 2 2 2 2 2 2 2 2 2 2 2 2 2 2 2 2 2 2 2 2 2 2 2 2 2 2 2 2 2
left_child=7 -2 3 -3 5 6 10 -1 27 -10 25 12 13 15 -13 16 -7 -16 19 -19 21 22 23 26 -17 -5 -20 -9 -28 -30
right_child=1 2 -4 4 -6 11 -8 8 9 -11 -12 14 -14 -15 17 24 -18 18 20 -21 -22 -23 -24 -25 -26 -27 28 -29 29 -31
leaf_value=-0.12178618487990336 -0.1225368549124652 -0.12350122613687048 -0.12200215220029242 0.14997178457257337 -0.10398086802801353 0.1272338172969959 -0.066421852597855532 -0.13992028116081104 0.14649153200851348 -0.062052944168536475 0.012194428009363371 0.053939677135402701 -0.01244863682523981 0.052560881455901681 0.087859931697376825 0.1012740364183167 0.045422449287173622 0.12630781438178654 0.10621652777652608 0.066831203214800822 0.093269751638194356 0.096394126218005971 0.09742215881444749 0.097172395997631444 0.12434194899421683 0.12702615620408739 0.12192049045829555 -0.12222662897141277 0.12053068226934285 0.078366123498988333
leaf_weight=781.77818605303764 40.34733784198761 4.1503790766000739 19.12492673099041 4.0710475295782107 3.0860122591257086 4.9141972064971906 4.1412033438682547 3.7416964322328594 4.046226277947425 3.7136072516441345 4.2002651840448371 4.3623375147581092 4.2490706741809836 7.0164972543716422 5.0603228956460944 3.0250059813261023 3.498308077454567 3.6263712793588629 4.0013548731803885 3.324943795800209 3.5703399032354346 3.4129593521356574 3.6569326668977729 3.4386494010686866 35.371884435415268 4.1471546143293381 660.44000793993473 11.578165769577025 117.03201101720333 4.2976734340190879
leaf_count=5325 270 27 130 21 20 30 21 20 22 20 24 21 21 37 30 20 20 22 24 20 23 21 23 21 227 25 4463 78 787 27
internal_value=0 1.00994 1.10827 1.15785 1.16896 1.17661 0.551637 -1.20253 -0.683025 0.466888 0.95709 1.18845 0.999504 1.08823 1.20189 1.17257 0.932129 1.20545 1.2075 0.97859 1.20949 1.21073 1.2118 1.2129 1.22525 1.38393 1.21395 -1.26548 1.21473 1.19037
internal_weight=0 957.567 917.22 898.095 893.945 890.859 16.5597 804.858 23.0797 7.75983 12.4185 874.299 58.075 53.8259 816.224 46.8094 8.41251 811.862 806.801 6.95132 799.85 796.28 792.867 789.21 38.3969 8.2182 785.771 15.3199 781.77 121.33
internal_count=11840 6375 6105 5975 5948 5928 91 5465 140 42 70 5837 355 334 5482 297 50 5461 5431 42 5389 5366 5345 5322 247 46 5301 98 5277 814
shrinkage=0.1


Tree=11
num_leaves=31
num_cat=0
split_feature=1 58 8 22 1 58 49 6 18 63 17 49 58 28 19 9 18 8 54 38 0 69 29 19 69 4 38 48 1 36
split_gain=1891.26 185.641 93.3769 21.3376 13.3156 7.31114 10.5162 5.98828 13.6915 7.30574 3.72309 3.11614 2.66602 5.31562 14.264 1.57914 0.57843 0.513156 0.399846 0.647617 0.310975 0.224694 0.221798 0.217963 0.0966846 1.09842 0.291904 0.193799 0.0746085 0.062323
threshold=2.6809000000000005e-06 2.5205500000000005 2.4978000000000002 9.1518500000000005e-07 3.6570000000000003e-06 2.5212500000000007 8.2885500000000025 3.3532000000000008e-06 2.5842500000000004 1.1673500000000001e-07 1.6526000000000003e-06 8.2851500000000016 2.5220500000000006 2.4167500000000004 8.2444500000000023 8.2470500000000015 2.5834500000000005 2.4830500000000004 8.8381500000000016e-08 2.3560500000000002 2.2712000000000004e-06 8.3268500000000021 8.2231500000000022 8.2809500000000025 8.3087500000000016 1.4077500000000004e-06 2.3593500000000005 2.5776500000000007 2.8601500000000005e-06 6.6672500000000006e-07
decision_type=2 2 2 2 2 2 2 2 2 2 2 2 2 2 2 2 2 2 2 2 2 2 2 2 2 2 2 2 2 2
left_child=7 -2 3 -3 5 6 11 -1 29 -10 -7 -5 13 15 -15 17 -14 -12 19 -18 21 22 23 24 27 -26 -27 -20 -13 -9
right_child=1 2 -4 4 -6 10 -8 8 9 -11 12 28 16 14 -16 -17 18 -19 20 -21 -22 -23 -24 -25 25 26 -28 -29 -30 -31
leaf_value=-0.11928903150150999 -0.11994321147177178 -0.13575471818824347 -0.1194837911048565 0.033539160418483198 -0.099632470042504459 0.010833396177856624 -0.095420565900462467 -0.1350047937807175 0.14135988553228235 -0.05702773738612274 0.088088695980403156 0.14514136834619673 0.083473884077221505 0.12807807201901142 -0.11882825709895027 0.060552804217310068 0.12385303566350739 0.12146437445597025 0.099219589709435577 0.060946485204909855 0.088327637664205802 0.092269411364431397 0.093426168737924406 0.093002045253002791 0.05629682327676401 0.087800164438860684 0.11974117724669167 0.11948652862844567 0.1249513466050089 -0.11964936812628778
leaf_weight=721.42461670935154 37.25638747215271 3.4354917705059043 17.65082736313343 5.1389113217592257 2.9079465568065634 3.3480148315429679 3.8734677135944358 3.5125639140605953 3.787154793739318 3.640706941485405 5.337932586669921 3.6897586137056351 4.8069304823875418 5.7760697901248914 3.9329832196235657 5.7031953334808341 3.4129871428012839 33.628235682845116 4.7522621005773535 3.1441862881183624 3.4020059257745734 3.2191152721643439 3.443177565932273 3.2437527179718009 3.0094989091157904 3.0087070167064658 58.344862744212151 657.89803640544415 3.6317782551050186 10.679003342986105
leaf_count=5325 270 21 130 30 20 20 20 20 22 20 34 20 30 35 20 31 22 234 34 20 23 21 23 21 20 21 424 4808 23 78
internal_value=0 0.985404 1.0812 1.12948 1.13979 1.14731 0.484929 -1.17735 -0.658768 0.441218 1.16068 0.9323 1.16505 0.951228 0.280602 1.09699 1.18052 1.16892 1.18274 0.936891 1.18492 1.18631 1.18747 1.18866 1.18982 1.15282 1.18175 1.19341 1.35126 -1.2345
internal_weight=0 886.997 849.74 832.089 828.654 825.746 16.3339 743.044 21.6194 7.42786 809.412 12.4604 806.064 54.3784 9.70905 44.6694 751.686 38.9662 746.879 6.55717 740.321 736.919 733.7 730.257 727.013 64.3631 61.3536 662.65 7.32154 14.1916
internal_count=11840 6375 6105 5975 5954 5934 93 5465 140 42 5841 73 5821 354 55 299 5467 268 5437 42 5395 5372 5351 5328 5307 465 445 4842 43 98
shrinkage=0.1


Tree=12
num_leaves=31
num_cat=0
split_feature=1 58 8 13 1 58 49 6 51 49 28 8 32 49 19 61 7 28 54 22 29 64 58 19 28 7 21 69 4 58
split_gain=1674.99 164.114 82.5322 19.3296 11.8009 6.72815 14.1521 5.60674 12.5122 3.59044 2.36353 1.51174 1.13212 1.45467 0.948813 13.6471 1.16941 1.11471 0.341786 1.11936 0.289568 0.262049 0.173184 0.757289 0.113254 0.0667255 0.063136 0.0471503 0.328592 0.0271476
threshold=2.6809000000000005e-06 2.5205500000000005 2.4978000000000002 9.6823500000000023e-07 3.6570000000000003e-06 2.5214500000000002 8.290750000000001 3.3532000000000008e-06 2.1017500000000004e-07 8.2851500000000016 2.4205500000000004 2.4806500000000002 6.7713000000000013e-07 8.2926500000000019 8.2657500000000024 1.9421500000000002e-07 3.0910000000000001e-06 2.4174500000000005 1.2306500000000002e-07 1.1131500000000003e-06 8.220950000000002 6.9815500000000021e-08 2.5218500000000001 8.2517500000000013 2.4158500000000003 2.6435500000000007e-06 7.267050000000001e-07 8.3223500000000019 1.4391500000000002e-06 2.5220500000000006
decision_type=2 2 2 2 2 2 2 2 2 2 2 2 2 2 2 2 2 2 2 2 2 2 2 2 2 2 2 2 2 2
left_child=7 -2 3 -3 5 6 9 -1 -9 -5 11 -7 13 -13 20 16 17 18 -16 -20 21 -14 23 -23 25 -11 -24 29 -29 -28
right_child=1 2 -4 4 -6 10 -8 8 -10 24 -12 12 14 -15 15 -17 -18 -19 19 -21 -22 22 26 -25 -26 -27 27 28 -30 -31
leaf_value=-0.11712075794595807 -0.11769346044903856 -0.08655149372485324 -0.11729677395185772 0.032906420036222565 -0.095447835659234259 0.0462583178326871 -0.10601663633943262 0.047642608613177151 -0.11927134466520493 0.13976640149435679 0.034263549979869058 0.019452045731402273 0.086980276475996043 0.121665926671642 0.1176789647858314 -0.085259440594247407 0.047973613621014259 0.056021251119285964 0.042283949212478092 0.11954067621634122 0.085266818416616402 0.12131901812479716 0.12950157325352135 0.076142602385379843 0.10559465469823151 0.12305284245507596 0.12229071761237571 0.079442143638964277 0.11893410075082521 0.11738326493391844
leaf_weight=664.23326199501753 34.322103589773178 4.9505593329668036 16.25354591012001 6.3193795755505624 2.7406576871871939 3.2275130301713935 4.2077795714139929 6.73493164777756 13.479635082185267 3.4456502050161344 3.6854403913021079 2.8189356327056876 2.8956380784511557 2.7512292861938477 105.32095384597778 3.5769643187522879 2.7078001648187628 3.1779690980911246 2.6190800666809064 6.6049543917179108 2.8912615627050391 11.944934070110323 4.3015741407871237 5.3825767934322348 2.7672389149665824 7.7866981104016304 11.509242251515387 2.587986856698989 11.333437234163283 547.90007634460926
leaf_count=5325 270 33 130 39 20 21 20 37 103 20 23 20 20 20 827 23 20 24 20 49 21 86 26 34 20 53 81 20 85 4350
internal_value=0 0.9635 1.057 1.10411 1.11686 1.12431 0.609058 -1.15542 -0.636603 0.954731 1.14145 1.14547 1.14848 0.699378 1.15194 1.0723 1.12947 1.14442 1.16062 0.976043 1.16837 1.1699 1.17136 1.07286 1.23716 1.2818 1.17432 1.17341 1.11593 1.17484
internal_weight=0 820.031 785.709 769.456 764.505 761.764 24.5267 684.448 20.2146 20.319 737.238 733.552 730.325 5.57016 724.754 124.008 120.431 117.723 114.545 9.22403 600.747 597.855 594.96 17.3275 13.9996 11.2323 577.632 573.331 13.9214 559.409
internal_count=11840 6375 6105 5975 5942 5922 152 5465 140 132 5770 5747 5726 40 5686 963 940 920 896 69 4723 4702 4682 120 93 73 4562 4536 105 4431
shrinkage=0.1


Tree=13
num_leaves=31
num_cat=0
split_feature=1 58 8 13 8 19 1 18 23 69 0 58 48 5 49 58 18 64 54 0 69 39 12 69 4 38 48 55 64 30
split_gain=1486.12 145.497 73.3556 16.2257 9.48395 6.39958 5.45909 12.3607 5.21689 3.0234 2.89338 2.07781 3.9443 8.1461 3.21239 0.751547 0.676737 0.646809 0.473335 0.721077 0.265101 0.262954 0.164296 0.112352 1.20501 0.330493 0.2219 0.0435828 0.0221175 0.40602
threshold=2.6809000000000005e-06 2.5207500000000005 2.4978000000000002 9.6156500000000013e-07 2.4799500000000005 8.2847500000000025 2.6218000000000005e-06 2.5842500000000004 5.4059500000000014e-07 8.2875500000000013 2.2712000000000004e-06 2.5220500000000006 2.5784500000000006 1.4767000000000001e-11 8.2963500000000021 2.5216500000000006 2.5834500000000005 1.0350000000000001e-07 8.8381500000000016e-08 1.9896500000000005e-06 8.3268500000000021 8.1447500000000019 1.3228500000000002e-06 8.3087500000000016 1.4077500000000004e-06 2.3566500000000006 2.5776500000000007 9.0554500000000013e-14 1.0215500000000002e-07 3.798150000000001e-07
decision_type=2 2 2 2 2 2 2 2 2 2 2 2 2 2 2 2 2 2 2 2 2 2 2 2 2 2 2 2 2 2
left_child=6 9 3 -3 -5 8 -1 27 -6 -2 11 12 14 -14 17 -15 -13 -10 19 -18 21 22 -20 26 -25 -26 -24 -8 -28 -30
right_child=1 2 -4 4 5 -7 7 -9 10 -11 -12 16 13 15 -16 -17 18 -19 20 -21 -22 -23 23 24 25 -27 28 -29 29 -31
leaf_value=-0.11523342927788072 -0.013315023020976728 -0.11751812058526932 -0.11538849904276181 -0.060712359910749247 -0.0021950053332367757 -0.02895952419438283 -0.12913030031886011 0.050958675620666728 0.11978466832368873 -0.11625721232557361 0.031402816427603647 0.074149662930277402 -0.074212881930958915 0.058442567715049701 0.0079232872262136444 0.12186873080357939 0.049043867475340473 0.079747455929449526 0.090705597251265632 0.11960902244726379 0.083769540132930503 0.085999269292894448 0.091965750238408417 0.045259227274253466 0.078788108091625494 0.11565967903877256 0.11550673003987161 -0.11539456709904626 0.072482917287005968 0.11548609608250732
leaf_weight=610.34165201336145 3.140464484691619 3.1609033495187751 14.937506586313246 3.256189450621604 4.0478060841560355 3.282268024981021 3.0444194599986103 6.5082293897867194 35.674050241708755 31.173293575644493 4.4628878980875006 4.2744688242673865 3.9710221514105788 2.8495184779167158 2.9961575567722312 5.4246726110577583 2.792290821671485 4.5496511161327353 2.858111821115016 3.0081759765744209 2.8241388052701941 3.2255082055926314 4.0962528735399237 2.6996514052152625 2.5592029318213454 48.515563003718853 514.79815702885389 9.5756552666425687 2.3227792233228675 40.088014177978039
leaf_count=5324 20 25 130 21 20 20 20 38 270 265 34 30 23 22 21 39 20 31 20 22 21 26 34 20 20 415 4440 83 20 346
internal_value=0 0.943601 1.03913 1.08542 1.09556 1.10347 -1.13585 -0.609806 1.11002 -1.06836 1.11662 1.12181 0.93621 0.435215 1.07815 1.00026 1.13805 1.15256 1.14074 0.856396 1.14338 1.14477 1.14626 1.14737 1.10371 1.13812 1.15155 -1.18708 1.15326 1.13131
internal_weight=0 756.989 722.675 707.737 704.577 701.32 629.47 19.1283 698.038 34.3138 693.99 689.527 55.4651 12.2452 43.2199 8.27419 634.062 40.2237 629.788 5.80047 623.987 621.163 617.938 615.08 53.7744 51.0748 561.305 12.6201 557.209 42.4108
internal_count=11840 6375 6090 5960 5935 5914 5465 141 5894 285 5874 5840 406 84 322 61 5434 301 5404 42 5362 5341 5315 5295 455 435 4840 103 4806 366
shrinkage=0.1


Tree=14
num_leaves=31
num_cat=0
split_feature=1 58 8 25 69 0 58 6 18 63 58 9 8 28 15 8 5 18 39 54 38 58 69 40 39 19 48 28 59 19
split_gain=1320.52 129.682 65.3826 14.0343 11.9864 7.37058 8.43655 5.39192 10.8466 5.5715 4.20781 8.06098 13.0463 3.8029 3.12399 0.976961 0.921186 0.712562 0.510771 0.507258 0.759407 0.292462 0.282187 1.39516 0.292243 0.256445 0.178932 0.264694 0.0794214 1.33013
threshold=2.6809000000000005e-06 2.5209500000000005 2.4978000000000002 7.9948000000000004e-13 8.283450000000002 2.2712000000000004e-06 2.5241500000000001 3.3532000000000008e-06 2.5842500000000004 1.1673500000000001e-07 2.5220500000000006 8.2462500000000016 2.4872500000000004 2.4169500000000004 2.6584500000000002e-12 2.4879500000000001 1.7476500000000003e-11 2.5834500000000005 8.0733500000000014 8.8381500000000016e-08 2.3560500000000002 2.5204500000000007 8.3223500000000019 2.2392000000000004e-07 8.1447500000000019 8.2809500000000025 2.5775500000000005 2.4176500000000005 8.301750000000002 8.2679500000000008
decision_type=2 2 2 2 2 2 2 2 2 2 2 2 2 2 2 2 2 2 2 2 2 2 2 2 2 2 2 2 2 2
left_child=7 4 3 -3 -2 10 -7 -1 -9 -10 11 13 -13 16 -12 21 18 -16 -5 20 -19 -6 24 -24 25 26 27 -21 -28 -30
right_child=1 2 -4 5 15 6 -8 8 9 -11 14 12 -14 -15 17 -17 -18 19 -20 22 -22 -23 23 -25 -26 -27 28 -29 29 -31
leaf_value=-0.11358191510803251 0.093710092362981182 -0.10912205077304489 -0.11371657276992152 0.072737389251314163 -0.11399571197970718 -0.12342757132577729 0.1200360315801963 -0.11764209510641639 0.13410988446189862 -0.048738243624344736 0.011931147221114722 -0.13675553916806063 0.11785599296173999 0.024012132078667928 0.070293313730089735 -0.050438599133269091 0.053052162884570014 0.1179761025237768 0.11712756309723038 0.11413248852322799 0.043432722970505738 -0.14512889568677539 0.11518444461460285 0.026648960143413572 0.081302596215939479 0.082526661482355462 0.1137047543836939 0.067997330564336433 0.11383383266638276 0.039683270209265077
leaf_weight=560.01723792403936 3.0846408605575553 2.9907939136028281 13.704512804746626 2.8045621588826171 26.353253021836284 2.9317362606525412 2.7662753239274025 11.286849588155748 3.3530330359935752 3.3129846751689911 3.1367888003587714 4.0439230501651746 4.0061852335929871 5.9617768973112097 4.0689452588558188 2.3388762399554244 2.6800424605607978 2.830765761435031 34.217373766005039 2.9269801378250113 2.6423088163137436 3.4074645191431037 8.4212432876229268 2.2568821758031836 2.9153777584433547 2.739821031689643 512.19332265853882 2.1623085662722588 37.941702879965305 2.5839034244418135
leaf_count=5325 20 20 130 23 246 21 22 98 22 20 22 21 26 38 30 20 20 22 285 27 20 22 74 20 25 21 4803 20 356 21
internal_value=0 0.925081 1.02437 1.07 -0.945761 1.08 -0.0523066 -1.11853 -0.579073 0.432351 1.09008 0.822182 -0.100466 0.984836 1.1146 -1.1267 1.09666 1.11995 1.13765 1.12288 0.819878 -1.1756 1.12576 0.96472 1.12882 1.13046 1.13196 0.945308 1.13368 1.09106
internal_weight=0 698.112 662.928 649.223 35.1842 646.232 5.69801 577.97 17.9529 6.66602 640.534 53.7139 8.05011 45.6638 586.82 32.0996 39.702 583.684 37.0219 579.615 5.47307 29.7607 574.142 10.6781 563.463 560.548 557.808 5.08929 552.719 40.5256
internal_count=11840 6375 6067 5937 308 5917 43 5465 140 42 5874 413 47 366 5461 288 328 5439 308 5409 42 268 5367 94 5273 5248 5227 47 5180 377
shrinkage=0.1


Tree=15
num_leaves=31
num_cat=0
split_feature=1 58 8 22 58 28 5 6 40 13 13 38 60 0 0 34 18 54 44 69 29 19 19 59 49 48 69 9 58 21
split_gain=1175.63 115.831 57.5709 14.7571 9.45839 14.3729 11.2157 5.0812 9.89289 4.04446 2.8264 2.78584 4.62975 1.7794 0.978834 2.14218 0.749123 0.541993 0.806199 0.313155 0.304715 0.273514 0.131823 1.03333 0.39081 0.395084 0.120777 0.348563 0.0817137 0.0331472
threshold=2.6809000000000005e-06 2.5205500000000005 2.4978000000000002 9.1518500000000005e-07 2.5220500000000006 2.4185500000000002 1.7973500000000005e-11 3.3532000000000008e-06 1.9703500000000002e-07 9.9906000000000027e-07 9.721350000000001e-07 2.3640500000000002 1.0874500000000003e-07 2.2712000000000004e-06 1.8443500000000002e-06 2.5152500000000005e-07 2.5834500000000005 8.8381500000000016e-08 1.1518500000000001e-07 8.3268500000000021 8.2231500000000022 8.2809500000000025 8.2661500000000014 8.301750000000002 8.2713500000000018 2.5777500000000004 8.3223500000000019 8.2477500000000017 2.5209500000000005 7.267050000000001e-07
decision_type=2 2 2 2 2 2 2 2 2 2 2 2 2 2 2 2 2 2 2 2 2 2 2 2 2 2 2 2 2 2
left_child=7 -2 3 -3 5 6 9 -1 -9 -5 -6 14 -13 16 15 -11 -12 18 -18 20 21 22 26 24 -24 -26 29 -28 -16 -19
right_child=1 2 -4 4 10 -7 -8 8 -10 11 13 12 -14 -15 28 -17 17 19 -20 -21 -22 -23 23 -25 25 -27 27 -29 -30 -31
leaf_value=-0.11212445955243702 -0.11274181534980532 -0.11962950562632034 -0.11224646465946569 -0.010432500243098079 0.017873545984477102 -0.10867024113134323 -0.11094173351511578 0.044355084891649479 -0.11495110591575791 0.11891197973889484 0.066554616866928734 0.11584989247817529 -0.041859953017960798 0.041087573528507296 0.13254733187377749 0.0011634802286404407 0.11655535865230336 0.12227441063867824 0.037511709689815848 0.075467669867720813 0.077206433789117235 0.078889954255182124 0.068693279024119008 0.05121659788343428 0.071005685247951339 0.11254269362111434 0.064423164432935567 0.11310518708819944 0.11575631943812786 0.11230676761978944
leaf_weight=512.97285547107458 26.780333980917931 2.9335321858525267 12.554421558976172 3.5901600718498221 3.3605493977665892 4.3224661126732817 2.8824589252471915 6.1796744316816357 10.558387398719786 4.167037606239318 3.8778906166553488 4.0765078142285338 3.4255737140774727 3.7353481128811827 3.2130281627178183 2.4555142372846603 2.6759213134646407 3.3625280633568755 2.4920338988304138 2.4710868299007407 2.6313913762569419 2.587512493133544 2.2216504961252204 3.1061384305357924 2.3637138456106177 73.343086749315262 2.0480239167809478 5.2180614918470383 29.586929574608803 427.27770335227251
leaf_count=5325 270 21 130 24 25 24 21 39 101 33 30 35 20 31 21 20 22 25 20 21 23 21 21 27 23 745 20 51 263 4388
internal_value=0 0.908513 0.997027 1.04112 1.05205 0.667195 0.809171 -1.10355 -0.561354 0.918649 1.09298 0.996916 0.43837 1.09868 1.10321 0.752531 1.10347 1.10667 0.784398 1.10983 1.1115 1.11322 1.11483 1.07778 1.10033 1.11246 1.12169 0.993836 1.17401 1.12385
internal_weight=0 642.761 615.98 603.426 600.492 57.7197 53.3972 529.711 16.7381 50.5148 542.773 46.9246 7.50208 539.412 39.4225 6.62255 535.677 531.799 5.16796 526.631 524.16 521.528 518.941 81.0346 77.9285 75.7068 437.906 7.26609 32.8 430.64
internal_count=11840 6375 6105 5975 5954 461 437 5465 140 416 5493 392 55 5468 337 53 5437 5407 42 5365 5344 5321 5300 816 789 768 4484 71 284 4413
shrinkage=0.1


Tree=16
num_leaves=31
num_cat=0
split_feature=1 58 8 13 69 28 1 18 0 22 58 6 60 9 8 8 18 54 38 69 39 19 58 15 69 4 38 48 30 64
split_gain=1047.64 103.259 51.6698 12.3823 9.44751 6.85962 4.98733 9.61449 4.62102 2.47776 1.86184 3.43959 2.63914 0.978518 3.13891 0.912825 0.7781 0.569553 0.819814 0.326678 0.318522 0.289796 0.199778 0.172288 0.144342 1.45128 0.410974 0.277492 0.0295329 0.0294016
threshold=2.6809000000000005e-06 2.5209500000000005 2.4978000000000002 9.6156500000000013e-07 8.283450000000002 2.4206500000000006 2.6218000000000005e-06 2.5842500000000004 2.2712000000000004e-06 9.3260500000000011e-07 2.5220500000000006 4.2199000000000009e-06 1.2689000000000002e-07 8.2394500000000015 2.4858500000000006 2.4879500000000001 2.5834500000000005 8.8381500000000016e-08 2.3560500000000002 8.3268500000000021 8.1447500000000019 8.2809500000000025 2.5204500000000007 2.6872000000000005e-12 8.3087500000000016 1.4077500000000004e-06 2.3566500000000006 2.5776500000000007 3.1240000000000002e-07 1.0215500000000002e-07
decision_type=2 2 2 2 2 2 2 2 2 2 2 2 2 2 2 2 2 2 2 2 2 2 2 2 2 2 2 2 2 2
left_child=6 4 3 -3 -2 8 -1 28 9 -5 11 12 13 -11 -15 22 -12 18 -18 20 21 23 -6 -19 27 -26 -27 -25 -8 -29
right_child=1 2 -4 5 15 -7 7 -9 -10 10 16 -13 -14 14 -16 -17 17 19 -20 -21 -22 -23 -24 24 25 26 -28 29 -30 -31
leaf_value=-0.11084162771224609 0.083577549381245564 -0.1145838130593347 -0.11094974751494564 0.041937135684619258 -0.11116053493675888 -0.043147549133111182 -0.12341153501680964 0.046780634554333816 0.0058440775960328303 0.11363858532970256 0.062923408501565845 -0.0098239414755948197 0.019413796927189753 0.0011451286081446252 0.11663487950385772 -0.045929477876079067 0.11509050603984827 0.084783919708228225 0.033137697602466001 0.07200693258794208 0.074716159146095404 0.075339010427479092 -0.13836897928842565 0.081485394026592828 0.026282149335457961 0.065599799223545821 0.11122380395412301 0.11100465193917733 -0.11092275214010716 0.10786201993429526
leaf_weight=469.23956785351038 2.8037160560488728 2.5946647450327864 11.485662788152693 5.9537017792463294 22.093122363090522 3.1334057524800292 2.5506167411804181 5.940648838877677 4.6377661153674117 27.027448035776615 3.700904816389083 3.3695721477270117 4.1376174464821807 3.5500046312808973 6.9817007184028625 2.1047315448522559 2.4937713518738738 2.7265409082174292 2.3909532874822617 2.3378824666142455 2.6212891414761534 2.4459696039557448 3.0740978345274916 3.2614317908883086 2.250858522951602 2.0838541314005843 37.577577084302902 392.317945972085 7.3497097790241241 32.214952781796455
leaf_count=5324 20 24 130 36 246 22 20 38 39 265 30 22 26 26 61 20 22 23 20 21 26 21 22 34 20 20 415 4402 83 362
internal_value=0 0.89296 0.989687 1.03354 -0.912227 1.04387 -1.08979 -0.53792 1.05237 1.06091 1.06807 0.873592 0.952127 1.03563 0.777058 -1.09193 1.08602 1.08951 0.749766 1.09297 1.09479 1.09671 -1.14484 1.09849 1.09994 1.04394 1.08827 1.10543 -1.1414 1.10766
internal_weight=0 591.371 561.295 549.81 30.0757 547.215 485.081 15.841 544.082 539.444 533.49 45.0663 41.6968 37.5592 10.5317 27.272 488.424 484.723 4.88472 479.838 477.5 474.879 25.1672 472.433 469.707 41.9123 39.6614 427.794 9.90033 424.533
internal_count=11840 6375 6067 5937 308 5913 5465 141 5891 5852 5816 400 378 352 87 288 5416 5386 42 5344 5323 5297 268 5276 5253 455 435 4798 103 4764
shrinkage=0.1


Tree=17
num_leaves=31
num_cat=0
split_feature=1 58 8 22 58 0 48 6 18 69 38 8 19 49 69 15 0 18 54 0 69 48 39 19 19 48 50 69 38 49
split_gain=934.297 92.2442 45.5189 12.4285 9.51005 11.7297 6.71032 4.96019 8.69346 4.56131 4.28566 6.1479 2.99357 2.63204 3.95865 2.62342 1.79962 0.824896 0.614791 0.90488 0.354177 1.65462 0.358529 0.347469 0.318712 0.225394 0.335056 0.101015 0.841831 1.18007
threshold=2.6809000000000005e-06 2.5205500000000005 2.4978000000000002 9.1518500000000005e-07 2.5220500000000006 2.2046500000000006e-06 2.5786500000000001 3.3532000000000008e-06 2.5842500000000004 8.262850000000002 2.3644500000000002 2.4882500000000003 8.2526500000000009 8.2963500000000021 8.2805500000000016 2.6584500000000002e-12 2.2712000000000004e-06 2.5834500000000005 8.8381500000000016e-08 1.9896500000000005e-06 8.3223500000000019 2.5784500000000006 8.1447500000000019 8.2809500000000025 8.2809500000000025 2.5775500000000005 1.4247500000000004e-07 8.3087500000000016 2.3604500000000006 8.297150000000002
decision_type=2 2 2 2 2 2 2 2 2 2 2 2 2 2 2 2 2 2 2 2 2 2 2 2 2 2 2 2 2 2
left_child=7 -2 3 -3 5 6 10 -1 -9 -10 13 -12 -8 23 -15 -6 17 -17 19 -19 22 -22 24 -5 25 26 -20 -27 29 -29
right_child=1 2 -4 4 15 -7 12 8 9 -11 11 -13 -14 14 -16 16 -18 18 20 -21 21 -23 -24 -25 -26 27 -28 28 -30 -31
leaf_value=-0.10971239357320611 -0.11032800351850901 -0.11385195702800609 -0.10980282136793158 0.11457939918405896 0.014627835132910159 -0.14240482115155473 0.060943415719292307 -0.11364791993563322 0.12624399228380598 -0.048627459591417781 -0.097655850928604779 0.11370636047241389 -0.076861567910921982 0.11055249140755441 -0.049228062792813741 0.059393855669155518 0.037271046582852442 0.025772966662440135 0.051794171690844819 0.11431957345828384 0.11133139263164625 0.0048080425567558925 0.069950004985564584 0.074890363605395069 0.071859672928075491 0.10970783829100939 0.11035721964875576 0.0010602555701476018 0.11018689597320104 0.11222156315199767
leaf_weight=428.85694482922554 22.529278464615345 2.6887833550572386 10.495647661387919 27.881257966160778 3.1006775423884383 2.6890641376376143 2.6243415474891654 8.8917477726936323 3.1078220456838599 2.8681768327951431 2.8443576470017424 2.66608677059412 3.9475806355476379 3.5303944572806349 2.7650441601872444 3.5374455899000159 3.6792936623096457 2.2303074896335593 1.7011432200670236 2.3917696326971054 6.6861982718110067 1.8648796230554578 2.3805533275008193 2.3953548073768607 2.3148683533072463 395.35332565754652 2.2948451116681099 1.8032003864645987 25.549668066203594 2.0302081927657127
leaf_count=5325 270 21 130 269 23 21 20 98 22 20 20 26 21 41 20 30 31 20 20 22 74 20 25 23 21 4832 27 20 307 21
internal_value=0 0.877841 0.963436 1.00578 1.01712 0.609064 0.721432 -1.07744 -0.509598 0.423146 0.868191 0.0460632 -0.218324 0.992064 0.403747 1.06298 1.06924 1.07493 1.07874 0.715929 1.08254 0.881 1.08651 1.11439 1.08865 1.09065 0.854262 1.09287 1.03631 0.599323
internal_weight=0 543.976 521.446 510.951 508.262 51.3435 48.6544 443.725 14.8677 5.976 42.0825 5.51044 6.57192 36.5721 6.29544 456.918 453.818 450.138 446.601 4.62208 441.979 8.55108 433.428 30.2766 431.047 428.732 3.99599 424.736 29.3831 3.83341
internal_count=11840 6375 6105 5975 5954 461 440 5465 140 42 399 46 41 353 61 5493 5470 5439 5409 42 5367 94 5273 292 5248 5227 47 5180 348 41
shrinkage=0.1


Tree=18
num_leaves=31
num_cat=0
split_feature=1 58 8 13 69 28 6 51 8 58 49 19 9 32 28 19 61 59 9 38 29 28 69 64 58 1 69 4 16 9
split_gain=834.472 82.1991 40.9517 10.354 7.57549 6.27626 4.7233 8.0222 4.45672 3.1069 5.47419 4.73737 2.14488 1.47257 1.30238 1.10958 10.0522 1.76198 2.28605 0.930313 0.674664 0.505331 0.454379 0.39796 0.231131 0.149643 0.105928 0.497433 0.0519852 0.0493905
threshold=2.6809000000000005e-06 2.5209500000000005 2.4978000000000002 9.6823500000000023e-07 8.283450000000002 2.4206500000000006 3.3532000000000008e-06 2.1017500000000004e-07 2.4802500000000003 2.5218500000000001 8.2952500000000011 8.2385500000000018 8.2470500000000015 6.7713000000000013e-07 2.4174500000000005 8.2657500000000024 1.9421500000000002e-07 8.301750000000002 8.2414500000000022 2.3605500000000004 8.220950000000002 2.4174500000000005 8.2413500000000024 6.9815500000000021e-08 2.5202500000000003 3.5317500000000001e-06 8.3223500000000019 1.4391500000000002e-06 1.6328500000000002e-06 8.2546500000000016
decision_type=2 2 2 2 2 2 2 2 2 2 2 2 2 2 2 2 2 2 2 2 2 2 2 2 2 2 2 2 2 2
left_child=6 4 3 -3 -2 8 -1 -8 -5 10 12 -12 14 -11 -10 20 17 21 -19 -6 23 22 -17 -15 -21 26 28 -28 -25 -24
right_child=1 2 -4 5 19 -7 7 -9 9 13 11 -13 -14 15 -16 16 -18 18 -20 24 -22 -23 29 25 -26 -27 27 -29 -30 -31
leaf_value=-0.1087040581992172 0.075583380237070313 -0.070571495310237056 -0.1087859096101219 -0.029276927478561116 -0.04749017644749351 -0.042023065457431882 0.043797246177887342 -0.1113882333733331 0.11082157999345024 0.043026898320930304 0.10936349208633314 -0.10158238999512884 0.014715346224760934 0.064418133201219405 0.037476814221101044 0.060115944382095811 -0.10181562553317705 0.11154621533815932 -0.040004597412307323 -0.10895163605421782 0.048972240996139366 0.052250635161893412 0.10905846161698927 0.12315641929895225 -0.14129275010231554 0.085703666378458693 0.047906104617578882 0.11059516216881025 0.10905567798651546 0.090921335154785954
leaf_weight=391.46096143871546 2.5511175170540836 3.5284913405776015 9.5810825452208501 2.5586084723472586 2.4310029596090343 3.0317650809884062 5.5498079136013976 8.3324800729751569 19.194936893880378 3.7682234272360793 1.6407986655831326 3.0317618325352669 3.2659666538238517 2.0399694219231597 2.770460031926631 1.9961262121796595 2.517578810453414 2.0254354700446124 1.9570727050304413 18.14994848519564 1.9171772599220263 1.727973885834216 59.48200685530901 2.635199859738349 2.5161188766360274 2.8029125332832328 1.6108607798814762 5.9083206802606583 333.5453140437603 1.5403148382902134
leaf_count=5325 20 30 130 20 25 22 37 103 214 39 21 21 24 20 20 24 21 22 20 242 20 21 785 20 21 26 20 69 4438 20
internal_value=0 0.864229 0.958564 1.00077 -0.879439 1.01384 -1.06671 -0.493488 1.02333 1.03073 0.71916 -0.275074 0.903281 1.05262 1.01571 1.05819 0.94442 1.01631 0.370716 -1.06006 1.08131 1.05602 1.07065 1.08457 -1.12889 1.08716 1.08904 0.971651 1.09166 1.08601
internal_weight=0 499.727 474.078 464.497 25.6482 460.969 405.343 13.8823 457.937 455.378 29.9039 4.67256 25.2314 425.474 21.9654 421.706 71.2465 68.7289 3.98251 23.0971 350.46 64.7464 63.0184 348.543 20.6661 346.503 343.7 7.51918 336.181 61.0223
internal_count=11840 6375 6067 5937 308 5907 5465 140 5885 5865 300 42 258 5565 234 5526 913 892 42 288 4613 850 829 4593 263 4573 4547 89 4458 805
shrinkage=0.1


Tree=19
num_leaves=31
num_cat=0
split_feature=1 58 8 13 58 28 5 6 18 9 8 69 32 0 14 18 11 58 19 28 4 64 0 29 69 4 17 11 48 50
split_gain=745.43 73.6916 36.095 10.7519 8.69818 10.5022 8.1494 4.63324 7.58201 4.13613 9.7217 3.66025 2.00847 1.98424 1.87294 0.951904 4.3712 0.668561 0.490693 3.47478 1.89027 1.15407 0.632442 0.585945 0.120498 0.497397 0.0890253 0.0314343 0.00936075 0.00747121
threshold=2.6809000000000005e-06 2.5205500000000005 2.4978000000000002 9.6156500000000013e-07 2.5220500000000006 2.4185500000000002 1.7973500000000005e-11 3.3532000000000008e-06 2.5842500000000004 8.2401500000000016 2.4861500000000007 8.262850000000002 6.7713000000000013e-07 2.2712000000000004e-06 6.5097500000000004e-07 2.5836500000000004 1.4313500000000001e-06 2.5209500000000005 8.2639500000000012 2.4176500000000005 1.3809500000000001e-06 1.0215500000000002e-07 2.1314e-06 8.2177500000000023 8.3223500000000019 1.4391500000000002e-06 1.6647500000000002e-06 1.3326500000000001e-06 2.5783500000000004 1.3327500000000003e-07
decision_type=2 2 2 2 2 2 2 2 2 2 2 2 2 2 2 2 2 2 2 2 2 2 2 2 2 2 2 2 2 2
left_child=7 -2 3 -3 5 6 9 -1 27 17 -11 -10 14 15 -6 16 -14 -5 23 20 -20 22 -22 24 26 -26 -17 -9 -12 -19
right_child=1 2 -4 4 12 -7 -8 8 11 10 28 -13 13 -15 -16 18 -18 29 19 -21 21 -23 -24 -25 25 -27 -28 -29 -30 -31
leaf_value=-0.10780822431064913 -0.10843766034835328 -0.11192373279672255 -0.10788233547192139 0.063070560642178017 0.11255714075740995 -0.096735319674007822 -0.10001040912582093 -0.12169920798032118 0.12112903092597085 -0.070286907057012557 0.11222298289566646 -0.041711705127770865 0.11053393682519606 0.029319004978552932 -0.024371990806054445 0.12514463759639891 -0.077821509416743248 0.11581317252949358 0.0002144831142928089 -0.028145036349406457 0.10821744371695152 0.042367703919860833 0.042495247195709226 0.047502692262720601 0.044946111085844231 0.10946413553327981 0.10803284105139264 -0.10781101480468924 0.11995560251692135 0.11006017784876142
leaf_weight=357.00119271874428 18.876718673855066 2.4398536384105673 8.7382160350680333 3.3662439957261112 1.7361047193408001 4.0393755435943595 2.5758555382490149 2.3682765886187536 2.8344568759202957 5.0584855750203115 3.4694626480340958 2.6906271576881409 5.5560409724712363 3.5029029473662368 2.3525335416197777 3.0741084069013587 1.5831772089004514 2.5234044417738941 1.778692603111266 2.1018072366714469 72.74260339140892 2.8792258948087683 1.4942650422453869 1.6152442023158062 1.5485871657729138 5.2322780936956406 276.79609680920839 5.2258981019258499 2.852757453918457 21.411964870989323
leaf_count=5325 270 27 130 25 21 24 21 20 22 36 38 20 68 31 20 24 20 24 21 25 1046 34 20 21 20 67 4052 78 22 268
internal_value=0 0.850413 0.93333 0.974056 0.985953 0.571512 0.722174 -1.05663 -0.472986 0.836861 0.330395 0.418282 1.03484 1.04235 0.337704 1.04932 0.687647 1.04798 1.05631 0.987539 1.02135 1.04485 1.06895 1.07563 1.07902 0.947298 1.08221 -1.12142 1.15712 1.10667
internal_weight=0 459.346 440.469 431.731 429.291 45.2976 41.2582 370.12 13.1193 38.6823 11.3807 5.52508 383.994 379.905 4.08864 376.402 7.13922 27.3016 369.263 80.9966 78.8948 77.1161 74.2369 288.266 286.651 6.78087 279.87 7.59417 6.32222 23.9354
internal_count=11840 6375 6105 5975 5948 458 434 5465 140 413 96 42 5490 5449 41 5418 88 317 5330 1146 1121 1100 1066 4184 4163 87 4076 98 60 292
shrinkage=0.1


Tree=20
num_leaves=31
num_cat=0
split_feature=1 58 8 22 58 28 5 0 18 9 8 15 0 18 58 54 68 69 29 19 19 59 49 48 69 9 48 29 40 12
split_gain=666.743 65.707 32.1709 10.1246 9.12353 8.83837 6.91698 4.46513 8.0841 3.91463 8.15513 2.4326 2.06297 1.03521 0.933591 0.777146 1.00191 0.472901 0.463168 0.355066 0.206049 1.33795 0.581299 0.563907 0.177367 0.491389 0.0451067 0.0350883 0.016001 0.00985214
threshold=2.6809000000000005e-06 2.5205500000000005 2.4978000000000002 9.1518500000000005e-07 2.5220500000000006 2.4185500000000002 1.7973500000000005e-11 1.7180500000000002e-06 2.5842500000000004 8.2401500000000016 2.4861500000000007 2.6584500000000002e-12 2.2712000000000004e-06 2.5834500000000005 2.5209500000000005 8.8381500000000016e-08 2.2268500000000002 8.3268500000000021 8.2231500000000022 8.2809500000000025 8.2661500000000014 8.301750000000002 8.2713500000000018 2.5777500000000004 8.3223500000000019 8.2477500000000017 2.5780500000000006 8.1676500000000019 1.9750500000000002e-07 1.3273000000000002e-06
decision_type=2 2 2 2 2 2 2 2 2 2 2 2 2 2 2 2 2 2 2 2 2 2 2 2 2 2 2 2 2 2
left_child=7 -2 3 -3 5 6 9 -1 28 14 -11 -6 13 -13 -5 16 -15 18 19 20 24 22 -22 -24 29 -26 -12 -16 -9 -17
right_child=1 2 -4 4 11 -7 -8 8 -10 10 26 12 -14 15 27 17 -18 -19 -20 -21 21 -23 23 -25 25 -27 -28 -29 -30 -31
leaf_value=-0.1070335217112425 -0.10757722773693977 -0.10901398681087338 -0.10707794235910656 0.052308264679203111 0.0081608498256394296 -0.087296860811137494 -0.090698680574708729 -0.11745772314275044 0.056276320461384692 -0.061642176151573219 0.09593004034228933 0.04489679380534823 0.026593543904470898 0.008136161837814921 0.093168175794788144 0.11389290390600622 0.11070046911144593 0.052999519655016959 0.05522143228855575 0.063684122206968188 0.042508015382651074 0.026315822055303473 0.047829109221266229 0.10742334839899391 0.038616068710912825 0.10815688098875838 0.11560931439501665 0.10968949793327108 -0.10699083707342597 0.10718102930035762
leaf_weight=325.16599132120609 17.20998702570796 2.3959829360246649 7.9630240201950064 3.3948430046439197 2.712205857038497 4.0290232673287383 2.5573235228657714 1.9674050398170928 4.7672017067670822 5.1839379146695119 1.5972342304885385 2.9376301914453498 3.4771384373307219 1.8980925232172006 1.3711319193244005 2.204646471887826 1.9117221459746361 1.7385231554508198 1.8375837877392758 2.0122417137026778 1.5144429579377163 2.3493280559778205 1.6431407406926144 47.154031045734882 1.426459603011607 3.5323419757187366 4.3012366220355034 20.583670310676098 5.6690176278352737 272.77952787652612
leaf_count=5317 270 21 130 26 23 24 21 20 35 36 21 30 31 20 21 26 22 21 23 21 21 27 23 745 20 51 40 272 93 4389
internal_value=0 0.837902 0.919321 0.959284 0.971743 0.537074 0.682783 -1.04787 -0.45901 0.794376 0.298614 1.025 1.03234 1.04007 1.01111 1.04514 0.596018 1.0502 1.05289 1.05564 1.05817 1.00079 1.03523 1.05417 1.06897 0.881526 1.1028 1.08658 -1.09687 1.07235
internal_weight=0 421.716 404.506 396.543 394.147 43.0184 38.9894 337.57 12.4036 36.4321 11.0824 351.129 348.417 344.94 25.3496 342.002 3.80981 338.192 336.454 334.616 332.604 52.6609 50.3116 48.7972 279.943 4.9588 5.89847 21.9548 7.63642 274.984
internal_count=11840 6375 6105 5975 5954 461 437 5465 148 416 97 5493 5470 5439 319 5409 42 5367 5346 5323 5302 816 789 768 4486 71 61 293 113 4415
shrinkage=0.1


Tree=21
num_leaves=31
num_cat=0
split_feature=1 58 8 38 23 48 0 58 6 40 58 19 8 34 12 18 38 19 59 26 7 29 29 27 64 8 58 69 4 2
split_gain=596.488 58.7718 29.1496 8.46611 8.27711 5.64214 5.01139 6.14845 4.36837 6.41813 3.15323 4.93133 8.19594 12.0162 1.40564 1.06692 4.45765 0.581109 2.1109 2.00584 0.626154 0.623268 0.48281 0.465635 0.436558 0.263209 0.35161 0.134954 0.55837 0.026127
threshold=2.6809000000000005e-06 2.5210500000000002 2.4978000000000002 2.3606500000000001 5.4059500000000014e-07 2.5779500000000004 2.2712000000000004e-06 2.5241500000000001 3.3532000000000008e-06 1.9703500000000002e-07 2.5220500000000006 8.2517500000000013 2.4862500000000005 2.3893000000000009e-07 1.3228500000000002e-06 2.5836500000000004 2.3480500000000002 8.2657500000000024 8.301750000000002 1.2656500000000001e-06 2.5937500000000004e-06 8.2177500000000023 8.1889500000000019 1.3493000000000002e-06 9.6899500000000013e-08 2.4878500000000003 2.5204500000000007 8.3223500000000019 1.4391500000000002e-06 2.3771500000000002e-06
decision_type=2 2 2 2 2 2 2 2 2 2 2 2 2 2 2 2 2 2 2 2 2 2 2 2 2 2 2 2 2 2
left_child=8 3 4 5 -3 -2 10 -8 -1 -10 11 29 13 23 -12 16 -16 21 19 20 -19 27 -14 -13 -22 26 -5 -17 -29 -6
right_child=1 2 -4 25 6 -7 7 -9 9 -11 14 12 22 -15 15 17 -18 18 -20 -21 24 -23 -24 -25 -26 -27 -28 28 -30 -31
leaf_value=-0.10630993435937225 0.11056051750574061 -0.034704642757515898 -0.10636063553721438 -0.10647858072721016 0.10936638535004764 -0.11265624121138545 -0.11996025727585785 0.11454233992405737 0.041427113481093264 -0.10936815131242382 0.025700075368641124 0.040305887899918763 0.051692404138211426 -0.15749542860686083 0.10899022799625764 0.10650110021464365 -0.088437916560507743 0.036639785424652072 0.014172958168657461 -0.0094086538143942702 0.10662217240992947 0.041441048721985597 0.11083023491644553 0.10870608143316221 0.056642301564439515 -0.067626560743727013 -0.14627672493112151 0.035185457951420508 0.1079181891776872 0.12043225334894932
leaf_weight=296.29313250631094 3.4362335763871696 4.7689856328070155 7.2513514943420878 12.96131230145693 12.628924291580914 1.6889505870640276 2.3248154968023291 2.1539960131049156 5.0167005807161313 6.4531791694462299 2.3759051710367194 1.6318985559046284 1.7039280757307986 4.1953176632523537 4.8330541439354411 245.6632760502398 1.4981355927884576 1.3894700035452832 3.0963726043701163 1.6455358788371075 46.241268064826727 1.4978378117084492 7.273703683167696 2.5510740615427494 1.8162817582488049 1.3728045299649227 2.6787000671029082 1.3678691536188115 4.6222565844655037 2.5673776157200328
leaf_count=5325 33 37 130 229 181 22 20 22 39 101 25 20 21 22 68 4326 20 20 37 20 800 22 92 37 21 21 20 20 69 20
internal_value=0 0.825417 0.921349 -0.756677 0.961572 0.370018 0.979247 -0.0718086 -1.03966 -0.434133 0.992751 0.696404 0.332207 -0.379136 1.02327 1.02908 0.622732 1.03745 0.943465 0.992053 1.0282 1.05757 0.99606 0.820212 1.04733 -1.0961 -1.13295 1.06139 0.913094 1.11236
internal_weight=0 387.237 365.099 22.138 357.847 5.12518 353.078 4.47881 307.763 11.4699 348.599 32.5522 17.3559 8.37829 316.047 313.671 6.33119 307.34 54.1889 51.0926 49.447 253.151 8.97763 4.18297 48.0575 17.0128 15.64 251.653 5.99013 15.1963
internal_count=11840 6375 6050 325 5920 55 5883 42 5465 140 5841 393 192 79 5448 5423 88 5335 898 861 841 4437 113 57 821 270 249 4415 89 201
shrinkage=0.1


Tree=22
num_leaves=31
num_cat=0
split_feature=1 58 8 13 58 19 8 0 18 8 59 32 0 29 18 54 49 20 49 69 39 19 49 19 5 5 64 69 19 17
split_gain=534.177 52.5136 25.6013 8.87361 7.90044 7.70231 16.9257 4.29668 6.91499 4.20976 6.53412 2.04118 1.92834 1.62473 1.15075 0.882923 1.08924 0.767893 0.591217 0.53622 0.529629 0.404102 0.29886 0.263845 3.31296 0.663735 0.70883 0.224409 0.591848 0.0855723
threshold=2.6809000000000005e-06 2.5205500000000005 2.4978000000000002 9.6156500000000013e-07 2.5220500000000006 8.2517500000000013 2.4838500000000008 1.7180500000000002e-06 2.5842500000000004 2.4871500000000002 8.3010500000000018 6.7713000000000013e-07 2.2712000000000004e-06 8.174450000000002 2.5834500000000005 8.8381500000000016e-08 8.2845500000000012 5.5601000000000012e-07 8.2851500000000016 8.3268500000000021 8.1447500000000019 8.2809500000000025 8.3135500000000011 8.2639500000000012 1.2804000000000001e-11 1.8249500000000004e-11 1.0215500000000002e-07 8.3223500000000019 8.2456500000000013 1.6647500000000002e-06
decision_type=2 2 2 2 2 2 2 2 2 2 2 2 2 2 2 2 2 2 2 2 2 2 2 2 2 2 2 2 2 2
left_child=7 -2 3 -3 5 18 -7 -1 -9 10 -8 13 14 -6 -13 16 -16 -12 -5 20 21 23 -20 27 -25 26 -26 29 -29 -17
right_child=1 2 -4 4 11 6 9 8 -10 -11 17 12 -14 -15 15 19 -18 -19 22 -21 -22 -23 -24 24 25 -27 -28 28 -30 -31
leaf_value=-0.1056900841180371 -0.10614561079916492 -0.11054091835216945 -0.10572002460907921 0.041809147604235798 0.10984485796223598 -0.14910820129812699 -0.11297441562529842 -0.1085006793269457 0.05252635819132212 0.10882984963878568 0.10994631176662967 0.036062222299460087 0.023479323998655391 -0.029101997513911067 0.10901749923326248 0.12360235071264092 -0.0047953332710450177 0.020085625062305851 0.1119872675804216 0.044023321393986362 0.046865961873559105 0.05650288827203305 0.062735388589871391 -0.021463152858899586 0.10605941755683866 0.032488538124635188 0.031860635997864227 0.022847178937496489 0.10697589882563888 0.10580688068933618
leaf_weight=269.49484322592616 14.320945523679255 2.124479502439498 6.5990211814641944 1.4979792758822466 1.3720318004488938 5.0257424451410797 2.8381980508565894 6.4496952220797521 4.5468570813536644 8.5982342995703203 3.0146861188113689 2.6400797292590132 3.1800478398799887 2.176612563431263 1.6627916768193238 2.7374795228242865 1.7012360543012617 1.3891544118523595 13.946600086987017 1.5334141850471485 1.6520337015390385 1.805802397429942 1.351414956152438 2.2312828786671153 55.424579486250877 1.3156151026487339 1.3181243613362301 1.1852733604609955 2.8395649455487728 209.55760854110122
leaf_count=5317 270 27 130 22 21 36 20 113 35 114 40 30 31 20 22 24 20 20 185 21 26 21 21 32 1045 20 21 20 47 4069
internal_value=0 0.814444 0.893291 0.931815 0.944851 0.513602 0.107868 -1.0319 -0.419192 0.615177 0.0534544 1.00003 1.00923 0.246198 1.01779 1.02388 0.514608 0.816005 1.01765 1.02997 1.0332 1.03655 1.07636 1.03962 0.981122 1.02708 1.04336 1.05593 0.822009 1.06036
internal_weight=0 355.04 340.719 334.12 331.996 37.662 20.866 280.491 10.9966 15.8403 7.24204 294.334 290.785 3.54864 287.605 284.965 3.36403 4.40384 16.796 281.601 280.067 278.415 15.298 276.61 60.2896 58.0583 56.7427 216.32 4.02484 212.295
internal_count=11840 6375 6105 5975 5948 458 230 5465 148 194 80 5490 5449 41 5418 5388 42 60 228 5346 5325 5299 206 5278 1118 1086 1066 4160 67 4093
shrinkage=0.1


Tree=23
num_leaves=31
num_cat=0
split_feature=1 58 8 13 38 58 9 39 28 48 6 18 29 9 19 8 19 38 29 64 4 5 19 59 58 19 8 58 8 4
split_gain=478.527 47.2 23.2512 7.39356 6.7814 4.61333 7.31167 13.189 5.6156 4.52835 4.24323 5.6583 2.96862 1.84634 4.56842 1.36308 2.43708 0.638677 0.58403 0.51319 0.478535 0.446579 0.452389 3.32582 1.01833 0.669379 0.259406 0.214321 0.0974673 0.143276
threshold=2.6809000000000005e-06 2.5210500000000002 2.4978000000000002 9.6823500000000023e-07 2.3606500000000001 2.5223500000000008 8.2470500000000015 8.1320500000000013 2.4186500000000004 2.5779500000000004 3.3532000000000008e-06 2.5842500000000004 8.1800500000000014 8.2193500000000022 8.2631500000000013 2.4830500000000004 8.2404500000000009 2.3664500000000004 8.2231500000000022 6.9815500000000021e-08 1.4806500000000002e-06 1.1807500000000002e-11 8.2661500000000014 8.301750000000002 2.5226500000000005 8.266350000000001 2.4878500000000003 2.5204500000000007 2.4820500000000005 1.5979000000000002e-06
decision_type=2 2 2 2 2 2 2 2 2 2 2 2 2 2 2 2 2 2 2 2 2 2 2 2 2 2 2 2 2 2
left_child=10 4 3 -3 9 6 8 -8 15 -2 -1 -12 -13 14 20 16 -5 -17 19 -15 -7 -21 28 24 -24 -26 27 -6 29 -23
right_child=1 2 -4 5 26 13 7 -9 -10 -11 11 12 -14 18 -16 17 -18 -19 -20 21 -22 22 23 -25 25 -27 -28 -29 -30 -31
leaf_value=-0.10511714706765085 0.10589878840828426 -0.065625673214338195 -0.10514714324429086 0.10808919365938562 -0.1052396042354859 0.03508755938904904 -0.16697171014405954 0.1104924186419213 -0.05029632718493289 -0.11121609012006997 -0.10887896135897007 0.10879128843403876 -0.051194873950976709 0.044067334049857014 -0.076365421411954196 0.10744661452116602 -0.053642330170164315 0.050074659537749568 0.038025355763087541 0.044174648445086305 0.10554824654473215 0.1051026885817298 0.01753729637047045 -0.027166702890844392 0.036469421425396553 0.1057918598056895 -0.062809694334678895 -0.13835147268575826 0.10499824460197404 0.057254447709939739
leaf_weight=245.28889440372586 2.9459696263074902 2.8871837481856337 6.0019127763807765 2.1884684301912816 10.727101821452377 1.1532887443900088 3.4762181565165511 3.3778576254844666 2.8952442258596411 1.4254659302532671 5.4340296313166601 2.7210691273212433 2.0214223116636276 1.5127176977694023 2.0294892899692059 25.356433928012851 1.622434865683317 2.1011445969343177 1.429286591708659 1.3061097972095002 5.868678443133831 1.5243518725037568 1.4436912201344956 2.1725611463189116 1.4487371742725361 36.148807525634766 1.2059858590364445 2.3903680182993403 199.87541907280684 1.0616601333022115
leaf_count=5325 33 30 130 37 229 20 24 45 20 22 98 22 20 20 25 441 20 31 21 21 121 33 26 27 30 733 21 20 4175 20
internal_value=0 0.80345 0.897427 0.936303 -0.739204 0.951733 0.640301 -0.302305 0.829411 0.351006 -1.02492 -0.392186 0.405994 1.00144 0.557824 0.952779 0.392344 1.03056 1.01764 1.02134 0.939758 1.02492 1.02805 0.932547 0.999559 1.03121 -1.07193 -1.11274 1.04749 0.854591
internal_weight=0 325.577 306.882 300.88 18.6949 297.993 41.0178 6.85408 34.1637 4.37144 255.465 10.1765 4.74249 256.975 9.05146 31.2685 3.8109 27.4576 247.923 246.494 7.02197 244.981 243.675 41.2138 39.0412 37.5975 14.3235 13.1175 202.461 2.58601
internal_count=11840 6375 6050 5920 325 5890 618 69 549 55 5465 140 42 5272 166 529 57 472 5106 5085 141 5065 5044 816 789 763 270 249 4228 53
shrinkage=0.1


Tree=24
num_leaves=31
num_cat=0
split_feature=1 58 8 23 58 28 9 39 69 6 51 5 17 13 54 38 1 19 58 8 19 55 68 5 69 49 64 7 58 8
split_gain=428.861 42.141 20.6653 6.96065 4.82302 5.86509 5.59839 9.12653 4.61583 4.10588 5.18915 1.91279 1.44565 1.11754 0.947585 1.21429 0.904324 4.97083 2.02085 0.696823 0.495839 0.365938 0.313466 2.9954 0.247452 0.656307 0.109764 1.02068 0.108833 0.0265071
threshold=2.6809000000000005e-06 2.5209500000000005 2.4978000000000002 5.4059500000000014e-07 2.5223500000000008 2.4190500000000004 8.2470500000000015 8.1320500000000013 8.2840500000000024 3.3532000000000008e-06 2.1017500000000004e-07 1.7973500000000005e-11 1.6647500000000002e-06 9.9445500000000021e-07 8.8381500000000016e-08 2.3560500000000002 3.2991500000000004e-06 8.2631500000000013 2.5230500000000005 2.4879500000000001 8.2805500000000016 1.8405000000000003e-13 2.2327500000000007 1.3150500000000001e-11 8.3223500000000019 8.278850000000002 1.0215500000000002e-07 2.9445000000000008e-06 2.5204500000000007 2.4875500000000001
decision_type=2 2 2 2 2 2 2 2 2 2 2 2 2 2 2 2 2 2 2 2 2 2 2 2 2 2 2 2 2 2
left_child=9 8 3 -3 5 6 11 -8 -2 -1 -11 13 -6 -5 15 -14 20 18 -18 28 22 -15 24 -24 26 -26 -16 -28 -10 -9
right_child=1 2 -4 4 12 -7 7 29 19 10 -12 -13 14 21 16 -17 17 -19 -20 -21 -22 -23 23 -25 25 -27 27 -29 -30 -31
leaf_value=-0.1046074392960134 0.060698203225160355 -0.033071400199798165 -0.10463422183355585 0.021185989130930741 0.013391552823506993 -0.068787893648687148 -0.14214846962790881 0.11034892185042355 -0.1047444505762859 0.039946281195720232 -0.10750404463618993 0.0042485214747898124 0.1081462813553945 0.10648167094589003 0.1048500019826222 -0.018104009234750234 -0.035616902191248079 -0.087504021681973784 0.10557577355243281 -0.030464823061067972 0.046831964604983185 0.053860938814426232 -0.067279166361251572 0.10497135923616625 0.10615335862871447 0.011615850166962993 -0.0088564551670985616 0.10493014329763516 -0.13076794832564118 0.091767450774906237
leaf_weight=222.97282967716455 2.0131348036229602 4.3872390463948241 5.4560186937451354 1.7587240971624911 1.9419895522296418 3.1825578659772864 2.9165376611053935 1.884923689067364 10.455100290477274 4.5306335836648923 5.0438313148915768 2.3491561003029338 1.5144056081771844 24.130710586905483 187.67325520142913 1.5330135449767111 1.087827824056151 1.6274655312299717 14.876423012465237 1.2524528317153443 1.5835630558431137 1.3981560729444016 1.1346692517399777 9.156477075070141 2.4148864224553104 1.055227071046829 0.8782135881483536 7.70224928855896 1.8989369980990876 1.2952766194939611
leaf_count=5325 23 37 130 22 23 21 21 24 244 37 103 35 22 465 4327 20 21 21 326 20 23 20 20 206 45 20 20 176 21 22
internal_value=0 0.79271 0.880983 0.918879 0.938953 0.612957 0.728814 -0.143877 -0.806291 -1.01854 -0.377306 0.90834 0.993127 0.982881 1.00031 0.446357 1.00768 0.789823 0.959547 -1.01539 1.02579 1.036 1.02999 0.859796 1.03876 0.774054 1.04344 0.93284 -1.08745 1.02781
internal_weight=0 298.559 282.939 277.483 273.096 38.916 35.7335 6.09674 15.6196 232.547 9.57446 29.6367 234.18 27.2876 232.238 3.04742 229.19 17.5917 15.9643 13.6065 211.599 25.5289 210.015 10.2911 199.724 3.47011 196.254 8.58046 12.354 3.1802
internal_count=11840 6375 6067 5937 5900 630 609 67 308 5465 140 542 5270 507 5247 42 5205 368 347 285 4837 485 4814 226 4588 65 4523 196 265 46
shrinkage=0.1


Tree=25
num_leaves=31
num_cat=0
split_feature=1 58 8 13 58 19 8 8 9 0 31 0 45 18 11 19 28 60 10 59 39 49 57 49 69 60 1 10 6 49
split_gain=384.275 40.5509 20.5393 8.41434 7.19908 6.58887 11.9579 3.70806 5.50678 1.87196 1.71013 1.61165 4.76418 1.3901 4.38033 0.849576 2.33161 2.24604 4.32671 1.36953 0.857143 0.571987 0.397812 0.282792 0.207516 0.740243 0.095009 0.089337 0.022131 0.0175013
threshold=2.6663000000000006e-06 2.5205500000000005 2.4978000000000002 9.6823500000000023e-07 2.5220500000000006 8.2517500000000013 2.4838500000000008 2.4871500000000002 8.238450000000002 2.2712000000000004e-06 4.5134000000000002e-07 1.7180500000000002e-06 1.2881000000000001e-13 2.5836500000000004 1.4313500000000001e-06 8.2657500000000024 2.4174500000000005 1.2193500000000004e-07 9.9806500000000012e-07 8.301750000000002 8.1435500000000012 8.2851500000000016 5.4346500000000016e-07 8.3135500000000011 8.3223500000000019 1.0733500000000001e-07 2.6971000000000004e-06 8.5952500000000015e-07 3.3532000000000008e-06 8.2874500000000015
decision_type=2 2 2 2 2 2 2 2 2 2 2 2 2 2 2 2 2 2 2 2 2 2 2 2 2 2 2 2 2 2
left_child=11 -2 3 -3 5 21 -7 8 22 10 -6 -1 -13 14 -12 20 17 19 -19 -17 24 -5 -8 29 26 -26 -15 -14 -29 -23
right_child=1 2 -4 4 9 6 7 -9 -10 -11 13 12 27 15 -16 16 -18 18 -20 -21 -22 23 -24 -25 25 -27 -28 28 -30 -31
leaf_value=-0.10416345535460254 -0.10527208864973636 -0.064682973316326595 -0.10414925181921825 0.034346256167174669 0.020082900604646747 -0.13330661837986271 0.10693739190208823 0.10624105431341435 -0.10461419439749536 0.015778691021264259 0.10623878281492281 0.084130202067063078 -0.13191268645881404 0.12509389807086838 -0.10515424917649899 0.10450232518753999 -0.0432190071658963 -0.13818335775841215 0.10915422618444073 0.026084861954959217 0.016496437937620498 0.11681049388037024 0.033631548066912813 0.05667608225944322 0.10565389320289448 0.0078576701736235172 0.10437788337922836 -0.1068714845172104 -0.087376492266089179 0.10773247588461105
leaf_weight=202.49621586501598 11.68771120533347 3.5086465477943412 5.616822760552167 1.2526477314531828 2.7497978098690501 4.5754890441894558 2.3679118491709219 6.7260065823793411 2.8099533431231976 2.7726174741983405 3.4612442962825289 1.8056787103414524 1.3801033645868299 2.2432024627923957 1.3675000257790086 31.749493420124054 1.3247081749141205 1.199371833354234 1.7237174361944196 2.3951414227485648 1.1238356642425049 2.8588006272912017 1.0769925080239771 1.0892527289688576 3.2411259785294524 1.0167905017733572 169.31043285876513 1.7968858294188979 0.86149295791983582 8.2587562091648561
leaf_count=5316 282 37 148 22 38 36 43 114 20 31 68 21 20 23 20 785 24 23 25 34 24 35 20 21 65 20 4314 40 21 150
internal_value=0 0.770302 0.850457 0.891298 0.912322 0.460586 0.057024 0.547002 -0.0072292 0.974405 0.984562 -1.02669 -0.508971 0.994351 0.463723 1.00625 0.871406 0.917993 0.0766922 0.990016 1.03551 0.986988 0.840195 1.05303 1.04108 0.823002 1.04649 -1.1127 -1.00554 1.10067
internal_weight=0 277.508 265.82 260.203 256.695 31.0158 17.5564 12.9809 6.25486 225.679 222.906 208.34 5.84416 220.157 4.82874 215.328 38.3924 37.0677 2.92309 34.1446 176.935 13.4595 3.4449 12.2068 175.812 4.25792 171.554 4.03848 2.65838 11.1176
internal_count=11840 6422 6140 5992 5955 461 233 197 83 5494 5463 5418 102 5425 88 5337 891 867 48 819 4446 228 63 206 4422 85 4337 81 61 185
shrinkage=0.1


Tree=26
num_leaves=31
num_cat=0
split_feature=1 58 8 22 58 19 8 8 9 12 0 0 45 18 54 0 39 19 59 44 19 48 18 0 69 49 8 69 38 7
split_gain=344.67 36.2099 18.3303 7.82868 7.22128 6.17258 10.0849 3.31781 4.45128 2.91029 1.93833 1.56562 4.19631 1.42483 1.07416 1.2378 0.696235 0.751699 2.57917 7.64805 0.711333 0.750354 0.600582 0.552117 0.213092 0.774016 0.153838 0.0909148 0.0796436 0.0610905
threshold=2.6663000000000006e-06 2.5205500000000005 2.4978000000000002 9.1518500000000005e-07 2.5220500000000006 8.2517500000000013 2.4838500000000008 2.4871500000000002 8.238450000000002 1.3151500000000002e-06 2.2712000000000004e-06 1.7180500000000002e-06 1.2881000000000001e-13 2.5834500000000005 8.8381500000000016e-08 1.9896500000000005e-06 8.1447500000000019 8.2661500000000014 8.2986500000000021 1.5637000000000004e-07 8.266350000000001 2.5777500000000004 2.5843500000000001 1.8777500000000001e-06 8.3223500000000019 8.2812500000000018 2.4822500000000005 8.318150000000001 2.3634500000000007 2.5100000000000001e-06
decision_type=2 2 2 2 2 2 2 2 2 2 2 2 2 2 2 2 2 2 2 2 2 2 2 2 2 2 2 2 2 2
left_child=11 -2 3 -3 5 22 -7 8 23 -6 13 -1 -13 -11 15 -15 17 24 20 -20 -19 -22 26 -8 29 -26 -5 -9 -14 -16
right_child=1 2 -4 4 9 6 7 27 -10 10 -12 12 28 14 16 -17 -18 18 19 -21 21 -23 -24 -25 25 -27 -28 -29 -30 -31
leaf_value=-0.10375244082171126 -0.10476507575624253 -0.091096990230601305 -0.10373933393546882 0.064605201009688126 -0.020452462363661029 -0.12407341455940034 0.019906544968651432 0.10729240397182044 -0.095187013779251983 0.016653820731856391 0.014249885209263206 0.078520241581601508 -0.098971488933318863 -0.027696078154925554 0.12156956055293984 0.10695585916732482 0.026184201352291644 0.023228714140696449 0.10590789616113035 -0.18237062955292521 0.024443876872888765 0.10447620328307827 0.04322125969933982 0.1061621457846588 0.10514903896987532 0.003136167945096701 0.10917888032340178 0.07532148196111095 -0.12985481994451639 0.10393294598712333
leaf_weight=183.9149734787643 10.624050017446278 2.4205249883234492 5.1013693064451209 0.8407896496355558 2.1158020123839369 4.5189674925059107 1.1287791244685634 5.167058914899826 2.7809844613075256 2.1013902947306624 2.763573892414569 1.7445308715105046 2.4393662810325627 1.4169201739132398 1.9889371916651717 1.3174670189619062 1.2597233913838852 1.228688701987269 2.8950988240540019 1.3491649962961672 1.2251542210578943 26.740817312151194 1.8019793108105648 2.1662183590233326 3.1628694348037234 0.9724511094391346 9.7905895859003049 1.074402719736099 1.269651476293802 156.70279128476977
leaf_count=5316 282 24 148 20 20 37 20 91 20 30 31 21 61 20 26 22 26 31 61 20 26 703 31 44 69 20 177 24 20 4399
internal_value=0 0.759585 0.838264 0.87831 0.896622 0.431668 0.0370358 0.505818 -0.0201994 0.96229 0.974326 -1.02187 -0.493838 0.985686 0.994281 0.371812 1.0029 1.00765 0.871091 0.1427 0.976983 1.0097 0.966053 0.766133 1.0357 0.8116 1.05654 1.01789 -1.09543 1.04154
internal_weight=0 254.657 244.033 238.931 236.511 29.2698 16.8364 12.3174 6.07598 207.241 205.125 189.369 5.45355 202.361 200.26 2.73439 197.526 196.266 33.4389 4.24426 29.1947 27.966 12.4334 3.295 162.827 4.13532 10.6314 6.24146 3.70902 158.692
internal_count=11840 6422 6140 5992 5968 464 236 199 84 5504 5484 5418 102 5453 5423 42 5381 5355 841 81 760 729 228 64 4514 89 197 115 81 4425
shrinkage=0.1


Tree=27
num_leaves=31
num_cat=0
split_feature=1 58 8 22 38 58 9 39 28 48 16 6 63 8 59 19 5 4 30 29 7 68 38 64 8 1 69 4 58 14
split_gain=309.183 32.5866 16.6702 6.83249 4.47879 4.33929 5.64875 7.19897 3.92313 3.38094 2.9606 1.54098 3.84158 1.4356 1.64279 1.08666 4.40653 2.1986 4.74014 1.09219 1.05183 0.80379 0.702474 0.655562 0.199784 0.193982 0.229967 0.839988 0.0754625 0.0649203
threshold=2.6663000000000006e-06 2.5210500000000002 2.4978000000000002 9.1518500000000005e-07 2.3606500000000001 2.5223500000000008 8.2462500000000016 8.1320500000000013 2.4184500000000004 2.5779500000000004 1.6328500000000002e-06 3.3532000000000008e-06 1.1685500000000001e-07 2.4830500000000004 8.2757500000000022 8.2657500000000024 1.8097000000000004e-11 1.4032500000000003e-06 3.2829500000000002e-07 8.2168500000000027 2.6483500000000002e-06 2.2187500000000004 2.3664500000000004 6.9815500000000021e-08 2.4878500000000003 3.5317500000000001e-06 8.3223500000000019 1.4391500000000002e-06 2.5204500000000007 6.6444000000000009e-07
decision_type=2 2 2 2 2 2 2 2 2 2 2 2 2 2 2 2 2 2 2 2 2 2 2 2 2 2 2 2 2 2
left_child=11 4 3 -3 9 6 8 -8 13 -2 -7 -1 -13 14 -5 19 17 18 -17 23 -19 -22 29 -12 28 26 -25 -28 -6 -15
right_child=1 2 -4 5 24 10 7 -9 -10 -11 15 12 -14 22 -16 16 -18 20 -20 -21 21 -23 -24 25 -26 -27 27 -29 -30 -31
leaf_value=-0.10337508142772595 0.10069498109066972 -0.083289738476088546 -0.10337127250236987 0.1076877365546402 -0.10400227323764666 -0.033953568682543657 -0.12109282735371406 0.095915199273208906 -0.041266438756777872 -0.11011716531841434 0.030098754591411609 0.069110683732577158 -0.11302481251858094 0.080436918707378791 -0.035624711043680472 0.10930361298700496 -0.086599932755498543 -0.01271104940393745 -0.15888298293467673 -0.010933514351312054 0.017894014240226824 0.10403069299905372 0.036491605522925283 0.10363356097375223 -0.059784948484736866 0.07091735601348273 -0.0058037047547062313 0.10488428458484492 -0.12582297263110251 0.10661370296664081
leaf_weight=167.06338007561862 2.2057277485728259 2.2937150485813609 4.6315073985606423 1.4381771534681385 7.7964846026152337 1.7293393239378918 3.5976409614086142 2.6581923756748438 2.5320250354707232 1.1612884104251859 1.2602752037346352 1.8147131111472834 3.2001808155328035 1.0014856830239356 1.802147928625345 1.6763941906392603 1.4948139376938332 0.8444297611713435 1.0859872400760648 0.86287538707256206 1.1287795081734682 26.9137914031744 1.6177203282713879 137.84179821237922 0.92365865036845285 1.9142452217638479 0.89828417450189535 2.8957057446241379 1.989245845004916 17.553612114861608
leaf_count=5323 33 22 148 29 238 20 27 50 20 23 20 20 75 23 29 33 21 21 20 21 25 765 31 4228 21 26 20 67 23 418
internal_value=0 0.748846 0.843362 0.88379 -0.726136 0.902298 0.564126 -0.28883 0.769789 0.279856 0.962612 -1.01736 -0.471164 0.897666 0.279827 0.975205 0.811776 0.891018 0.0387023 1.01239 0.972522 1.00563 0.996908 1.01907 -1.04242 1.02538 1.02965 0.786772 -1.08438 1.05201
internal_weight=0 233.749 219.673 215.041 14.0764 212.748 32.201 6.25583 25.9452 3.36702 180.547 172.078 5.01489 23.4131 3.24033 178.817 33.1442 31.6494 2.76238 145.673 28.887 28.0426 20.1728 144.81 10.7094 143.55 141.636 3.79399 9.78573 18.5551
internal_count=11840 6422 6084 5936 338 5914 627 77 550 56 5287 5418 95 530 58 5267 885 864 53 4382 811 790 472 4361 282 4341 4315 87 261 441
shrinkage=0.1


Tree=28
num_leaves=31
num_cat=0
split_feature=1 58 8 13 28 19 30 38 48 25 58 18 0 69 69 38 64 1 63 9 58 9 49 39 0 4 59 59 58 55
split_gain=277.407 29.1217 14.8035 6.44588 4.37519 7.85666 3.24196 3.05988 2.57314 2.46664 2.24307 10.2496 6.63199 4.40585 1.54543 2.09178 1.55978 1.50135 3.43862 1.41074 0.947171 1.97157 0.518967 0.225931 0.120279 0.205896 0.120137 1.12852 0.0410644 0.0290379
threshold=2.6663000000000006e-06 2.5209500000000005 2.4978000000000002 9.6156500000000013e-07 2.4187500000000006 8.2631500000000013 3.0104000000000005e-07 2.3605500000000004 2.5779500000000004 8.5711000000000007e-13 2.5237500000000002 2.5838500000000004 2.1778500000000002e-06 8.2463500000000014 8.3223500000000019 2.3635500000000005 7.3299000000000013e-08 2.6218000000000005e-06 1.1685500000000001e-07 8.2276500000000024 2.5216500000000006 8.2448500000000013 8.2952500000000011 8.0888500000000025 1.7713000000000003e-06 1.3632500000000002e-06 8.303250000000002 8.3043500000000012 2.5204500000000007 1.0406000000000001e-13
decision_type=2 2 2 2 2 2 2 2 2 2 2 2 2 2 2 2 2 2 2 2 2 2 2 2 2 2 2 2 2 2
left_child=17 7 3 -3 6 19 9 8 -2 -5 11 -8 13 -13 16 -16 -15 -1 -19 -6 21 22 -18 -21 -22 -26 -12 -28 -9 -20
right_child=1 2 -4 4 5 -7 10 28 -10 -11 26 12 -14 14 15 -17 20 18 29 23 24 -23 -24 -25 25 -27 27 -29 -30 -31
leaf_value=-0.10304703081779452 0.095864058525508791 -0.10922684208546295 -0.1030405181910896 -0.074553576354808956 -0.0061578485043854228 -0.12343232488806373 -0.13597587693886184 -0.1036691410793717 -0.10955874935405266 0.10675863558176404 0.10346084600357537 -0.085567354634790954 -0.12228604350441337 0.0019475649725281406 0.10447016915111076 -0.10158466011682998 0.10487969768131877 0.063118808823229983 -0.12510639130174636 0.050377915513054511 0.12428606295272171 -0.023807588953658781 0.026317810856635961 0.10674624074968571 0.055034644110939772 0.10383000153921679 -0.026690664429994539 0.10364478452166487 -0.12252026628818574 -0.10474340615636564
